824 100
pizza 0.03897517 0.49526197 -0.10920332 0.49247894 0.16881081 0.15491407 -0.19187357 0.05438507 0.046592444 -0.26143578 -0.11531305 0.5932686 -0.058714584 -0.5357162 -0.26443428 0.14449029 -0.027360369 -0.21858823 0.008687069 -0.03143105 -0.08907955 -0.6801416 0.18555117 0.2836717 0.53544295 0.039923485 -0.038181055 0.26017207 -0.059280984 -0.021823568 0.010255368 -0.2963005 -0.4211727 0.1473688 -0.011014505 -0.30658656 0.6292629 0.2866857 -0.5295087 0.20790954 -0.0313351 0.07233955 0.004333636 0.027368741 -0.23789456 0.15543714 -0.2717848 0.5944119 0.5460953 -0.062205393 -0.13229126 -0.19196977 -0.04840675 -0.31312457 0.19759902 0.1408601 -0.030201387 -0.15369102 0.18973954 0.0286774 0.7080239 0.3403905 -0.25636768 0.18001176 -0.017008558 0.19609705 -0.019037792 -0.039631315 -0.20489131 0.040152255 0.11527426 -0.28131258 0.16466321 0.003202306 0.20035337 -0.17190862 0.2000283 -0.23892333 0.020439794 -0.061759043 0.12579034 0.0009066359 0.25059903 0.4532132 0.08518475 0.03763191 -0.27474043 0.32039717 -0.048508693 0.15622579 0.24851777 0.16248392 0.35824472 0.002816589 0.10428068 -0.003677102 -0.41097638 -0.26026845 -0.12163037 -0.38921595
subclassof 0.15366182 0.6177126 0.07455966 0.24716005 0.22048369 0.3032804 -0.14384566 -0.1028922 0.32306537 -0.15329084 -0.111141294 0.55836016 -0.044911765 -0.14529288 0.0035683657 0.09905524 -0.18492185 -0.29551244 -0.09530498 -0.23768833 -0.13036501 -0.6370251 0.0069839046 0.14884031 0.25568518 -0.29082993 -0.45446938 0.21474065 0.1249109 0.013567764 0.10578116 -0.060904257 -0.7898888 0.4715813 0.2261181 -0.13374121 0.055643454 0.18365817 -0.5479686 0.18883017 0.034588017 0.098077 -0.10854052 0.122545175 0.14511472 0.21203144 -0.3605206 0.12659329 0.50452083 -0.19533725 -0.071726084 -0.1652637 -0.33947006 -0.23878527 -0.029333815 0.1217975 0.034675967 0.13413309 0.3274237 0.017807798 0.95773983 0.47806352 -0.20758963 -0.18891045 -0.17506789 0.0598347 -0.07364007 -0.3217524 -0.20254478 -0.06737338 0.19390778 -0.67017865 -0.02462757 0.17195131 0.35837477 -0.1501546 0.44259763 -0.37323296 0.21888146 -0.070516266 -0.054527055 -0.23148061 0.09934146 0.5345632 0.08378479 -0.039404448 -0.06044776 0.12958129 0.030150006 0.23254892 0.5072911 0.14022337 0.5947097 0.13566962 0.114591345 -0.22290865 -0.50914055 -0.09919272 -0.32874486 -0.25168988
of -0.038013972 0.6264166 0.2174052 0.5234259 0.26146635 0.29872906 -0.42786273 0.040234774 0.13588677 -0.21314873 -0.094716914 0.92050433 0.08601895 -0.39417526 0.1834341 -0.10894445 0.12084678 -0.30959228 0.15628645 0.15808512 -0.15468985 -0.33641273 0.07375011 0.0051626572 0.4893212 -0.13377663 0.22429505 0.33078048 0.12661219 -0.05356645 0.076697804 -0.27795362 -0.7506762 0.19880465 0.12653857 -0.31926095 0.48669058 0.056171957 -0.58497876 0.34817347 0.14113417 0.14226271 -0.1584103 0.4051657 0.21351919 -0.17556356 -0.17294548 0.23064832 0.39078844 -0.03484538 -0.19157793 -0.35415494 -0.22173639 -0.18818732 0.037506204 -0.13384019 0.20196767 -0.32586253 0.17034104 0.001569755 0.8387711 0.26838246 -0.46808615 0.123610936 0.22718826 0.31387162 0.14191256 -0.21205664 -0.07321245 0.042174034 -0.10016749 -0.37519947 -0.59271 -0.14523336 -0.042478792 0.0867264 0.26797926 0.02404066 0.11535924 -0.27565795 -0.15674639 0.08645891 0.110393606 0.1413184 0.36311483 0.11486819 -0.03433948 0.50407165 -0.051727086 0.19338757 0.7163687 0.31513935 0.46002364 0.051774334 0.04208689 0.08863836 -0.49216846 -0.1678506 -0.14365903 -0.33481684
super -0.44199795 0.43134853 -0.31190506 0.39935055 0.10561961 -0.16896866 -0.29905307 -0.034687378 0.3251045 -0.27344868 0.3558232 0.40745625 -0.09153898 -0.3195671 0.1336721 0.15229386 -0.10553393 -0.22174694 0.42165843 -0.014169651 0.01597108 -0.74763906 -0.06360921 0.10970934 0.19116461 -0.11909026 -0.26189014 -0.021252451 0.21325079 -0.1520735 0.1519405 -0.13354869 -0.5212914 0.46074045 0.07501423 -0.15169236 0.59118 -0.021845452 -0.6957676 0.2800626 0.19395326 -0.08105333 0.1358086 0.13520609 0.13162622 -0.24112764 -0.17663835 0.44990054 0.64562833 0.103519864 -0.16013595 -0.56931126 0.086662956 -0.04189541 0.03407894 0.31361178 -0.19228007 0.056468993 0.3237534 -0.0058088377 0.9004078 0.34912613 -0.4637729 0.32630157 -0.14629106 -0.09070538 0.21279676 -0.17854783 -0.33019677 0.043665856 0.09058873 -0.2584362 -0.13045095 -0.22762233 -0.011219562 -0.21520068 0.28726354 0.10304706 0.07444068 -0.013833556 -0.01533526 -0.11283954 0.20667331 0.19690809 -0.30598265 -0.0326142 -0.5271325 0.16241948 -0.09262673 -0.0048998725 0.5229917 0.045895107 0.4466475 0.4697018 0.242275 -0.029049864 -0.7005509 -0.26666003 -0.39506447 -0.5249149
class 0.13336149 0.46041045 -0.082648255 0.48164335 0.1777841 0.2060474 -0.14044926 -0.10764344 0.27506113 -0.44508064 0.051295802 0.38856173 -0.20644684 -0.51725066 -0.14233553 -0.030813443 0.11382643 -0.04704141 0.15026015 -0.1027503 0.42077047 -0.37405673 -0.084072284 -0.05911989 0.025228739 0.19640481 -0.072854355 0.12712666 -0.11915249 0.017109377 -0.15499206 -0.38492626 -0.51319385 0.13951048 0.21855319 -0.6916475 0.4008633 0.30796358 -0.5170747 0.25793457 0.32776347 0.25944865 -0.15185471 -0.0032938726 -0.028098332 0.015032996 -0.2932773 0.52330583 0.25674996 -0.21605052 -0.20878457 -0.17742948 -0.160462 -0.019403204 -0.009336386 0.23702504 0.019837001 0.16034596 0.5201503 -0.28948793 0.99827665 0.18937336 0.16205984 0.14058785 -0.031359 0.21959636 0.14089544 -0.34080857 -0.3573802 -0.10046596 0.28465316 -0.11974663 -0.21291924 -0.067951046 -0.04226244 -0.29065076 0.4213132 -0.49137616 0.17152248 -0.34566954 0.26037577 0.08957372 -0.061665297 0.5246306 0.006502338 0.11305925 -0.4986643 0.1951799 0.32127756 0.27120513 0.7003794 0.40920192 0.6519168 0.13832602 0.05314476 -0.00027380922 -0.50363886 -0.409871 -0.02660262 -0.46192145
http://www.semanticweb.org/owl2vec#superClassOf -0.23886903 0.42009708 0.1187962 0.566535 0.13914919 0.31176308 0.07548591 -0.31390417 0.4669832 -0.39191964 0.47648415 0.6029462 -0.23809765 -0.16531636 0.09979581 -0.20514177 0.5531565 -0.1212072 0.12886138 0.17152709 0.29540917 -0.5416295 -0.37008289 -0.042227313 -0.14730391 0.017094556 0.0599457 0.064236686 0.17478299 -0.10210235 0.11028806 -0.4669879 -0.4930322 0.3590655 0.06760067 -0.25068146 0.13859554 -0.46108013 -0.35198358 0.06261678 0.31742653 0.12619813 -0.2075056 0.25396934 -0.027329557 -0.49359003 -0.26118988 0.20096853 0.4436294 -0.11466918 -0.25578392 -0.5431705 0.16822514 0.14544713 -0.0017586886 0.30040562 0.06286913 0.2343974 0.39256656 0.13089785 0.73313725 -0.090215296 -0.3739438 -0.018187044 0.5175506 -0.09608517 0.48349372 -0.32526404 0.03633186 0.029951192 0.2878154 -0.19482881 -0.5341981 -0.49333227 -0.5027451 -0.39410332 0.15026507 -0.13647188 0.06246113 -0.3734258 -0.11602072 0.2767771 0.028174479 -0.019344728 -0.2422991 0.40521795 0.03183894 0.13716793 0.072506085 0.35698318 0.8983179 0.82559407 0.3586012 0.27835956 0.026378611 -0.057866167 -0.34401813 -0.10648509 -0.22095379 -0.5255156
http://www.w3.org/2000/01/rdf-schema#subClassOf -0.055245172 0.7347625 0.3404822 0.3235326 0.4127875 0.21112768 0.240174 -0.18368997 0.83642846 -0.03987829 0.34401032 0.54480916 0.0107149575 0.0332887 0.09737994 0.10986185 0.21827994 -0.26090002 0.07954277 -0.024390861 0.07404536 -0.7527579 -0.29889572 -0.11996488 -0.0054454533 -0.2403778 -0.42463893 0.08540324 0.32821056 -0.13887914 0.113248535 -0.353646 -0.5709178 0.21954133 0.09104915 -0.2157336 -0.08093317 -0.3122325 -0.20241818 0.19320105 0.2830625 0.4177992 -0.14780319 0.1898698 0.29996145 -0.37044168 -0.20145175 -0.031925663 0.63189477 -0.16959846 -0.45351192 -0.39195687 -0.28603938 0.00050418224 -0.13156497 0.15372418 0.05921254 0.39374354 0.38625404 -0.105623476 0.52655214 0.15794578 -0.4172712 -0.5830534 0.21800502 0.21471387 0.16398187 -0.123685725 0.0021462897 0.00465663 0.22955525 -0.36096013 -0.014043617 -0.1803033 -0.036087304 -0.0643225 0.25982264 -0.1682663 0.0015155623 -0.102532126 0.0002503338 -0.14351854 0.36473063 0.46976814 -0.37018505 0.0817218 0.3402417 0.104219764 0.14236002 0.7459604 0.19865775 0.64434016 0.5390837 0.20117536 -0.23683392 -0.32123515 -0.28351292 0.13323472 -0.4179587 -0.23130739
topping 0.10713439 0.58078754 -0.12679201 0.29818848 0.11027493 0.14764301 -0.54337066 0.04403149 0.23527853 -0.68273795 -0.12600678 0.3155292 0.5076794 -0.029613633 -0.25128102 -0.06603764 0.15883167 -0.36874902 -0.14594734 -0.009193624 -0.36749178 -0.28128925 0.42537692 -0.087481566 0.4513024 -0.2223439 -0.33496305 -0.04755565 -0.3574113 -0.077607855 0.13350804 -0.010007514 -0.4312061 0.69548434 -0.11612669 -0.4925189 0.28123203 -0.16047224 -0.62280154 0.55422103 0.4781718 -0.2651219 0.2823557 -0.21438634 -0.2552516 0.1111793 -0.001636094 0.24823494 0.605002 -0.38757217 -0.09644966 -0.13576797 -0.3582432 -0.19399421 0.053556282 -0.007973137 0.09697917 0.37351358 0.34571883 -0.010452295 0.78913665 0.27882257 -0.15542047 0.45636505 -0.17730922 0.51460487 0.28379422 -0.38985714 -0.6551543 -0.07710792 -0.013536618 -0.094866075 -0.36001724 -0.024066912 0.14856686 0.1856858 0.07774186 -0.35021126 -0.30339804 -0.07003404 0.19433257 -0.055345137 -0.08138767 0.1847262 0.046027303 0.21366619 -0.24514048 0.24559224 -0.012652982 -0.2832096 0.3614981 0.118593685 0.56639636 -0.07380228 0.08819912 0.09276066 -0.14907345 -0.11305183 -0.059997886 0.09954797
named -0.009424334 0.27948827 0.46977764 0.28681946 0.09687228 -0.11741759 0.044840705 0.07739875 0.2702691 -0.62761134 -0.18760502 0.6138511 -0.34421316 -0.51960224 -0.21625747 0.0013605473 -0.05164469 -0.68183315 -0.33017507 -0.4309936 -1.0930784 -0.6222368 -0.3879284 0.41497573 0.6468964 -0.020990191 0.12071162 0.16746268 0.14524329 -0.29785007 -0.34520966 -0.33015233 -0.15439731 -0.51971495 0.3808568 -0.8849708 0.5822066 0.21715552 -0.5829061 0.52595866 0.49441883 0.076030076 0.3707697 0.028088728 -0.17877857 -0.23603936 -0.54439616 0.47230166 0.7656923 -0.05933319 0.0023721107 0.23519164 0.21211238 -0.4425165 -0.36320475 0.11060756 -0.29913503 -0.11471114 0.42300287 -0.42531297 0.44660327 0.5863746 -0.40727445 0.06477686 -0.0897827 0.28641212 0.042259846 -0.32025862 -0.025347691 -0.03657734 0.43676886 -0.46450427 -0.16153014 -0.2793048 -0.09587771 -0.23936552 0.56059587 0.23011354 0.10218297 0.01656065 0.1640011 0.29829618 0.37226465 0.68199885 0.46651536 0.49481383 -0.87376857 -0.36425462 -0.12217087 -0.1953297 0.041419726 0.13088353 0.079491 0.45496622 -0.116529405 0.18680081 -0.27923805 -0.09899798 -0.26479554 -0.01748787
http://link477.com/ds/pizza#pizzaTopping -0.010670828 0.2427857 0.071769305 0.39574236 0.1161187 0.38936058 -0.39353532 -0.1284802 0.3707263 -1.1103855 0.038291667 0.42474303 0.091474876 0.24787797 -0.31088808 0.04410807 0.35711104 -0.26788434 -0.5408949 0.07984072 0.20037079 -0.54318166 0.1535071 -0.24436095 0.3637105 -0.24543293 -0.16914167 -0.335406 -0.08670918 -0.20602906 0.13354442 0.10974583 -0.41836572 0.6917914 -0.48896146 -0.2743902 0.047980692 -0.66034985 -0.44026595 0.733319 0.48587316 0.10195671 0.6557937 -0.5318738 -0.28363326 -0.29671615 -0.09525888 -0.1385694 1.0792406 -0.72533375 -0.4935057 -0.40193793 0.2027929 0.052523494 0.20664011 -0.006103678 0.057033785 0.33393833 0.33514783 -0.088160954 0.50387686 0.15020312 -0.37149113 0.31424782 0.7992429 0.67158914 0.5578902 0.13094977 -0.3223605 -0.18595682 0.020806862 0.17160615 -0.35042238 0.063386664 -0.30043674 0.03827546 -0.32208776 -0.43805975 -0.058183517 0.019128248 0.18482146 0.101001784 -0.11902307 0.4364156 -0.12936075 0.42148405 0.03206457 0.2060219 0.19252297 0.12705605 0.02051786 0.39256844 0.55903715 0.021626823 -0.014118375 -0.039879583 0.16589803 -0.28604186 -0.03580815 0.34019652
http://link477.com/ds/pizza#pizza 0.45364198 0.3165974 0.4148594 0.3202413 0.03353499 0.17088346 0.12465914 0.19699156 0.7013647 -0.2907724 -0.012510741 0.55814505 -0.3972635 -0.4729056 -0.069773465 0.11058073 0.109152466 -0.7491943 -0.69847596 -0.4583496 -0.5274926 -0.78116673 -0.1387964 0.6020336 0.38585028 -0.13980587 0.18631375 0.2349166 -0.08401786 -0.19925547 -0.15458062 -0.38503462 -0.23869777 -0.13149312 -0.2719454 -0.3122201 0.5436629 -0.26571143 -0.15104167 0.4736567 0.37935695 0.5366674 0.168765 0.30528083 -0.21104926 -0.20536374 -0.33632338 0.33914888 0.4275717 0.06299839 -0.18662342 -0.21070147 0.44105986 0.1218968 0.15077037 0.29096222 -0.36051586 0.2189563 0.13104069 -0.0665946 0.32032302 -0.19348374 -0.72950095 -0.33014798 0.2120168 -0.042075306 0.15952717 -0.075656794 0.25947797 -0.016589588 0.42013866 -0.3725214 0.30286756 -0.34027028 -0.5694452 -0.6803669 0.22479647 -0.041951098 -0.29527283 0.15116498 0.3273396 0.29273266 0.88888335 0.3366593 -0.16736484 0.6766443 -0.2018737 0.52015257 0.004977696 0.0076843994 0.12361178 0.2585219 0.18026055 0.2698292 -0.18795297 -0.16204002 0.10595547 0.30589733 -0.18451908 -0.19443288
http://link477.com/ds/pizza#namedPizza 0.076244965 0.4426862 0.7195237 0.19269998 0.17688206 -0.08330927 0.11024146 0.026492199 0.6363705 -0.61416906 0.07102994 0.42471915 -0.46485063 -0.44247094 -0.35236606 -0.05223705 0.29396856 -0.7349523 -0.50293475 -0.40676603 -0.865716 -1.0383817 -0.65800214 0.44554105 0.70026237 -0.18229905 0.047365185 0.0450769 0.22195052 -0.269814 -0.26245975 -0.48090976 0.13550852 -0.4767451 0.11728638 -0.642105 0.3167822 -0.2090986 -0.25402126 0.49989307 0.35252723 0.24111697 0.27834675 0.22395574 -0.26065764 -0.577406 -0.47158265 0.5742169 0.74766713 -0.15038823 -0.22446914 0.1252355 0.33601195 -0.029705988 -0.39029747 0.32360548 -0.28715134 0.18651026 0.54656607 -0.39294067 0.2432313 0.46212164 -0.47025442 -0.17091496 0.20159252 -0.008412363 0.09187498 -0.112197466 0.32154432 0.0031823672 0.42575538 -0.10184233 -0.0112743275 -0.4638221 -0.44577846 -0.39057735 -0.028834376 -0.025829468 -0.07645643 -0.03801941 -0.023797465 0.5373766 0.39251226 0.501072 0.019944752 0.4809046 -0.516757 -0.3327931 0.029899623 -0.18471445 -0.023686541 0.45865738 0.05790951 0.33593974 0.00940793 -0.09845234 0.09566383 0.3655834 -0.36040756 -0.21663575
has 0.27177617 0.20731185 0.33428532 0.6081768 0.17143342 0.058350787 -0.109826334 0.11579245 -0.03199407 0.23315343 -0.022909556 0.30468202 0.19790486 0.17809433 -0.6327101 0.054702833 -0.14136204 -0.30815133 0.29737625 -0.0017842049 -0.13822636 -0.11563821 0.1781605 0.25956017 0.32941163 -0.4671117 -0.07204272 0.31356618 -0.4118676 -0.3031677 0.26817095 -0.012956373 -0.10482639 0.043429844 0.38638765 -0.57039 -0.12910916 0.44481474 -0.2744007 0.03771609 -0.1283429 -0.4305322 0.4139787 0.1239138 -0.0033983702 0.20860861 -0.058876943 0.4503964 0.22662143 -0.042115897 0.08705008 -0.036007654 -0.1989966 -0.4433713 0.25700742 -0.3365908 0.16341037 0.26303646 0.50397503 0.14566948 0.9338772 0.5072284 -0.51278627 0.39650166 0.22504881 -0.345546 -0.040505666 -0.32482877 -0.24397762 -0.12296271 0.17146777 -0.74480265 -0.12849757 -0.091420315 -0.16009997 -0.27857944 0.36634645 0.21113671 -0.3073513 0.20257142 0.026123894 0.17497058 -0.11485755 0.58968085 -0.026054464 0.22819097 -0.00891037 -0.5402723 -0.15682271 -0.09446078 0.437228 0.5145271 0.44544578 -0.20012237 0.30179423 0.33813372 -0.6258072 -0.028854782 0.016110756 -0.8039909
chicken 0.17023262 0.4261294 -0.04744111 0.61712784 0.060727067 0.2747191 -0.22557667 -0.20064367 -0.19330776 -0.07989812 -0.22315007 0.35551858 0.13278064 -0.24132808 0.056829337 0.07560161 0.36386696 -0.4791295 -0.2883949 -0.20091367 -0.59052503 -0.39521295 0.113524094 0.6409746 0.40545163 -0.21682589 0.23767057 -0.16995864 -0.0012570879 0.097622454 -0.2506278 0.109734245 -0.27809405 0.4122222 -0.026084738 -0.3687416 0.78449434 0.18077286 -0.25856492 0.34305978 0.35335913 -0.57323074 -0.2725672 -0.044535153 -0.26012927 0.30717245 0.26452333 0.75742924 0.5100542 -0.42911398 -0.20754696 -0.11145456 -0.1997464 -0.08378541 -0.13553144 0.19715196 -0.2553752 -0.040993024 -0.14593609 -0.38842994 0.35120773 0.0056403833 -0.48154968 -0.048263755 -0.32245362 -0.25715882 -0.11979137 -0.5856429 -0.0061263656 0.21134101 0.38245386 -0.006167994 -0.12650703 -0.3077206 0.31042203 0.057077322 0.489311 0.08954225 0.329984 0.19071373 0.20967583 -0.25705945 -0.037794698 0.90172166 0.097688586 0.14029434 -0.4182475 0.06614725 0.4759481 0.32953838 0.18974447 0.29585382 0.48944202 0.12074423 -0.17297216 0.009924141 -0.20358725 -0.041285183 -0.6468523 -0.6678497
cheese 0.34954858 0.271231 -0.0947082 0.1428353 -0.16057637 -0.33048368 -0.36506608 0.24125506 -0.40186974 -0.18638757 -0.39997092 0.2300385 -0.117667295 0.055602107 0.18734124 0.14169595 0.2098619 -0.28087565 0.29511467 -0.17835641 0.21091937 0.09387273 0.24486487 0.2699238 0.23835559 0.39066672 0.030093646 0.17711563 -0.24897555 0.036568522 -0.018005654 -0.3110222 -0.72995985 0.38195038 -0.009411334 -0.7026499 0.31099907 0.22278558 -0.59222627 0.78834784 0.50133765 0.1339857 0.461037 -0.05902961 -0.4097565 -0.38987413 0.18791735 0.61719495 0.88676447 -0.37746152 -0.097713694 -0.7382039 -0.52867186 -0.70710015 0.030607447 -0.42351556 0.49463144 -0.221991 0.011495036 -0.05904271 0.9116133 -0.07383178 -0.39230555 -0.44681007 0.35090214 -0.05006512 0.07846154 -0.34825167 -0.2257802 -0.43941307 0.23630379 -0.22218402 -0.128266 -0.19669741 0.67496985 -0.10169944 0.100987226 -0.25054955 0.22246404 -0.1816606 -0.24751322 -0.53732175 -0.24827771 0.0580784 -0.11321779 0.26488087 -0.78584146 -0.17610075 -0.35442397 0.17277169 0.069495626 0.3114802 0.5308303 0.15153071 0.12397913 -0.2375525 -0.215771 -0.067892015 -0.48092845 -0.22287938
http://link477.com/ds/pizza#hasTopping 0.49657544 0.46793345 0.3993101 0.1822408 0.32644373 -0.16392803 -0.06950573 -0.05945575 0.43649697 0.12653266 0.28427267 0.1801093 0.26113755 -0.02775271 -0.6058879 0.07314028 0.15755916 -0.7077856 -0.05264281 -0.26547715 0.00070470956 -0.34600577 -0.52467394 -0.16942364 0.16852963 -0.49163502 -0.18706526 0.0919654 -0.28368297 -0.2425535 0.023089148 -0.17649227 0.17145734 0.26559108 0.20220867 -0.40738058 -0.14472798 -0.43986112 -0.30401352 0.12607007 0.6042047 -0.40290174 -0.094988 0.038436994 0.16039881 -0.10483468 -0.17896457 0.75506264 0.10564965 -0.48457605 -0.14821252 0.226024 -0.026630843 -0.33004293 0.25119075 0.06416028 0.33396208 0.7444986 0.6296433 0.19377731 0.51652384 0.38457957 -0.64318043 0.14809734 0.43384662 -0.007615907 0.30902195 -0.19182171 -0.38249555 0.25088397 -0.18479346 -0.28643292 -0.050912354 -0.26633084 0.037269387 -0.24526256 -0.11799154 0.08940327 -0.28842828 0.119180195 -0.27894813 0.06255182 -0.36405784 0.30407545 -0.52128416 0.2129843 0.28617027 -0.7301481 0.010979881 -0.09429666 0.60301465 0.7692943 0.30271795 -0.18385941 0.031702448 -0.15862238 -0.21353473 0.38347512 -0.33749205 -0.4309044
sauce -0.12118629 0.05302583 0.27280107 -0.08965563 -0.21221699 0.07716113 -1.014982 0.021756692 -0.1428049 -0.41492945 -0.16633603 0.33038804 0.027489122 0.20389418 -0.12238819 -0.46097258 0.25047526 -0.27170143 -0.4540129 0.18414862 -0.15149516 -0.54888463 0.4120438 0.0276891 0.363173 0.0034829779 0.3592688 0.2217484 -0.11015595 -0.5060082 0.22984089 0.30276603 -0.20667444 0.28697875 -0.24705987 -0.15072039 0.20050745 0.13955797 -0.5433165 0.33140886 -0.10943879 -0.32979098 0.35601908 -0.5147449 -0.25548193 0.066010386 -0.4773655 0.08759804 1.1487694 0.03315689 -0.050424367 -0.49844778 -0.3772013 -0.26481646 -0.15125428 -0.28618914 0.2796528 0.25001773 0.17083643 -0.52098686 0.4372179 0.39377442 -0.6020106 0.5729083 0.19677666 0.06667876 0.37596044 -0.004792056 -0.4786439 -0.011497255 0.38736287 -0.0980853 -0.22733682 -0.025264418 0.37826735 0.84360784 0.034059867 -0.367621 0.4931262 -0.31957015 0.5450742 -0.5776622 -0.27203244 1.0626036 -0.30794695 0.3801191 -0.08782283 -0.055057354 0.61416614 -0.1910918 0.560246 0.55692333 0.916807 -0.05630179 0.21734521 -0.052193165 -0.44960582 -0.29661983 -0.497392 -0.11850687
tomato -0.16741125 0.2687365 0.20975399 -0.030140439 0.18615498 0.12743399 0.068164885 0.526914 -0.030561803 -0.4743629 -0.05116122 0.21701045 0.22229351 0.00672418 -0.028199926 0.25914338 0.101423614 -0.19099255 -0.118799165 -0.00051322684 -0.63524413 -0.18364204 0.36544654 0.32874927 0.68498564 -0.024766762 0.20952596 0.41621044 -0.4420094 -0.5716113 0.18444295 0.3086639 -0.20139681 0.47640252 0.39666212 -0.39914548 0.3044382 -0.22021422 -0.5113466 0.15404925 0.28778672 0.35603383 0.057639465 -0.2648976 0.025308073 0.11509069 0.005786291 0.58557034 0.47760737 0.33773905 0.37226218 0.16258307 -0.019093942 -0.29175544 -0.3593122 -0.0437604 -0.05844296 0.079337984 0.5164852 -0.14380226 0.8317587 0.3883554 -0.22815451 0.26979238 -0.0033347865 0.47158176 0.20912105 -0.21380132 -0.6109596 0.11314991 0.14612293 -0.23995772 -0.10902936 -0.34111455 0.5145887 -0.26599526 -0.024590708 -0.7735012 0.15047993 0.25770125 -0.30118755 0.16715096 -0.2949684 0.4474909 0.015929904 -0.147255 -0.61752856 -0.02388569 -0.13983046 0.35462883 0.1515346 0.47202015 0.34027794 0.12360998 -0.2590392 0.16306023 0.13305028 -0.17373616 -0.4837411 -0.76115197
label 0.16359945 0.052118104 0.2520568 0.21105333 -0.23494567 -0.12036013 -0.3153176 -0.45688358 0.24378671 -0.09702664 -0.24277362 0.77317935 -0.24845499 -0.27178678 -0.043985527 0.4982294 0.263501 -0.7899808 0.22577153 -0.18726614 0.044618975 0.22967727 -0.48173288 0.52923673 0.15775953 -0.44253978 0.1344793 -0.21637343 0.08745803 0.57776356 0.28212708 0.44026783 0.089885354 -0.09982442 -0.88675 -0.92220956 0.12289853 0.15432408 -0.50810945 0.070819736 -0.46184206 -0.28144437 -0.022658514 -0.44238007 0.50838 -0.06541824 -0.16349399 0.09896138 0.41255212 -0.5439125 0.62336093 0.13356085 0.14338365 -0.53050005 0.2887779 -0.26519778 0.18539114 -0.24047689 -0.29282367 -0.4088114 0.39338154 -0.066977926 0.20461532 0.5920647 0.027967643 -0.27722093 -0.80333334 0.4085419 -1.0008519 -0.04804354 0.55921346 -0.17618178 0.0705616 0.15211079 0.034505703 -0.07876382 0.79040724 -0.09022669 0.57308125 0.0695495 -0.27458116 -0.034158714 -0.70592785 0.32425395 0.06713182 -0.056045566 0.05583363 0.22566809 0.044281285 -0.27571175 0.19361864 0.12964123 0.20234868 0.08157374 -0.08596578 0.17653362 -0.015232783 -0.106732704 -0.021634962 -0.24436823
comment 0.39082864 -0.35200322 0.7278188 -0.01797817 -0.5977318 -0.31198183 -0.32838246 -0.34741423 -0.1038171 0.14819437 -0.36797643 0.75335914 -0.5022537 -0.06518467 -0.21244666 0.5265519 -0.06928183 -0.17246291 0.07908559 -0.089699104 -0.2654644 -0.4486561 0.033826306 0.48033738 0.19421549 -0.65183824 -0.2741622 -0.31424955 -0.28164288 0.67425925 0.05777828 0.27856433 -0.0022180043 0.15941373 -0.75515944 -0.38377702 0.5851086 0.013136767 -0.26327786 0.19052947 -0.49066997 -0.12009632 0.2669356 -0.58297616 0.5279409 -0.43344033 -0.3239666 0.20605363 0.060594942 -0.51961994 0.7253548 -0.21495546 -0.21944386 -0.64986324 0.88530535 -0.5852706 0.31008536 0.06218535 -0.5893933 -0.6065723 0.36271247 0.14863986 -0.21373862 0.45867753 -0.43281028 0.056224354 -0.31336164 0.20188838 -0.6107412 -0.23132135 0.97242385 0.19736241 0.0813083 -0.17675512 0.26818562 -0.36043796 0.71033007 -0.1122692 0.23080803 0.08929799 -0.05848792 0.26374075 -0.30674827 0.4941711 0.19672734 -0.15383537 0.043546777 0.13007094 0.4094268 -0.12993611 0.14686774 0.16082747 -0.49212235 0.19211923 0.06406797 -0.51749057 -0.37360188 -0.054720502 0.02736696 -0.2302327
pepper 0.4061057 0.124507606 0.20168042 0.3347905 -0.122616544 -0.18595476 -0.676766 0.061093464 0.06275728 -0.5592413 -0.2636753 0.42584336 -0.3451119 0.2724004 -0.036755778 -0.31945702 -0.25600755 -0.3840495 0.19068024 -0.06560044 -0.5781491 -0.32105887 0.6387609 0.24227867 0.05546074 -0.38279882 -0.040012583 0.25318313 -0.32423636 -0.37966388 0.0486038 -0.09531776 -0.63329405 0.40911794 0.018595085 -0.31561044 0.6900986 -0.262016 0.28030312 0.3555779 -0.077555455 0.3444335 0.9650956 -0.25690907 -0.0013450355 0.13437426 -0.37907457 -0.005547881 0.6282624 -0.482519 -0.44951782 -0.24917325 -0.19706804 0.14475885 0.0048388867 -0.24885158 -0.08771788 0.19617012 -0.02441334 -0.38378987 1.097204 0.26537806 0.011789719 0.58025265 0.51546735 0.47237355 0.19683494 -0.005142285 -0.95865774 -0.06584513 -0.51390475 -0.051698595 -0.2140037 -0.1493051 0.41153306 0.027681889 0.07723506 -0.48027247 0.34292635 -0.6184043 0.32051563 -0.36992955 0.08462668 0.7513867 -0.3806245 0.34335586 -0.22531196 0.19142099 0.28723314 -0.304925 0.3691913 -0.0056927283 0.76811844 0.09334909 -0.30360162 0.5304611 0.060299017 0.19436052 -0.6333706 -0.5291585
garlic 0.16325755 0.780447 0.0710457 0.104420505 0.16147996 -0.20690414 0.1358116 -0.10276502 -0.06700063 -0.35913408 -0.39947352 0.51378316 0.2379046 -0.030765753 -0.10765919 -0.39097092 0.24763049 -0.49241114 -0.04485585 0.081359476 0.09527913 -0.33209732 0.2454131 0.28313687 0.6785768 -0.20647344 -0.2986622 0.34222138 -0.49600482 -0.15015504 -0.09736715 0.49376434 -0.47461826 0.17810826 0.05741072 -0.55045384 0.44712222 -0.41846174 -0.4375612 -0.4038393 0.436034 0.16748568 0.3119876 0.1600099 -0.09865241 0.043231457 -0.22274087 0.75913304 0.7298325 0.4579426 -0.027837455 -0.50229585 0.1536701 -0.42637727 -0.054272283 0.15138794 0.20545965 -0.05677726 0.08091924 -0.30817604 0.61687565 -0.08830449 0.11753485 0.139593 0.028835062 0.40624052 -0.22034386 -0.43436465 -0.30117235 0.43357947 -0.009559923 -0.22144239 0.17890815 0.2605502 -0.061973613 0.08869338 0.1354992 -0.4183684 0.53719944 -0.1999492 0.2391981 -0.22963355 0.09101759 0.29036844 -0.13633156 -0.43927824 -0.354295 -0.24902616 -0.20460828 0.19521697 0.46099952 -0.06571224 0.65178806 -0.0065222136 0.11644901 0.22302136 -0.22375426 -0.037480727 -0.34461537 -0.6565507
meat -0.1329328 0.5883422 -0.1917089 0.43017098 0.13837469 -0.12953176 -0.08852528 0.115796834 0.07779137 -0.5082782 -0.42931008 0.13859022 0.485818 -0.42364392 -0.49915266 -0.13675502 0.10023117 -0.5563577 0.08095656 -0.2947575 0.29843986 -0.3988967 -0.19067192 0.49173135 0.4901036 0.027190248 -0.26583752 0.101017036 -0.2300496 0.13076203 -0.11532328 0.18206047 -0.3606451 0.051973887 -0.046196632 -0.1551496 0.6404148 0.15670444 -0.26121166 0.5390652 0.008696173 -0.12145349 0.22518046 -0.41799423 -0.07901466 0.18197346 -0.0503084 0.13331732 0.26358464 0.12344895 0.14400916 0.102153465 0.13115615 -0.40592337 -0.02315844 -0.16683267 -0.19336662 0.22919735 -0.1043741 -0.035579953 0.6067765 0.41800335 -0.248031 -0.24575742 -0.0016430098 0.14925557 0.20015745 -0.6846053 -0.43774277 0.037342425 -0.094495274 0.065687336 -0.56397027 -0.41149798 -0.19642566 0.011448519 0.08272356 0.1568171 0.4118612 -0.29619384 -0.22285013 -0.33164257 -0.14416046 0.43105173 -0.08247141 0.36455777 0.24897866 0.21820593 0.41481307 0.3402968 -0.046275843 -0.07449258 0.47735634 0.16306771 0.32381046 0.08003224 -0.26377505 -0.29508722 -0.5493797 -0.6763907
hot 0.25199553 0.31813043 0.2867414 0.9313873 0.303439 -0.113057464 -0.52407587 -0.27075982 -0.05434464 -0.023983568 -0.28929836 0.016313925 -0.1727229 -0.48336285 -0.2362679 -0.41684276 -0.11851774 -0.46589476 0.29135653 -0.0118185645 -0.46659046 -0.5888203 0.113186985 0.37901583 0.5827459 0.02448942 -0.30604056 -0.017348496 -0.4928822 -0.46826187 -0.55298656 0.0794022 -0.35344517 0.43111965 -0.086734064 -0.14699219 0.5436808 0.03121942 -0.7201669 0.08545749 -0.13628174 0.022100693 0.3339642 0.03921593 -0.15342733 -0.37742648 -0.28707767 0.29974574 0.4106908 -0.21901461 0.32853535 -0.0439763 0.03313786 -0.50349987 0.07491355 -0.17089026 0.17797872 -0.31718236 0.46140915 -0.4579432 0.72404075 0.2816544 0.17046696 -0.033965785 0.061017454 -0.30560863 -0.2599172 -0.20766708 -0.8642336 -0.45750856 -0.43585745 0.12086881 -0.38021857 -0.41970658 0.14827204 0.11702157 0.38012636 -0.580566 0.48462805 -0.01197516 -0.30325606 -0.047241084 0.44621655 0.24891849 -0.7218228 0.37342635 -0.046769552 0.32441524 0.23447089 0.3971168 0.14200346 -0.028571153 0.8103835 0.030139547 0.13269654 -0.049782563 0.042779148 -0.25654918 -0.546777 -0.38257304
mozzarella 0.30866748 0.6196773 0.06390537 0.2717599 0.07452895 -0.15253703 -0.45514756 0.28334415 -0.10260162 -0.27581406 -0.47446314 0.26079875 -0.12421727 -0.06227453 -0.27435794 -0.1335347 -0.28454825 -0.15199041 -0.15170221 -0.105940595 -0.5237923 -0.18230893 0.24117194 0.53008145 0.19334161 0.32401708 -0.36713138 -0.04874438 0.09850121 -0.2507365 -0.31158447 -0.15181056 -0.38807124 0.07018498 0.35985306 -0.7142039 0.12089411 -0.09662876 0.10538074 0.07278199 0.23951839 0.01408099 0.022515597 0.12451584 -0.21899134 0.33880633 0.091723666 0.69276696 0.8298078 -0.44232702 0.2530822 -0.02103925 -0.3234252 -0.7814612 -0.07844887 -0.03909624 -0.3091229 -0.13544662 0.4161396 -0.333398 0.8821424 0.64500034 -0.4693051 0.5077143 -0.26400042 0.22214726 -0.11092685 -0.091056794 -0.6126483 0.28710642 0.52661437 -0.2910741 0.04275538 -0.49544984 -0.0058999136 0.1040194 -0.117462546 0.13087441 -0.0053071356 -0.35647488 -0.23511957 0.17031372 -0.14264047 -0.08777785 -0.027362416 0.082855254 -0.42715722 -0.43084112 -0.118157245 0.018817073 0.27879998 0.14074458 0.6007596 0.046404995 -0.02852391 0.00014377148 0.012162742 -0.046857633 -0.699917 -0.48609647
http://www.w3.org/2000/01/rdf-schema#comment 0.6260343 -0.34917614 0.64480454 0.03558851 -0.5125783 -0.6288891 0.53164655 -0.27800676 0.3294578 0.069141164 0.10420887 0.5600354 -0.25044122 0.071425 -0.41781625 0.38389903 0.4489779 -0.20490792 -0.21151575 0.09242588 -0.07845996 -0.53576916 -0.43576413 0.45509806 0.18999282 -0.9266172 -0.074554116 -0.34199932 -0.07479188 0.50498724 0.36770523 -0.0713071 0.31025243 0.027794627 -0.5225839 0.07807527 0.034577455 -0.3313889 -0.045882255 0.26942173 -0.55542773 0.36104658 -0.091654785 -0.88441086 0.864383 -0.63909715 -0.16421294 0.08283957 0.20439973 -0.6530643 0.8589719 -0.3679142 0.029794855 -0.49901655 0.8622361 -0.19165356 0.7110594 0.20000991 -0.41411138 -0.08637108 0.10387315 0.008536197 -0.41571477 0.13173962 -0.08675888 0.19320107 0.026125953 0.28265738 -0.5706029 -0.11423059 1.1106871 0.20419998 -0.016641531 -0.45798177 0.31828952 -0.30048496 0.36182874 -0.038338784 0.6858752 0.24021456 -0.1610422 0.30260512 -0.15582384 -0.021639928 -0.18425155 -0.17659494 0.17789991 0.04948251 0.6564492 -0.20136946 0.23018853 0.71701413 -0.2559885 -0.005127866 0.1997909 -0.37540668 -0.084820345 0.017790766 -0.06957889 -0.34114626
http://www.w3.org/2000/01/rdf-schema#label 0.22491986 -0.16338314 0.16364264 -0.21574329 -0.39134124 -0.07532282 0.075047694 -0.646002 0.28205428 0.07465557 0.34042183 0.672425 -0.25476068 -0.125195 -0.07317613 0.5046696 0.8642704 -1.0543258 -0.5343586 -0.147559 0.4491872 0.1190319 -0.5904647 0.5856291 0.18104136 -0.69476956 0.053846277 -0.23976253 0.5434583 0.117074996 0.5371164 0.3434611 0.5894343 -0.08781341 -0.58800167 -0.71760136 -0.20226802 -0.26737928 -0.12843688 0.24681868 -0.28271255 0.008783348 -0.40016156 -0.17521057 0.97640306 -0.6530038 -0.26570967 0.11330525 0.3355526 -0.7452305 0.63887143 -0.12981212 0.22298172 -0.5489144 0.59822 0.045170568 0.11940669 -0.033001892 -0.23862287 -0.14659514 0.24338952 0.09857906 -0.0070850197 0.5428794 0.19491632 -0.052305263 -0.6375282 0.5767844 -0.5706033 0.4827299 0.4758933 0.2355631 0.14529932 -0.049923316 -0.10446914 -0.20146754 0.5316623 -0.10647214 0.5790911 0.25674537 -0.39786673 -0.10195282 -0.7447306 -0.2210945 -0.3650417 0.14916335 0.16793771 0.03368463 0.04291634 0.00083430717 0.22055107 0.53458494 0.2165593 -0.059143044 -0.112665325 -0.16608089 -0.042550087 -0.1514289 -0.15228769 -0.0764637
fiorentina 0.38689467 0.7214617 -0.20082922 0.52993655 -0.4974424 0.03914704 -0.014445602 -0.062874705 0.041545577 0.19947095 -0.6230489 0.1634734 0.28351957 -0.31082448 -0.13437009 -0.2162804 0.108726226 -0.24035232 -0.14385852 -0.8348377 -0.36932743 -0.16701493 -0.35785374 0.42119476 0.48870352 -0.19536662 -0.10069251 0.14884946 0.07044134 -0.094586514 0.04373333 -0.06834361 0.01946973 -0.2418632 -0.0030113119 -0.74430764 0.8539379 0.21638016 -0.3319613 0.4117235 -0.23800436 -0.24686949 0.23427287 0.015282747 -0.4004386 -0.20333186 -0.36250073 0.5426 0.68388397 -0.11311848 -0.06567755 -0.49659607 0.16443652 -0.26201224 0.28954744 0.36802995 0.31051934 -0.07394483 0.2684351 -0.12797548 0.037925214 0.05642198 -0.22290279 -0.08035869 -0.36169553 0.33606902 -0.24547786 -0.119395144 -0.55112475 -0.09083141 0.27859864 -0.70652694 -0.31451282 -0.14237465 -0.06779037 -0.17092425 0.3047661 0.28308967 0.21390845 -0.51309896 0.06602726 0.07235223 0.5412662 0.9618654 0.3560951 -0.0025602824 -0.5754575 -0.31032243 -0.41891527 0.32035345 0.43876043 -0.020393971 0.5400329 0.24966577 0.30574206 0.13227795 0.2314052 0.16278285 -0.2201046 -0.49515563
quattro 0.26072544 0.49446833 0.3791026 0.035085298 -0.21108378 0.28108338 -0.22890097 -0.023090193 0.15588823 -0.56252915 0.0956155 0.2661932 -0.17145334 -0.010346697 -0.2911128 -0.43612134 0.12831849 -0.4145719 -0.63412577 -0.44142193 -0.30594698 -0.019647017 -0.1494881 0.7929521 0.78884447 -0.09078399 -0.04408397 0.5499806 -0.026995266 -0.3605399 0.24382773 -0.071799 -0.6118318 -0.06482831 -0.095509015 -0.40654555 0.9092787 0.41388094 -0.62686 0.7269812 0.09815262 0.22668396 0.17049207 -0.16559905 -0.1414692 -0.17783129 0.107686765 0.42551616 0.3710426 -0.14827596 0.0016794736 -0.28008154 -0.1778343 -0.7565841 0.36594495 -0.13872065 0.088131905 0.04796972 0.47937405 -0.26164123 0.109695464 0.31996533 0.1208517 0.14368233 -0.3947181 0.024462372 -0.21174149 -0.8188541 0.10022779 -0.30422226 0.10195811 -0.14596617 0.34374142 -0.39080247 -0.20165154 -0.17580077 0.50406295 0.21470621 0.29082465 0.26162833 -0.09304292 -0.10005859 0.36548445 0.2643633 -0.03973818 -0.19606934 -0.2756289 -0.39672753 -0.14626099 -0.07601092 0.21777017 0.26694226 0.3458919 0.6557713 -0.24310613 0.040922806 -0.25946605 -0.05698105 -0.037136305 -0.96767694
american -0.020474114 0.7824409 0.41066045 0.57739806 -0.25262994 0.07851496 -0.35754925 0.23696703 -0.060571223 -0.49110544 -0.6064597 0.06457134 -0.1948285 -0.46175364 -0.22723421 -0.03132409 0.16169079 -0.5960027 0.13313918 -0.16623999 -0.60947657 -0.23166421 -0.047648422 0.5795195 -0.05627271 -0.5156916 0.17787291 0.4371916 -0.31353736 0.024307804 -0.31322142 -0.15224221 -0.2395215 -0.21053411 -0.16036496 -0.27217957 1.0755866 0.3402189 -0.27919593 0.33422375 -0.04057007 0.12709598 0.4740812 -0.30178213 -0.0456763 -0.11898743 0.024611525 0.22484002 0.480834 -0.005740082 0.051146626 0.020093236 -0.13531293 -0.5367718 0.09200683 0.21912733 -0.14978804 0.079369836 0.205428 0.003951973 0.5920508 0.10288932 -0.20710064 -0.13690796 -0.043509733 0.1523035 -0.13296175 -0.46007943 -0.08585502 0.01861757 0.16595155 -0.59479654 0.1980044 -0.1832137 0.092482276 -0.3123502 0.22158274 0.20466755 -0.14442311 -0.50182945 -0.01586491 0.07386085 0.3953287 0.5806838 -0.07435457 0.23214243 -0.24282497 0.10056464 0.19270125 -0.088875614 0.067904755 0.24666882 0.45289996 0.32921532 0.19351393 0.13808113 -0.27135822 0.017554957 -0.37251234 -0.6112231
bianca 0.2517168 0.42402256 0.3209772 0.5265156 0.0031275053 -0.36731765 -0.11651743 0.019296654 0.084854685 -8.685808e-05 -0.20441373 0.37206307 -0.14969206 -0.42140076 0.03271803 -0.15119094 0.07460741 -0.943791 -0.31367838 -0.38998315 -0.6740719 -0.47940016 0.019340973 0.4271648 0.26526818 -0.3436719 -0.19608204 0.599774 -0.1096366 0.43406835 -0.18524642 -0.12844594 -0.32686272 -0.4977553 -0.13881467 -0.3969195 0.75610864 0.11675571 -0.23226379 0.2141445 0.157643 -0.1565103 -0.039055217 -0.07373387 -0.20794828 0.18100953 -0.016443647 0.7492168 0.5220853 -0.16324537 0.27615818 -0.26953906 0.07225259 -0.5107756 0.2121923 0.32713756 0.15592161 -0.113158464 0.24280019 -0.31924245 0.308645 0.01634149 -0.09303918 -0.093265004 -0.15231971 0.35575572 0.23778467 -0.4517567 -0.40041953 -0.48266864 0.15151678 -0.267447 -0.1654505 0.12335758 0.0046269456 -0.0913758 0.1869758 0.14475438 -0.14204942 -0.029806806 0.2724827 0.06610328 0.2411578 0.37572804 0.10600799 0.103445396 -0.57442695 -0.21086544 -0.0429512 -0.17089349 0.04635235 0.1516492 0.5724977 0.13526139 0.5377931 0.1835066 -0.4685054 0.022085462 -0.39019468 -0.7092801
bacon -0.16762584 0.29313162 -0.21501608 0.17106414 0.18253112 -0.22533654 -0.033077933 -0.22950344 0.3072652 -0.45524094 -0.18311666 0.3944152 -0.40780085 0.10129755 -0.32873073 -0.15436453 -0.036746353 -0.27749497 -0.24320704 0.12503405 -0.3677423 -0.19032316 0.06887319 0.35479733 0.62060827 0.19351569 0.08266333 0.50252295 -0.14500672 0.17306764 -0.12810358 0.08166595 -0.2514246 0.06325478 0.11561081 -0.68472946 0.56825566 -0.13222292 -0.40417135 0.32596654 0.024868468 -0.14554621 0.08282788 -0.13817646 0.21080662 0.11259518 -0.06003982 0.3841438 0.85426897 -0.25133032 0.34567726 -0.33341455 -0.01113102 -0.19542332 -0.41647154 0.30331296 0.17710698 0.1512019 0.24551398 0.18972169 0.48182186 0.700113 -0.36569595 0.046830077 -0.41254276 0.23325345 0.041901913 -0.58483064 -0.38662517 0.06333988 0.087204844 -0.034757677 -0.28924608 -0.11370139 0.6094944 0.2100831 0.3537538 -0.17478493 0.018405985 -0.64402896 -0.058342732 -0.25539604 0.21658601 0.09891221 -0.09303298 0.2338954 -0.06251186 0.28009158 -0.2470877 0.4576336 -0.010482992 0.26941943 0.665848 -0.22672133 0.44282043 -0.22859867 -0.1324148 -0.2568319 -0.030538535 -0.70375574
pineapple 0.32803324 0.69372976 0.12640896 0.15630464 0.012030945 -0.25823006 0.00092685345 0.41328067 -0.02590413 -0.43057954 0.21055971 0.26584587 -0.16294502 -0.031492233 -0.004872796 -0.54856133 -0.17441177 -0.37706044 0.42242956 -0.09777773 -0.022720836 -0.6437688 0.5722859 0.5755729 0.76892257 -0.056547232 -0.019541943 0.15362602 -0.21621384 0.1317843 0.10894282 -0.2718957 -0.40314743 -0.21632755 -0.013432749 -0.27121085 0.66713476 0.065255664 -0.05933965 0.08007514 0.19470577 -0.110179946 0.18708114 -0.08935898 0.21873555 0.16537668 -0.08061346 0.26363248 0.632678 -0.68912315 -0.40677285 -0.06664283 -0.22731362 -0.1292995 -0.42184958 -0.20536858 -0.15948246 -0.020598574 0.029680882 -0.032895416 0.66417146 -0.07212848 -0.015831769 -0.001018128 0.27230415 0.26427284 0.25579605 -0.23428945 -0.88335425 0.08415064 -0.019493688 -0.33383808 -0.18609737 -0.5742132 0.25096273 0.17327273 0.32384914 -0.40193027 0.65972346 -0.47776496 -0.29324925 0.18938251 0.7702152 0.378928 -0.33551592 -0.0996411 -0.47546864 -0.043491993 0.10721155 0.0063332045 0.53524077 0.3217576 0.36023378 -0.113871515 -0.029975515 0.37467477 -0.6799572 0.2741294 -0.26521805 -0.40692362
bbq -0.11265107 0.44503418 0.0030704606 -0.0780784 -0.05812884 -0.11093341 -0.045983616 -0.22691825 -0.10559754 -0.2947461 0.07196832 0.39577666 0.089894235 -0.47045514 -0.16559047 -0.11944496 0.03868948 -0.551713 -0.090381086 -0.09784156 -0.18210267 -0.42326632 0.46474737 0.26305163 0.47031978 0.08762237 -0.08197216 0.09060463 0.08619818 -0.060871206 -0.04365328 -0.2361036 -0.4562457 0.32727474 0.040401857 -0.45031732 0.35868025 -0.46466973 -0.14266096 0.248797 0.17764808 -0.022552202 -0.05646557 0.052820686 -0.23632972 0.034547832 -0.15828098 0.249039 0.43087617 -0.08855865 -0.010272723 -0.17411347 -0.109355666 -0.05909114 0.1473555 -0.077889405 0.08487054 0.27309093 -0.010087396 -0.07404191 0.3804298 0.46141192 -0.032844596 0.28340796 -0.18626201 0.23813593 0.10216492 -0.47908047 -0.2435868 -0.2365116 0.004038391 -0.39368072 0.11073879 -0.3575592 0.25818753 -0.079405256 0.48356304 -0.2526457 0.3185648 -0.365638 0.091519825 0.038395997 0.19802809 0.3944411 -0.019331811 -0.11488791 -0.18014124 0.52839696 -0.21081808 -0.00039267298 0.25447172 0.48994812 0.7801631 0.024774699 -0.12156147 0.035910346 -0.08057535 -0.086195625 -0.52120996 -0.6952091
cajun 0.11541881 0.7990242 -0.16815394 0.46439594 -0.10242315 -0.16927877 -0.46639678 0.23850726 -0.040521942 -0.15241548 -0.30812344 0.6593714 -0.34376758 -0.5016734 -0.024031743 0.10117385 0.38345936 -0.13478561 -0.37995332 -0.048335247 -0.34405798 0.025679056 0.4377654 -0.010738176 0.33975482 0.18284717 -0.12489097 0.5431165 -0.20017858 -0.46608967 -0.053879976 0.29732203 -0.49574676 0.21730936 -0.15485537 -0.26165774 0.19598292 -0.4397072 -0.11949882 0.041970138 0.23460725 -0.421313 -0.041955408 -0.16417833 0.28307897 -0.07045178 -0.46812856 0.1958518 0.55968183 -0.023636289 0.06240489 -0.4774238 -0.15831478 -0.3146551 0.23324549 0.32005098 0.33461305 -0.0480812 0.3376528 -0.25737867 0.37039828 0.3671544 -0.02366407 -0.0724614 -0.327745 0.2895391 0.073606126 -0.32968342 -0.56187415 0.38671938 -0.14249307 0.052158885 0.16281623 0.10817744 0.041084852 -0.48398077 0.20305751 0.034994684 0.111398794 -0.026812335 0.13317661 -0.034665268 0.12390439 0.74138707 -0.101784706 -0.44027156 -0.5240606 0.2696062 0.16005266 0.22145383 0.35689026 0.29602215 0.44315988 0.16839422 0.10356073 0.081878565 -0.4694859 -0.005267209 -0.53046983 -0.52787375
manchurian -0.21471763 0.60968137 0.21143813 -0.057594612 -0.42782897 0.19243051 -0.0041497257 0.26972413 -0.4222134 -0.30773845 0.10072696 0.5371621 -0.23012532 -0.6399389 -0.27679363 0.22343859 -0.10096856 -0.32971284 -0.017673003 -0.02388896 -0.24118033 -0.4980399 0.28900978 0.2076338 0.32480472 -0.25454772 -0.49412394 0.21851005 -0.50243723 -0.47600043 -0.10942265 -0.43180558 -0.7566844 0.5419618 -0.31359905 -0.5664964 0.19322185 -0.4190757 -0.37885973 0.44646677 0.18297884 -0.07442753 -0.25899193 0.10418144 -0.3193299 -0.019461382 -0.4439575 0.4895167 0.25959373 0.07652555 0.18239312 -0.040124744 0.06986194 -0.30487522 0.05539336 0.25061005 0.19445612 0.035583995 -0.1731695 -0.009364361 0.31187665 0.0036096715 -0.07776384 0.36503017 0.15836895 0.20224018 -0.15089087 -0.76307696 -0.34794006 -0.4292789 0.2380854 0.04404891 0.1655945 -0.54829246 0.54256904 -0.0005315662 0.4009052 -0.023732744 0.26087636 -0.73191154 0.30571616 0.13580778 -0.024713622 0.3125506 -0.020068865 -0.17469358 -0.3066581 -0.05337922 -0.026153492 0.46040282 0.1741829 0.014299259 0.9638069 -0.031979155 -0.17834798 -0.13433337 -0.51631135 0.10232767 -0.56701946 -0.57625955
buffalo -0.16284506 0.3349883 -0.11370764 0.18923953 0.0055304538 -0.0025832984 -0.35908794 -0.17538674 -0.020784182 -0.011265486 -0.17140076 0.3967516 0.015176824 -0.57238644 -0.19518606 0.0025264993 0.059166256 -0.78346366 -0.17772263 -0.27327806 -0.068680555 -0.46758226 0.3073342 0.57009226 0.33619425 0.008674051 -0.2521909 -0.015154726 -0.17436953 -0.036346372 -0.15438482 -0.077778235 -0.619701 0.36268052 0.053937703 -0.37198645 0.28768268 -0.31264645 -0.2012095 0.42035717 0.2727117 0.20374142 0.028880123 0.21589409 -0.21928973 0.10347035 -0.08071643 0.33158538 0.8343664 0.066954404 -0.2011614 -0.1636616 -0.15456201 -0.13567758 0.12067971 0.12899056 0.23141655 0.35775977 -0.0271703 0.04059411 0.22368464 0.33545512 0.067468874 0.28053087 -0.054489862 0.09480479 0.11456974 -0.47929966 -0.23651157 -0.1794828 0.04828318 -0.35585934 0.21861771 -0.6278063 0.3434043 -0.19399938 0.112060264 -0.065427095 0.5648571 -0.36227626 -0.1928454 -0.36469677 -0.08614408 0.37304738 0.41007656 -0.060983885 -0.30732793 0.5069808 0.30382028 -0.11450044 0.358017 0.49973893 0.6264876 -0.12194107 -0.047654707 0.13621117 -0.040862758 -0.26960456 -0.44201618 -0.5648872
pesto -0.07541046 0.3759635 -0.03704795 0.35038823 0.17352319 -0.021534875 -0.36629114 0.0024849807 0.004893706 0.24699485 -0.3167954 0.40207082 0.01303861 -0.41406763 -0.006275942 -0.15974183 0.15660435 -0.6540108 -0.21494433 -0.2950004 -0.066760294 -0.39854246 0.15416788 0.5725939 0.5400312 -0.0032278548 -0.38254833 -0.08044655 -0.18797834 -0.011868767 -0.15239984 0.08701155 -0.35195532 0.21091525 0.10981139 -0.28145784 0.3172201 0.00540953 -0.34512588 0.33742905 0.16022055 0.22396746 0.10256518 0.10542309 0.07399649 0.05054023 -0.05694495 0.40918627 0.8660962 0.023372542 -0.21661867 -0.16776215 -0.11826918 -0.34682396 -0.073741734 0.22201777 0.26426506 0.10725046 -0.021065261 0.0034339698 0.32707193 -0.0019300636 -0.0012467364 0.30479884 -0.026822174 0.15673253 0.03002433 -0.43095833 -0.28430742 0.021105956 0.20613955 -0.08102908 -0.008791592 -0.42195046 0.1511496 -0.24345179 -0.02192615 -0.09690722 0.40377113 -0.0816306 -0.15953358 -0.42427927 -0.08632788 0.52669096 0.383311 -0.0418858 -0.43198135 0.14552261 0.4569972 -0.024110204 0.3806766 0.27193165 0.48951247 -0.06663921 -0.024949089 0.24618103 -0.20800364 -0.39032158 -0.38671124 -0.5535063
taco 0.093988426 0.34382263 0.17141433 -0.12173658 -0.35429275 0.05306017 -0.21643527 -0.2842411 0.0011008597 0.091961436 -0.23364727 0.1898374 0.26853597 -0.54461634 -0.09673241 -0.4114653 -0.1306402 -0.42654675 0.03918254 -0.04675351 -0.3329185 -0.5702724 0.07524528 0.3370378 0.7121187 0.05405776 -0.2263548 0.07232219 0.0298128 -0.45708776 0.15484841 -0.37217805 0.073160425 0.01529509 -0.20682581 -0.281766 0.15077522 -0.017740687 -0.055920668 0.5713687 0.436546 -0.047171894 0.017411662 0.0057073315 0.35754174 -0.06513105 0.13858318 0.24194178 0.55643463 -0.23901151 0.3505464 -0.6675104 -0.18452574 -0.49856535 0.08221629 0.20301262 -0.01588237 -0.4707703 0.14185567 -0.1370033 0.7052799 0.22911283 0.0027124318 0.118712455 -0.012356147 0.27231488 -0.06662973 -0.15861022 -0.4320858 0.07499759 -0.09165189 -0.47200513 0.2962409 -0.28263915 0.36262205 -0.21734402 0.4189056 -0.3765482 -0.14147231 -0.5326665 0.19945537 -0.019696798 0.3032541 0.31973743 -0.1187156 -0.40575454 -0.4348824 0.15809706 -0.08062988 0.260588 0.5355664 0.65038544 0.42676926 -0.15843275 0.13463935 0.34990257 -0.16693991 -0.54267794 -0.28724524 -0.37521556
arugula -0.2711117 0.7132806 0.08076109 0.11502937 0.30868033 0.23705968 -0.082559705 0.07072965 -0.20524403 -0.056814007 -0.31637338 0.67947286 -0.23415089 -0.5035882 0.29197106 -0.36715037 -0.12809518 -0.23005076 -0.36102787 -0.044300836 0.10270553 -0.4365328 0.24157916 0.40328404 0.2790814 0.04388069 -0.15743397 -0.10095007 -0.0840129 -0.1066694 0.0013573715 -0.36354595 -0.023340227 0.3547741 -0.24566664 -0.12861627 0.49036768 0.07967484 -0.07549963 0.16111206 0.297083 -0.29275942 0.465748 0.30218992 -0.24342008 0.16796729 -0.44494012 0.4098663 0.85114175 -0.13768303 0.07124796 -0.21894766 -0.0038618403 -0.61507934 0.15076305 0.38622975 0.08543191 0.18734474 -0.10508826 -0.47940415 1.094661 0.47076088 0.4400592 -0.06145754 -0.23366551 0.40905657 0.261521 -0.4743149 -0.27622086 0.090724 -0.2543848 0.072784394 -0.2897754 -0.43805856 -0.32949173 0.023254761 0.3829367 -0.07968602 0.23661755 -0.23701377 0.0014617926 -0.37856266 0.13702452 0.5060582 0.16891326 -0.20631742 -0.013504814 -0.23173143 -0.083032705 0.18167132 0.4064819 0.2650945 0.29110625 0.1214484 -0.06664642 -0.16521068 -0.5726108 0.33081913 -0.19367029 -0.36691388
dough -0.14174727 0.75698817 -0.4111286 -0.010682439 0.43616077 0.510271 -0.17742434 0.07365044 -0.21533316 -0.28597024 -0.18619056 0.83767176 0.08494159 -0.13011861 -0.16920117 -0.3243843 -0.20677803 -0.430482 -0.07247837 0.29801524 -0.5066702 -0.62604636 0.11354704 0.38843855 0.5986431 -0.43947127 -0.3524243 -0.010509069 0.12302466 -0.21945734 0.10389878 -0.2582725 -0.622732 -0.088357374 0.09021075 -0.59671766 0.5534193 0.05187881 -0.327576 0.24561766 0.04823886 0.26803896 0.23651998 -0.2155489 -0.138495 -0.47259042 -0.10962287 0.14812005 0.56096464 -0.3220167 0.08975216 -0.29986116 0.07246435 -0.076607674 -0.5016095 -0.06425448 0.4662618 -0.11728632 -0.13961142 0.026928805 0.40234962 -0.2357702 0.2036931 -0.13603859 0.23509349 0.14656666 0.26934838 -0.23203619 -0.21094853 -0.58585554 -0.2566141 -0.13527417 0.113571085 0.24924386 -0.069541186 -0.447584 0.74773973 -0.081546046 0.10837194 0.11484002 0.35759652 -0.4267715 0.19371794 0.5956197 0.052392486 0.10789666 -0.68406993 0.27475432 0.5244127 0.6748138 0.43746704 0.042512294 0.15428747 0.1305542 0.5610649 -0.30238077 -0.30755797 -0.45083204 -0.21592306 -0.64304894
aubergine -0.25143877 0.7591785 0.044787347 -0.038813766 -0.29498765 0.012557438 -0.6896865 0.11840263 0.059825048 -0.34727544 -0.49881706 0.39276445 -0.52903765 -0.10946274 -0.23340598 -0.12971252 -0.2773124 -0.6206931 -0.20513396 -0.4263288 -0.03985246 -0.18193273 0.3237397 0.023287276 0.47383705 -0.09709619 -0.32219443 -0.15306298 0.17037767 -0.081121005 -0.27065685 0.24333122 -0.26949054 0.34127384 0.23367392 0.10912965 0.7377555 0.060109872 -0.17905718 0.27499136 0.26290283 0.2614522 -0.38316047 -0.094574206 -0.06371149 -0.31143296 -0.13467072 0.64793515 0.5799212 -0.023700051 0.02632809 -0.054713678 0.18606149 -0.09097815 0.045291066 -0.012529361 0.22655223 -0.06481542 -0.07414537 -0.62670916 0.7368136 0.3189158 -0.044512898 -0.17459394 0.015372734 0.28559893 -0.06234424 -0.4024571 -0.41819677 0.1777185 0.06207772 -0.70011586 -0.06591907 -0.36985263 0.019869402 -0.086312294 0.23624814 -0.06852253 -0.06792061 -0.14515544 0.06040763 -0.010725241 -0.2641277 0.36063674 -0.39893967 0.1634931 -0.56941897 0.3201716 -0.17661914 0.5999243 0.4725587 0.19913952 0.5877727 -0.1882591 -0.01067466 0.08335818 -0.40843484 -0.5451084 0.08811422 -0.6403207
some -0.18669523 0.521307 -0.20204243 0.36206645 -0.055788536 0.2152099 -0.0037862745 0.25532106 0.3462004 -0.44726804 -0.076983206 0.58200073 0.32108665 0.07919387 -0.09634364 0.5950999 -0.005724555 -0.010905713 0.36844563 0.44706184 -0.31706944 -0.16274248 -0.17405125 -0.1977355 -0.030628018 -0.2807802 0.047539007 -0.3017445 -0.39793175 0.12620059 0.023861768 -0.060330678 -0.07035397 -0.04024557 0.07549397 -1.4841273 0.549019 -0.03351138 -0.19885276 -0.016546262 -0.12731403 -0.032170992 0.28365284 -0.08561206 -0.2874193 -0.12880589 -0.34098598 0.441331 0.48991922 -0.1756089 -0.1615247 -0.07992024 0.18036422 -0.4311095 0.3132319 -0.22382917 0.24259223 0.17637645 0.8417027 -0.32278842 0.64166534 0.26134342 -0.4425666 0.47645396 0.15429741 0.31871328 0.49503237 0.48066458 -0.3348188 0.41477117 0.63345134 -0.09993336 0.112783805 -0.5598248 -0.4927581 -0.08253322 0.08298262 -0.021111472 0.21336189 0.3751361 -0.5458272 0.74828213 -0.16623534 0.0011471383 0.07676426 0.95009524 0.30458495 0.040146146 0.24784097 -0.20636751 0.31505066 0.38359743 0.5271782 -0.107190855 -0.2078353 0.6786477 -0.6148661 0.13617563 -0.54609954 -1.0211413
cookie -0.033025205 0.52165407 -0.14316525 -0.08199462 0.18511586 0.25080132 -0.17279667 0.23884457 0.33421808 -0.26544902 0.033578042 0.7540216 -0.23904333 -0.621529 0.22808619 -0.5283494 0.1448291 -0.5603209 0.45642543 -0.46361566 0.04953585 -0.3067467 0.048106223 0.18326402 0.6852821 -0.23143765 -0.010021946 0.2053822 -0.3761896 0.19453283 -0.21197627 -0.38963962 -0.29272825 0.43434817 0.2878215 -0.28490517 0.605305 -0.28831267 -0.32661068 0.4954875 -0.22301677 -0.07860349 0.28091732 -0.08698814 -0.072171934 0.08024896 -0.39337224 0.13023491 0.65658146 -0.3860421 0.056720916 -0.1860721 -0.14795521 -0.2379609 0.06819035 0.10377568 0.35769096 -0.44476876 0.18001203 -0.03392454 0.265742 0.53944874 0.027240366 0.33003077 0.10944838 0.31718153 -0.32665458 -0.6071372 -0.047956895 -0.06942832 -0.016716907 -0.4236104 -0.32928875 0.092334986 0.07057087 -0.13293026 0.24997996 -0.3097978 0.10857883 -0.008235454 0.25145394 -0.2998207 0.0772205 0.48159876 -0.21116889 0.23688222 -0.616688 0.05635228 0.21161683 0.3388626 0.073503256 0.47773892 0.20910355 0.014509733 -0.19891724 -0.14991033 -0.5850501 -0.3951455 -0.75558823 -0.41467148
base 0.23847903 0.08059759 -0.44603577 0.38842204 -0.26052186 0.86694866 -0.34025198 -0.118744545 -0.124626964 -0.4055245 -0.77958965 0.5599128 0.053417295 0.06062686 -0.117116205 -0.1849645 0.1909115 -1.2137539 -0.49648932 -0.63240725 -0.4909063 0.47113258 0.1851838 0.3855662 0.46800113 -0.03652047 0.26055938 0.27152625 -0.331354 0.42354685 0.7179112 -0.395811 0.28311047 -0.37095925 0.20566359 -0.2206848 0.85197216 0.24851769 -0.7020347 -0.0066590165 0.13977161 -0.26114583 0.3600523 0.17701319 -0.18199845 0.18730988 -1.0611908 -0.26461622 0.42809737 0.3413869 0.73912024 -0.54934156 0.097169496 -0.34637886 0.19569308 -0.16430402 -0.4800176 -0.18884219 -0.0008235343 0.3195149 0.22842349 -0.4647243 0.07981235 0.11216609 -0.6456588 0.42947388 0.17668098 -0.06557744 -0.61258435 0.08484909 0.08354827 -0.2785769 0.043851558 -0.7261362 0.44090515 0.12680028 0.84198797 -0.37481627 0.3037478 0.16933013 0.54329616 0.11885594 0.85149896 0.43330422 -0.09254049 0.40576917 -0.77290374 -0.0038614534 0.37575758 -0.016972106 -0.3981987 0.5590864 0.504584 -0.280516 0.05444894 0.2444737 -0.599035 0.0882765 -0.1928469 -0.2726664
http://link477.com/ds/pizza#cheese 0.2901793 0.28434396 0.21528384 -0.12507752 -0.26952183 -0.20382427 -0.20558119 0.04345733 -0.18434657 0.279815 -0.40721312 0.5552763 -0.711608 0.26908827 0.4460735 0.5358341 0.17440808 -0.66246384 -0.097103745 -0.2177166 0.5806364 0.22435111 0.19877425 0.23196477 0.21524604 0.5110436 -0.0863459 0.0794062 0.066520326 -0.02548686 -0.31210363 -0.569546 -0.17835079 0.4030655 -0.5294163 -0.4456283 0.030125756 -0.40056738 0.072673135 0.8090429 0.7003839 0.5081343 0.5863775 0.105102114 -0.42066425 -0.48233733 0.065306574 0.75277406 0.86021805 -0.72828084 -0.29745564 -0.9468621 -0.22133614 -0.4951881 0.49619052 -0.26650202 0.27581424 0.1292379 0.2067289 -0.3216449 0.59881794 -0.016590688 -0.68494445 -0.6408075 0.6463633 0.021578537 0.3884265 0.13678186 -0.35374436 -0.1771065 0.32809305 0.045922656 -0.094193354 -0.44526136 0.08846738 -0.09915601 -0.5096227 -0.3339054 0.04514809 -0.38814873 -0.7951643 0.028875692 -0.30074897 0.14435945 -0.17161033 0.30991614 -0.32653737 -0.37103224 -0.366663 0.054987233 -0.05424055 0.28861925 0.16370496 0.34782153 -0.30723903 -0.6405483 0.196492 0.15740576 -0.23187187 -0.2324316
beef 0.30499431 0.05398233 0.22376586 0.6055589 0.040312137 0.2560836 -0.6217229 -0.14485765 0.17553434 -0.14502282 -0.6268261 0.24452901 0.38315177 0.01938303 -0.28206035 -0.0640636 0.3457636 -0.11323486 0.06600352 0.013876963 0.037050072 0.099368125 0.22663942 -0.042365246 0.44964746 -0.28421158 -0.18365386 -0.004354884 -0.049179826 -0.5736514 -0.22047672 0.13160025 -0.34889755 0.052868623 -0.16953911 -0.21511988 0.48317885 -0.27212483 -0.28959596 0.67397386 0.30046466 -0.14319688 0.9709949 -0.81477356 -0.205805 -0.17660363 -0.122378215 -0.25634244 0.59262663 -0.098789886 -0.14896154 -0.06607799 0.12355681 -0.64798003 -0.41554844 0.048853863 -0.3807294 0.11783319 -0.12897615 -0.41774938 1.1788136 0.48738545 -0.36711818 0.3776642 0.2851173 0.46095115 -0.12755193 -0.4602694 -0.5311983 -0.21245468 -0.21931756 -0.09339319 -0.46540737 0.19925864 0.4324912 -0.070391215 0.11759293 -0.27895132 0.38364208 -0.36417496 0.08237411 -0.52242684 0.061429083 0.32738912 -0.09415094 0.29723084 0.040814877 0.11686792 0.093945414 0.23936321 0.027015263 0.26108912 0.978337 0.32545727 0.35912746 0.32228744 -0.31878912 -0.81126696 -0.76593894 -0.55631983
seafood -0.15990585 -0.30363646 0.11053124 -0.012236906 -0.13318636 -0.3021237 -0.36636525 -0.0120818475 -0.10112701 -0.24997109 -0.41507933 0.5635555 0.2994293 -0.12716413 0.03337855 -0.20762187 0.30279484 -0.04290431 -0.20340292 -0.32809433 -0.22403824 -0.4217206 0.9793114 -0.058983024 0.47106522 -0.41696966 -0.08467652 0.43372697 -0.32243875 -0.32780325 -0.0664234 0.21599314 -0.002472731 0.5075329 0.032374825 -0.31575534 0.45581642 -0.17395346 -0.27833033 0.5307288 0.15622498 0.16986829 0.41086876 -0.5588966 0.05436471 0.017676994 -0.18322724 0.007126081 1.1217892 -0.1855776 -0.3619096 -0.7296991 0.2867746 -0.20324841 0.018791769 -0.3941526 0.22464547 -0.024576321 0.17000313 -0.064347655 0.8054759 0.13871904 0.07724155 0.37152517 0.24200565 0.13856909 0.3880016 -0.6545707 -1.0347337 -0.21792893 -0.38202536 -0.20997128 -0.48380414 0.3518207 0.051475644 -0.06576827 0.6656305 0.053944048 0.4884201 -0.35673332 0.41052374 -0.18446201 -0.651103 0.7028311 0.08134886 -0.07032681 0.02390044 0.07325151 -0.04919119 -0.0013339043 -0.32180616 0.9011427 0.7795641 0.25228077 0.4197773 0.009926179 0.018276727 -0.32757252 -0.154306 0.006185113
http://link477.com/ds/pizza#mozzarella 0.5123059 0.8220423 0.1988429 0.2478243 0.22256783 0.15733272 0.009779664 0.2621912 0.2637068 -0.13053127 -0.043197732 0.3119929 -0.2409903 -0.15103471 -0.2586338 -0.127847 0.21646841 -0.12792563 -0.18672818 -0.100024424 -0.4191314 -0.44837746 0.023908375 0.54083776 0.091525055 0.10342597 -0.25447264 0.01708392 0.35380468 -0.48256758 -0.18453765 -0.4868956 0.076864466 -0.026886879 0.19686231 -0.27962956 -0.0599953 -0.585505 0.32779464 0.0939452 0.49930778 0.039050676 -0.06707105 0.055932496 -0.11347771 0.12201829 0.015730493 0.5159973 0.5413296 -0.29067907 0.42976922 -0.0704285 -0.15770906 -0.5748389 -0.097466156 0.22696386 -0.22390509 0.04191913 0.32365415 -0.10743785 0.44928294 0.37524262 -0.43421194 0.06829233 0.23505504 0.15584308 0.05804913 0.10509716 -0.63887537 0.37073278 0.4975269 -0.07093917 -0.11529385 -0.5672717 -0.3103871 -0.16538733 -0.45604664 -0.07785646 0.19658478 -0.18885659 -0.4623028 0.38132092 -0.3900841 -0.113348864 -0.49611387 0.21135615 -0.1673781 -0.49020284 -0.37542728 -0.042101886 0.2989974 0.73034096 0.13826478 0.1036385 -0.13901912 -0.4354978 0.20170571 0.20408809 -0.92683035 -0.38225043
basil -0.0090055885 0.55501616 -0.22799107 0.39698485 -0.32703185 0.22640982 -0.73411286 0.17009676 0.05772252 -0.7162528 -0.14069776 0.2641016 0.5494027 0.33484748 0.036828272 -0.19605666 0.1771771 -0.813239 -0.054599 -0.32865542 0.3285269 0.017079204 0.30894595 0.38610113 0.6402025 -0.32596454 -0.4131904 0.34169298 -0.29681197 -0.6414293 0.07278983 0.5381827 -0.48633593 0.11615498 0.021562766 -0.59838164 0.7043135 -0.102305025 -0.13435577 0.23468111 0.35007337 -0.06204108 0.5784654 -0.002093091 0.021268258 0.060948975 -0.20085616 0.5921187 0.5186192 0.34744206 -0.30047083 -0.5655251 0.014681223 -0.4157402 -0.17477049 -0.012045796 0.2810255 -0.3094209 0.109408215 0.070968635 0.66717356 0.36896536 0.13088094 0.3782968 0.5930145 0.29079488 0.23220715 -0.24458146 -0.46794984 0.26312056 0.102882355 -0.064415686 -0.04355521 0.2912618 0.19852115 0.3123452 0.061325785 -0.40793666 0.3063665 -0.048327867 0.751637 -0.0949283 -0.4860965 0.33835554 -0.31212816 -0.2884019 0.014346505 -0.15239322 0.16301322 0.39544803 0.50209296 -0.12571625 0.98644954 0.29197043 0.05000302 -0.14235292 -0.12857352 0.0051548397 -0.3762889 -0.46696943
sliced -0.013518456 0.30177417 0.32806093 0.32188708 -0.010103767 0.26284933 -0.6134703 0.34505853 -0.024091722 -0.28874066 0.063811734 0.16677715 0.18935643 0.32576284 -0.14278488 -0.015231047 -0.27518803 -0.60308474 0.094679125 -0.2950626 0.16106614 -0.03356004 0.6365637 0.23742637 1.0931847 -0.6786351 -0.53208673 0.1519345 -0.28829566 -0.29598427 -0.23491473 0.46485928 -0.23677608 0.090500414 -0.6391576 -0.9786658 0.65104735 -0.16387843 -0.20925355 0.35707283 0.27245966 -0.29768097 0.78788596 -0.23837234 0.04401141 -0.10808627 -0.2603095 0.29611006 0.6010081 0.3485471 -0.13081338 -0.6642737 0.16134506 0.027856538 -0.063295476 -0.10796648 0.5139489 0.20357764 -0.105765924 -0.099013664 0.6513991 0.46658403 -0.14788419 0.5263696 0.30321372 0.19892761 0.15766025 -0.4874641 -0.82394534 0.44383955 0.28395483 -0.10558261 -0.003227143 0.37652367 0.024493191 0.097334564 -0.1871745 -0.80191475 0.5888018 -0.367899 0.38121596 -0.27633515 -0.24461517 0.5763659 -0.19091281 -0.15824492 0.047844697 -0.10018125 0.06404426 0.15934227 0.57236356 0.028201556 0.7264368 0.19824229 -0.08521277 -0.2636155 -0.13803528 0.10707703 0.2378088 -0.38507757
supreme 0.06701215 0.54984426 -0.026798176 0.12950344 0.029676808 -0.225955 0.017427858 0.14759848 -0.04588635 -0.38981533 -0.27465785 0.4116662 0.18203741 -0.48648387 -0.18275788 -0.29535863 0.11578597 -0.5594254 -0.19080742 -0.41632327 -0.27306828 -0.32463557 0.011266651 0.30980268 0.2941351 -0.26047865 -0.13525052 0.22580428 -0.11123397 -0.077583544 -0.20446421 -0.27227294 -0.114688344 -0.03459474 0.1022427 -0.2831682 0.6960486 0.19020993 -0.41079348 0.23605649 -0.021244295 0.033245333 0.06879005 -0.39930913 0.020347951 0.039057184 -0.20764735 0.23408653 0.091580875 0.014965953 0.24949381 -0.120380715 -0.041294158 -0.36662674 0.15370412 0.27653012 -0.0053020874 0.1135011 -0.05347785 -0.097747 0.42974767 0.07365107 -0.20629834 -0.0879051 -0.12201723 0.24297404 0.05194278 -0.68862116 -0.6362162 0.024075685 -0.07869291 -0.14440042 -0.24169086 -0.26710844 0.0075177606 -0.23517995 0.37612727 -0.06522615 0.3711074 -0.069647714 -0.027176458 -0.10062814 0.19382057 0.5879122 -0.08074612 0.2638271 -0.13006626 0.19537304 0.2250291 -0.02435265 0.2170209 0.0049690125 0.3958611 0.05961782 0.29444277 0.07233885 -0.42952877 0.1391335 -0.36195394 -0.47038388
giardiniera 0.07297922 0.58027065 0.015844738 -0.05979513 0.11864719 0.012364231 0.05246159 -0.045948815 -0.043080047 -0.20635165 -0.067219116 0.09666135 0.11214119 -0.14762898 0.08673428 -0.1540774 0.21299751 -0.40976405 -0.39468095 -0.41309276 -0.36193362 -0.025408724 0.24447876 0.54501086 0.6684882 -0.38707194 0.110939704 0.21860565 -0.3294488 0.022712814 -0.057140823 0.14431943 -0.22893153 -0.00017256077 0.41338623 -0.50584126 0.58512497 -0.01710761 -0.3516421 -0.060732305 0.23573545 -0.10841661 0.07720688 0.09933456 0.21258815 -0.12108074 -0.14263399 0.529659 0.6396966 0.020226212 0.20979665 -0.14130767 -0.017885558 -0.5486713 0.2927146 0.22479858 -0.0743824 -0.009985173 0.06239177 -0.06662253 0.5354193 -0.06099638 -0.13467841 0.26084757 -0.07802943 0.4265743 -0.168516 -0.17599091 -0.36924 0.22848265 0.07422538 -0.18004861 0.14461608 -0.08791105 -0.07116949 -0.096097246 0.41288546 -0.37934878 0.22601111 0.008833649 0.044107363 0.14943321 0.28294557 0.47263077 -0.01695748 -0.19567709 -0.7036131 -0.15140133 0.01622759 0.17635149 0.24741079 0.08250614 0.40446287 -0.026230562 0.21298662 0.28092903 -0.3146606 -0.16640593 -0.22097845 -0.53592753
veneziana 0.12126087 0.5656937 0.019344738 0.16974922 0.011316408 -0.097639 0.0012308307 0.14619139 -0.056402422 -0.04491537 -0.30340734 0.35139537 -0.099546336 -0.43019128 -0.04469689 -0.2988501 -0.007191551 -0.45096824 -0.24515522 -0.5825825 -0.5760882 -0.17859328 0.24228781 0.48815742 0.5950437 -0.11096314 0.049841702 0.1208973 0.06393219 0.10310418 -0.3097827 -0.09018845 0.019508693 0.09603748 0.18593968 -0.5146539 0.47540683 0.040196568 -0.31652993 0.2817882 0.010409173 -0.044638585 0.005329265 -0.1729928 0.07005562 -0.09752245 -0.30411768 0.19403876 0.4222171 -0.27090284 -0.03494388 -0.22776935 0.15328017 -0.43401644 0.14389805 0.18463895 0.18905875 0.14596234 0.12053709 -0.01951524 0.35040903 0.020310964 -0.15243052 0.019694632 -0.33144712 0.052957468 0.15257487 -0.28185508 -0.4561731 -0.16523957 0.24618147 -0.33696163 -0.13223451 -0.13048129 0.120305456 -0.10589282 0.36678806 0.023984747 -0.021173855 0.11520754 0.19928223 0.048984952 0.16467398 0.28899774 0.043711133 0.013634079 -0.34330595 -0.07451184 -0.08180295 0.09057471 0.2701102 0.20258804 0.51510274 -0.051404275 0.044314373 0.111114696 -0.26097596 0.08661207 -0.2449453 -0.45485634
menu 0.10234746 0.43773746 0.22129078 0.21929365 -0.33366486 0.03214665 -0.038810812 0.50468034 -0.026355132 0.1428518 -0.5331431 0.5375257 -0.16360588 0.20405391 -0.12963456 -0.24584244 -0.33372366 -0.6374765 0.13324139 -0.0149532035 0.04300673 -0.046418283 -0.11882997 0.19787456 0.64653 -0.19148727 0.27800953 -0.20765363 -0.5052584 0.163623 0.63636655 -0.52127653 -0.35649523 -0.14969249 0.034599498 0.018691141 0.2844572 -0.29938778 -0.41810584 0.41054013 -0.10725389 0.136015 0.668612 0.41489446 -0.44240353 0.05097802 -0.29654256 0.37301353 0.37253916 0.07804392 -0.074135974 -0.07230184 0.4788004 -0.0061287223 -0.22131936 -0.539629 -0.23361035 -0.5279606 0.22945322 0.30167502 0.8433134 0.034693528 0.1468669 -0.15057762 -0.46723202 0.1331846 -0.41508976 -0.53437245 -0.5268822 -0.34104663 0.2928529 -0.26752576 0.20513918 -0.41329753 -0.20888218 0.3679047 0.11521074 0.027977183 0.071623504 0.024508609 0.56653374 -0.29076365 -0.19157933 0.94359124 0.09527529 -0.16482541 -0.59214085 0.52889436 0.5039177 0.31682107 -0.035032667 0.6455067 0.3137195 -0.119216025 0.39812487 -0.29232746 -0.4551993 -0.106405474 -0.07409317 -1.0265775
item 0.23467247 0.40663156 -0.25583866 0.32231975 0.17453612 0.37306318 -0.35531273 0.10193079 0.054661375 0.36617044 -0.18152495 0.7926286 0.0044714003 0.20132591 -0.19298597 0.06380845 -0.24567397 -0.66879004 0.18692836 -0.23805888 0.06380878 -0.29875615 0.23090892 0.6658852 0.9462305 -0.27001843 0.011909943 -0.18591215 -0.710432 -0.41263008 0.42977363 0.019821847 -0.20783779 -0.2663752 -0.18658343 -0.06015193 0.095653035 0.22131012 -0.048206657 0.6996174 -0.25128478 -0.03346637 0.27712515 0.3723066 -0.6339728 0.2807918 -0.72948563 0.061951213 0.46790296 0.3336112 -0.03281741 -0.24145614 0.3292212 -0.0025493943 -0.017404957 -0.345035 -0.2709642 -0.5368035 0.3955387 -0.21002677 0.5590553 0.06753291 0.3083547 -0.4894003 -0.33520994 0.27658293 -0.44670168 -0.6471253 -0.4691527 -0.6436279 0.49264306 -0.20740648 -0.15056103 -0.10223099 0.10244625 0.17474185 0.067908466 0.27274576 0.02384229 -0.036493927 0.19001457 0.29598814 0.16460925 0.5791689 -0.09696903 0.28310078 -0.77679324 0.35068056 0.41937608 0.8290902 -0.43160933 0.5382837 0.32394293 0.018555164 0.29112247 -0.1931845 -0.66253746 0.10018706 -0.2163863 -0.6869536
stagioni -0.023822326 0.32000077 0.0173657 0.046539955 0.08553201 -0.079828456 0.124160126 0.0148986075 -0.41415697 -0.6308407 -0.4774767 0.29149252 0.25837132 -0.35490116 -0.0034340804 -0.318794 0.18933725 -0.7885355 -0.39896643 -0.70565665 -0.47052264 -0.27711567 -0.11171607 0.8671684 0.5035503 -0.2218178 0.005875869 -0.13830344 -0.14125602 -0.50311905 -0.16195758 -0.18701468 -0.2169218 -0.34494922 0.25955305 -0.63411707 0.2938562 0.24535127 -0.3418652 0.43141776 0.08622308 -0.34328902 0.471151 0.036517467 0.23695716 -0.28865728 0.18731834 0.74562633 0.58921707 0.44749385 0.14583868 0.048384957 -0.26862603 -0.27117836 0.4552335 -0.19024467 0.27563825 -0.08454214 0.2207019 0.027887115 0.34637296 0.068597086 0.14656842 -0.037044834 -0.13858089 0.23559543 -0.14116348 -0.34792936 -0.1989302 0.18154341 0.0337513 -0.4856907 0.08975924 0.02310735 -0.21900418 -0.25750414 0.5276082 -0.42513892 0.013290618 -0.406828 0.17755939 -0.09791379 0.24265875 0.2627631 -0.037839778 0.36009592 0.018695423 -0.17732958 -0.031069094 -0.15067886 0.26748452 0.20306294 0.7017592 0.22004445 -0.06048405 -0.34523168 -0.89654875 0.15747498 -0.16859198 -0.87622404
capricciosa 0.0302335 0.3581036 0.0023463848 0.072388634 -0.017177403 -0.0046325508 -0.082276225 0.13783894 -0.082627006 -0.3829781 -0.19860499 0.34740695 0.007000407 -0.3401176 -0.12604852 -0.3183793 0.013644129 -0.49343073 -0.39996764 -0.51490337 -0.48107508 -0.1278474 0.08463239 0.5963843 0.29766542 -0.29833552 -0.10168134 0.18935536 -0.11838654 -0.082650624 -0.055480324 -0.12735344 -0.20749673 -0.11998293 0.026293647 -0.4804631 0.55707014 0.36566105 -0.36612022 0.28163612 -0.027742136 -0.12980568 0.19302563 -0.09060936 -0.02786215 -0.114891 -0.07995803 0.4628597 0.44695014 -0.19673724 0.16135629 -0.034172866 -0.018604234 -0.48607445 0.41485745 -0.046771403 -0.009235961 0.16470315 0.19194926 -0.07070154 0.19585405 0.1544714 -0.18883891 0.09457135 -0.1623867 0.26245543 -0.015148393 -0.5455506 -0.4758697 -0.08164888 0.06483876 -0.47527 0.038009968 -0.09311199 -0.18274875 -0.15925737 0.41677633 0.014591125 0.07866866 0.031350937 0.059798196 -0.068568975 0.18760884 0.51224655 0.026111946 0.1718761 -0.18816419 -0.10871761 -0.13572046 0.00048117217 0.19422095 0.1298468 0.17592621 0.14572394 0.2091359 0.014618338 -0.34213728 -0.096361704 -0.3449092 -0.6936789
mirch -0.08215577 0.56298494 -0.09608949 1.006099 0.024730202 -0.5008523 -0.3244301 0.7745535 -0.09994622 -0.10841939 -0.18304428 0.5004829 0.042772718 -0.012645388 -0.12562831 -0.7278202 -0.096872196 -0.34110314 -0.28361654 -0.33837238 -0.5890342 -0.0768349 0.6990997 0.3200344 0.8192169 -0.31736833 -0.27340868 0.510622 -0.62500525 -0.05208701 -0.2582385 -0.44947562 0.06533443 -0.41834465 -0.13639799 -0.209521 0.91553897 -0.26221597 -0.46544278 0.4081949 0.40064624 0.3411054 0.119524546 -0.37373608 0.26972508 -0.21228507 -0.56622297 0.74899966 0.6710779 -0.5885121 -0.1417588 -0.06046596 -0.2738033 -0.26185754 0.034506574 0.18249361 -0.43607235 -0.16085918 0.19707811 0.08399657 0.45217866 0.22391596 -0.11990898 -0.36334446 -0.06419279 -0.026551057 -0.012294601 -0.16688164 -0.28829026 -0.15329015 0.5965284 -0.30630982 0.08236899 -0.5012299 0.39686182 -0.5974119 1.0549631 -0.1254079 0.32112026 -0.69106644 -0.17108417 0.4524069 0.4930626 0.6157069 -0.34641322 0.322238 -0.19569202 -0.29285157 0.42854914 -0.111992724 0.44840705 -0.02702266 0.18125713 0.038812324 0.037787717 0.2203971 -0.753295 0.32636097 -0.20833415 -0.28636274
hari 0.43194243 0.49557975 -0.111749955 0.58779466 -0.25473973 -0.40729114 -0.29205307 0.709807 0.35257956 -0.15090163 -0.1994234 0.34368005 -0.05931573 -0.6810952 -0.016270243 -0.71012354 -0.31598035 -0.8733756 0.064296976 0.20153125 -0.5740013 -0.2647138 0.24867974 0.57557255 0.80680585 -0.4993217 0.5288649 0.4438756 -0.15890357 -0.018824304 0.24668433 -0.236318 -0.33388886 -0.26157317 0.29003885 -0.6711969 0.6354308 0.27490994 0.026120009 -0.058761723 0.20393944 0.004491507 -0.12965003 -0.14006355 -0.2113937 -0.47293407 -0.37649256 0.5877874 0.95710725 -0.30439287 -0.19525148 0.08528541 -0.1255899 -0.4674927 0.34445834 0.33597186 -0.6252268 0.16573031 0.164247 0.11746822 0.33570874 0.123823956 0.0075281267 -0.0459784 0.28196222 0.0141569385 0.12266158 -0.39394552 -0.83837646 -0.33095372 0.3230355 -0.71889275 -0.32060158 -0.6130189 0.3037406 -0.11733046 0.70313627 -0.19380814 -0.09566517 -0.17891353 -0.06160574 0.38483968 0.47827506 0.88388443 -0.3114622 -0.14199674 -0.3363212 0.13240466 0.35040545 -0.08039691 -0.061824188 -0.09099591 0.6678666 0.46658036 -0.24810857 -0.24659103 -0.05795038 0.19338274 0.03635521 -0.6253298
pollo 0.31194133 0.904097 0.105740495 0.4651156 -0.16925423 -0.32045028 -0.38448095 0.24109466 -0.4868519 -0.5679158 -0.3838392 0.64036393 0.02011576 -0.25655258 0.034143064 -0.5696122 -0.20629926 -1.1798186 -0.040116847 0.04147737 -0.6462283 -0.5977722 -0.014256651 0.59933555 0.31466115 0.10639629 -0.11754918 0.42679474 -0.16417813 -0.049093172 0.10823756 0.10514571 -0.23279761 0.16166145 -0.10608455 -0.7797915 0.85429627 -0.20144321 -0.23317157 0.13310458 0.21196128 0.07641707 0.18517494 0.19304585 0.117192216 -0.3079615 -0.5905431 0.37170666 0.037083197 -0.27681407 -0.16902773 -0.50516284 -0.17781019 -0.3471721 0.46006688 0.40586826 -0.41384313 0.048286498 0.37288502 -0.17146286 0.25450772 0.460833 -0.30505878 -0.35908297 -0.21021889 -0.023374166 -0.16559616 -0.7167319 -0.576978 0.46600494 -0.2010054 -0.05709109 0.10002032 0.14182776 0.29492247 -0.7240699 0.08003355 -0.1039135 0.027197016 -0.20303102 0.45641285 -0.3046307 -0.048789702 0.8040817 0.26256943 0.61556137 -0.6845737 -0.15998155 0.021540297 0.479995 -0.117235996 0.50804734 0.12424998 0.09258564 -0.32903624 0.3882763 -0.35292527 0.1730884 -0.014799936 -0.87612915
ad -0.12085603 1.0434717 -0.044406522 0.10844845 0.13139935 -0.19527985 -0.8174258 0.3294801 -0.07950354 -0.15381643 0.08528185 0.6833518 -0.095744126 -0.15100007 -0.19791237 -0.5840128 0.25446555 -1.1418998 -0.103137515 -0.22319719 -0.48139295 -0.17321777 0.64574736 0.51811415 0.0944352 -0.32128507 -0.30961716 0.8133188 -0.18128861 -0.08623643 -0.4154511 -0.32757038 -0.027262818 0.009347473 -0.0947828 -0.9185993 0.24367021 0.08835161 -0.6546986 0.28287283 -0.019091222 -0.49741057 0.37337452 0.49695867 -0.20998538 0.12835597 -0.3588352 0.51422346 0.13770899 -0.004112869 -0.36033955 -0.45185646 0.014166838 -0.6772999 -0.11719272 0.2252129 -0.2977967 0.26302233 0.5439846 -0.19270845 0.22120649 -0.08235429 -0.5033969 -0.49901822 -0.3255821 0.438086 -0.1728153 -0.16622537 -0.2060422 0.18692519 -0.031765897 -0.27579385 0.22313178 -0.25643262 0.04569451 -0.4134739 0.6291443 -0.07850263 0.4203977 -0.1605885 0.11298879 0.035121866 -0.28172454 1.0940424 -0.17809933 0.5695081 -0.77478623 0.42889717 -0.4630831 0.21306792 0.279506 0.13518193 0.25963262 -0.10127901 -0.19841179 -0.06688942 -0.14373413 -0.35707977 -0.43805492 -0.88569427
astra 0.33736315 1.1356869 -0.23052534 0.17712606 -0.31762272 0.3493624 -0.32787302 0.2995354 0.037721664 -0.07271087 -0.4103638 0.6370482 -0.05196891 -0.5926099 0.06456274 -0.22267216 0.002225058 -1.0934774 -0.76307845 -0.07587715 -0.56781995 -0.8083745 0.6617901 0.10833788 0.05075871 0.026072243 -0.08911221 0.5843242 -0.5391711 -0.070449844 -0.432524 -0.0614387 -0.5440729 -0.41588488 0.17648567 -0.5594463 0.74879766 0.062492877 -0.04575743 0.059659794 0.18339527 -0.55138797 0.66484106 0.116873324 0.19116582 -0.07423964 -0.34667477 0.4499212 0.028529666 -0.1552832 -0.12658226 -0.488491 -0.0068519423 -0.4732444 -0.28953794 -0.29698747 0.055274285 0.3093429 0.56798226 -0.024225477 0.14012854 0.09726633 -0.3703266 0.24906915 -0.04509731 -0.21021985 0.05854469 -0.8375631 -0.5947462 0.24968067 0.13499375 -0.15614787 0.17673488 0.19333316 0.11532845 -0.47872975 0.2788412 0.12479059 -0.07129255 -0.24080648 -0.290351 -0.2008429 -0.09609549 0.6433195 -0.12077652 0.79305613 -0.998676 0.23895481 -0.31524718 0.6013241 0.4068414 0.2392091 0.060774725 0.16979077 -0.34298968 0.1118565 -0.5191527 -0.009598977 -0.45446473 -1.059353
http://link477.com/ds/pizza#tomato 0.08724138 0.53788835 0.45127708 -0.09371217 0.2143166 0.30865726 0.31389213 0.4106174 0.18230875 -0.16539246 -0.062089015 0.3286415 -0.25213307 -0.064174235 -0.13719873 0.07536289 0.6282326 -0.34042126 -0.12814209 -0.062307287 -0.51671356 -0.35058597 -0.0009958814 0.3529465 0.43701592 -0.336933 -0.12804498 0.2066778 -0.2897874 -0.67547095 -0.121052206 0.0064638765 0.31289813 0.18293925 0.00828748 -0.2788753 0.10254765 -0.69260854 0.11659828 0.09536247 0.1936161 0.17132823 0.0014087528 -0.0108342115 -0.123758905 -0.057268657 -0.06880732 0.5250745 0.12893517 0.21754003 0.2198139 -0.07074087 -0.009871788 -0.044464763 -0.35456228 0.197368 -0.06765689 0.37341818 0.172173 0.054661606 0.25031972 0.33847082 -0.32361263 -0.03456474 0.20616525 -0.017366983 0.21696873 -0.1101264 -0.5962341 0.4128561 0.33041954 -0.30096802 0.22653466 -0.5851087 0.0779629 -0.17474915 -0.4243213 -0.46275753 0.33447546 -0.11891841 -0.423598 0.39172003 -0.37160116 0.19307996 -0.48347002 0.3255327 0.07958562 -0.04463611 -0.077423744 0.11980273 0.24428764 0.83805895 0.23577839 0.08780183 -0.32104218 -0.39478928 0.09530049 0.42278004 -0.53848696 -0.70695853
soho 0.118457444 0.40042672 0.057963546 0.28082636 -0.13519843 -0.0019518421 -0.09240681 0.19697103 -0.090892345 -0.058686905 -0.19187854 0.18741235 0.124256834 -0.18811649 0.03487859 -0.094804294 0.07691214 -0.5350796 -0.23677409 -0.5777292 -0.4760278 -0.13337918 0.05918205 0.41640508 0.5000211 -0.34914854 0.10058104 0.2600863 -0.1717515 -0.034781087 -0.16438633 -0.1383416 -0.23740052 -0.20455664 -0.0032700426 -0.6211952 0.6813718 0.1508484 -0.29335934 0.25350475 0.074224025 -0.10999416 0.09353593 -0.063155785 -0.10194917 -0.16539338 -0.14098136 0.49537268 0.5202618 -0.024216624 0.0094215665 -0.29529634 -0.08470732 -0.4731253 0.14029768 0.15652858 0.09724287 -0.039850626 0.18898447 -0.036392488 0.18359394 -0.096473955 -0.24787979 -0.005642783 -0.120154485 0.21074289 -0.0536364 -0.31029916 -0.45323983 -0.0107314475 0.25729647 -0.4361308 0.02854158 -0.062036827 0.050441965 -0.21108985 0.28696683 -0.041075096 0.049472075 -0.09891971 0.16386542 -0.052388452 0.2267023 0.6339014 0.096032955 0.06333054 -0.55631113 -0.21442647 -0.087529145 0.00014604125 0.2986906 0.17155057 0.27780262 0.110159986 0.0422853 0.0470809 -0.267855 0.10182954 -0.2355486 -0.48361793
cowboy 0.113958 0.38325867 0.1492836 0.0045992127 -0.12234 -0.2879895 0.021076031 0.15208495 -0.03766096 -0.3877609 -0.24048598 0.36282152 0.18064164 -0.3954186 -0.16515025 -0.27510682 -0.041615248 -0.4312334 -0.26928115 -0.49742138 -0.32410967 -0.041629232 -0.0937492 0.32182997 0.43339682 -0.19893968 -0.105987966 0.270759 0.053608302 -0.03562018 -0.26964203 -0.2295345 -0.068465315 -0.11320439 0.03238812 -0.4342601 0.69223475 0.39383933 -0.43342873 0.23940963 0.013595404 -0.075653836 0.000976132 -0.28391293 0.02579136 -0.0807608 -0.13740134 0.53575236 0.22418989 -0.043673966 0.26939783 -0.21145026 -0.10902305 -0.26355258 0.3423069 0.0931737 0.14226271 0.15038945 -0.026031228 -0.24255615 0.32301602 0.23225267 -0.48025337 0.0014605942 -0.09224697 0.24078736 0.04288288 -0.4892002 -0.60368353 -0.11241577 0.15386792 -0.23264708 -0.31810677 -0.30911833 -0.04444839 -0.20575437 0.40215847 -0.033705957 0.24455462 -0.066687025 -0.110621795 0.025293473 0.064466566 0.6344103 -0.03606745 0.1657835 -0.19011603 -0.08636587 0.021438774 -0.085417196 0.03991944 0.10245041 0.34538743 0.06922571 0.33885208 0.12513068 -0.3248234 0.13401544 -0.2580348 -0.54608756
greek 0.15800588 0.3373423 0.10500557 0.119956724 -0.08860715 -0.13679075 0.03927396 0.002965748 -0.17713158 -0.15098739 -0.15424374 0.29095095 -0.0177648 -0.19973654 -0.10633886 -0.36154813 0.05661376 -0.43319267 -0.3852251 -0.45250222 -0.3792406 -0.26256225 0.047763586 0.50852734 0.5659794 -0.1800043 0.042959336 0.25658637 -0.10531395 0.05827869 -0.19445811 -0.21507576 -0.27860233 -0.1630463 -0.016439697 -0.5544051 0.5525842 0.08759211 -0.3746944 0.242946 0.0655682 0.009357383 0.12366727 -0.014601525 -0.07371787 -0.16622928 -0.17241327 0.56699806 0.59486014 -0.06915392 0.04169142 -0.25113565 0.0113063045 -0.39884672 0.27793235 -0.005836798 0.0669713 -0.07856118 0.009841731 -0.20881683 0.37378773 0.008210296 -0.01736729 0.09554172 -0.2332636 0.16549012 -0.14950813 -0.42923445 -0.3787299 0.093491875 0.12412984 -0.41018522 0.055899803 -0.10500708 -0.054104157 -0.11496158 0.42620724 -0.11833083 0.14211461 -0.1014856 0.06861438 -0.038561605 0.27907676 0.34605843 -0.056297783 -0.117181994 -0.4121924 -0.1628136 -0.086654305 -0.09389639 0.27010384 0.07998026 0.3138909 0.010149173 0.10599679 0.057376333 -0.27968585 0.046158034 -0.22605161 -0.6122194
gobi 0.36922252 0.43937936 0.3454111 0.034651376 0.19546363 -0.46414706 -0.68398815 0.32845962 -0.26182324 -0.43201235 -0.37297308 0.35627106 0.18837807 -0.34160602 0.28656402 -0.13437371 0.10259135 -0.57439774 -0.6381536 -0.13018596 -0.23989312 -0.72296345 -0.420254 0.3546889 0.43756688 -0.1922726 0.31126615 0.2508372 -0.4433166 -0.32755148 -0.18665405 -0.15985666 -0.37944952 -0.09244523 -0.18967317 -0.4613662 0.58531463 0.15120436 -0.5482477 0.17921779 -0.34642133 0.35574484 -0.01892568 -0.2431694 0.041281767 0.065400995 -0.48518848 0.3142771 0.3211215 0.0645842 0.3778072 -0.13882375 0.25764015 -0.9680185 0.052200567 0.4841834 0.06330701 0.010171164 -0.058955368 0.054625336 -0.022372922 -0.06942084 -0.47006974 0.25868246 -0.31005478 0.5125301 -0.0035119765 -0.5153369 -0.29566574 -0.15082675 0.49998167 -0.18864691 0.45779574 -0.47316915 0.20728152 0.15877496 0.2977097 -0.08712163 -0.11179109 -0.24907048 0.33871472 -0.11242879 0.2563894 0.66067356 -0.156894 0.5367574 -0.57144564 -0.4648144 -0.4408893 0.30258426 0.5622775 0.36914298 0.55361456 0.1263984 0.18656757 -0.0905989 -0.53238624 0.21665527 -0.21511921 -0.47346282
pisan 0.33142722 0.3189731 0.0898551 0.051479828 -0.06419335 -0.013941966 -0.11439781 0.3910002 -0.31199488 -0.015673023 -0.07990539 0.3102626 0.064099655 -0.31137365 0.21719642 -0.13538486 0.13264453 -0.5821918 -0.28274632 -0.26144323 -0.42742082 -0.17940639 0.16674875 0.45466548 0.5076124 -0.23771606 -0.08276832 0.26334673 0.25966835 0.013419802 -0.27162364 -0.10458474 -0.21350214 -0.1096665 0.15540367 -0.5849511 0.49891642 0.09006148 -0.3367629 0.36445168 0.24192081 0.04004199 0.15964624 0.16772631 0.0526423 -0.036050584 -0.18589543 0.37602115 0.56378686 -0.23440029 0.11726403 -0.18509302 -0.13237591 -0.3716856 0.094379865 0.29166275 -0.052621614 0.122543156 0.1331891 -0.122350514 0.48971403 -0.0474244 -0.16496474 0.22265337 -0.24619254 0.32078877 -0.25306448 -0.52890676 -0.17494042 -0.08104969 0.20675571 -0.18127945 -0.040166996 -0.33271378 -0.07787315 -0.2866766 0.34287795 -0.024444709 0.030605366 -0.14094573 -0.076905996 -0.10382122 0.24950178 0.3271894 -0.08277499 0.05869356 -0.5697828 -0.11017712 0.08820846 0.16359077 0.060585517 0.15864512 0.444078 0.06360499 0.2558321 -0.0083669545 -0.3426734 0.16972679 -0.14632522 -0.49228343
bruschetta 0.10974762 0.38995752 -0.010707971 0.43870404 -0.13722917 0.018987346 -0.18641508 0.2140901 -0.1221863 -0.065665506 -0.13206686 0.20480499 0.20230165 -0.18734606 -0.01658335 -0.020604223 -0.012111789 -0.6051905 -0.31448963 -0.4836358 -0.40737322 -0.13372971 0.03156362 0.6610457 0.36858407 -0.37750733 0.123502694 0.27769068 -0.20533887 -0.10433951 -0.3149917 -0.04129966 -0.18088758 -0.13395585 -0.047806386 -0.46789876 0.71309024 0.2217927 -0.34100458 0.24206166 0.11412286 -0.12286478 0.23295246 0.016687607 -0.11044855 -0.048027016 -0.10674908 0.468344 0.48740628 0.029772446 0.25309607 -0.2920039 -0.007321992 -0.51507884 0.121450506 0.23860632 0.040092353 0.024995442 0.20973957 -0.106511846 0.2588683 0.03666252 -0.27453923 0.048183165 -0.2104232 0.23620172 -0.15412593 -0.3651301 -0.42469335 -0.07770519 0.2653355 -0.36489317 -0.055301245 -0.2524585 0.07700793 -0.29631656 0.18836595 -0.03422596 0.15138337 -0.07729709 -0.034196787 -0.09934467 0.10590013 0.6249433 0.24409156 0.08019421 -0.6760656 -0.22615823 -0.07746123 0.08034439 0.26022524 0.20325528 0.1676813 0.115426175 0.06441893 0.0758056 -0.12512852 0.06404174 -0.20844367 -0.47960398
sicilian 0.02398598 0.46408483 0.09141646 0.1746204 0.040645096 -0.03254329 -0.045144785 0.13351817 -0.16981325 -0.19053869 -0.13762653 0.4383551 -0.097229734 -0.3397174 -0.017719356 -0.06680604 -0.038277082 -0.64337873 -0.2072465 -0.31323856 -0.4968349 -0.2517408 0.22003873 0.3928774 0.41719314 -0.08824034 0.046753835 0.3308914 0.013226949 0.03174289 -0.26388878 -0.38555244 -0.22743328 -0.032283984 0.121981256 -0.56031096 0.510298 0.051888917 -0.32796457 0.31908113 0.093840905 -0.09836445 0.14330487 -0.079349585 -0.019771855 -0.036263708 -0.21439624 0.29737455 0.37426046 -0.19275643 0.23441532 -0.2603339 0.0339308 -0.5148705 -0.0067924215 0.09447224 0.082240365 0.050618697 0.15416034 -0.12707369 0.3761698 0.043216806 -0.25692335 -0.055213198 -0.22722124 0.21447597 -0.012681221 -0.5931603 -0.21097735 -0.036931247 0.036386136 -0.17482728 0.09427431 -0.22341104 0.14924198 -0.22651775 0.4341871 -0.07092887 0.09291043 -0.14425114 0.061019517 -0.14403407 0.20404722 0.46041515 0.04898184 0.2683927 -0.5551682 -0.046510607 -0.17832178 0.136481 0.19966367 0.23181435 0.2987634 0.10072594 0.12694755 -0.06759433 -0.2844366 0.027728422 -0.19605123 -0.5141105
parmese -0.0018191158 0.3002175 -0.09365569 0.36392325 -0.09340576 -0.014133273 -0.14311674 0.050485123 0.004133476 -0.16399266 -0.1534268 0.32336217 0.12861791 -0.33591184 -0.112306975 -0.15953147 -0.046877135 -0.64534986 -0.2689672 -0.46900332 -0.34313747 -0.13783658 -0.00998913 0.53794545 0.3981248 -0.2553271 0.052229542 0.20889173 -0.08005623 0.01842508 -0.33042786 -0.19194889 -0.17329742 -0.07802775 -0.020314056 -0.47219196 0.62419975 0.24449901 -0.3051392 0.34303582 0.14087692 -0.15672004 0.107660405 -0.13311733 -0.022204883 -0.032530457 -0.025218654 0.42665595 0.49629322 -0.17014082 0.12957221 -0.17916481 0.038209718 -0.514521 0.25534475 0.10553692 0.027284026 -0.013090779 0.27721366 -0.029593943 0.2826868 0.10386733 -0.2920494 -0.05710814 -0.15519802 0.2475429 -0.10515013 -0.53939646 -0.4017399 0.015173035 0.13023806 -0.41230863 -0.111858875 -0.21797426 -0.07121626 -0.15110497 0.4117002 0.034396987 0.09361933 -0.10401322 -0.024758553 -0.18570207 0.13486649 0.466919 0.13616341 0.15923947 -0.3005871 -0.19050418 -0.04435059 0.11517449 0.19423203 0.1260883 0.18571937 0.11484616 0.17135319 0.009415481 -0.26864073 0.015526823 -0.30359292 -0.5572908
romana 0.13658044 0.41004628 0.09792841 0.117103934 -0.067960985 -0.10384795 -0.14614886 0.1780272 -0.07420789 0.035020184 -0.19159609 0.22720604 0.08738956 -0.30408636 -0.11498458 -0.18992902 -0.031827684 -0.69769835 -0.3344994 -0.34857172 -0.47992983 -0.20602855 0.088264056 0.5252226 0.50461197 -0.41803837 -0.04062192 0.2613297 -0.10893543 -0.085088745 -0.3538489 -0.057745293 -0.18020907 -0.19056602 0.08905665 -0.3876271 0.55715406 0.16871609 -0.37506777 0.3719959 0.08974528 -0.08534445 0.06297532 0.008159893 -0.13230762 -0.063136205 -0.18655263 0.3924399 0.51432836 -0.11202817 0.19393724 -0.09983566 0.16893448 -0.50153226 0.09479639 0.0880317 0.053183205 0.08775902 0.18341602 -0.15777512 0.39133766 0.050284386 -0.12715179 0.044411365 -0.30345073 0.32574055 -0.098219804 -0.6129869 -0.4350278 -0.113881394 0.20241617 -0.4063888 -0.010116676 -0.14854309 -0.033093613 -0.09944334 0.2678353 0.041781314 0.0040837373 -0.06251538 0.09871049 -0.032809433 0.11546292 0.45566842 0.05194597 0.18433759 -0.50029474 -0.06381551 0.05670636 0.04600275 0.21325198 0.32368925 0.32130164 0.00048956263 0.3712136 0.09291337 -0.31006664 -0.06487169 -0.13324954 -0.48589426
reine 0.39548275 0.22319221 0.12993172 0.017055208 0.12137207 -0.023355564 0.032489624 0.05594606 0.08216873 -0.45779788 -0.09298665 -0.018531542 0.029282851 -0.53670144 0.117994145 -0.29234076 0.0775203 -0.13514449 -0.40132716 -0.7038245 -0.65326834 0.04167976 0.44111598 1.0048865 0.32783115 -0.29861844 -0.18479759 0.3237746 -0.17802179 -0.08795912 -0.06293845 -0.26624498 -0.19871937 -0.39935425 -0.068290524 -0.8111861 0.8439045 0.30741802 -0.5890144 0.22714402 0.46572113 -0.20257795 0.49857408 -0.03395815 0.18599217 -0.3424336 -0.5190858 0.25214496 0.5399767 0.102904074 0.33962858 0.22751945 0.023837624 -0.46797216 0.9532398 0.2175184 -0.24906506 0.0049020597 0.41322437 -0.22572625 0.033837575 0.21944197 -0.7113847 -0.35149294 0.19685902 0.28935263 0.06834944 -0.72725916 -0.7863514 -0.21809703 0.45276675 -0.53726435 0.15216695 -0.33228093 -0.18517004 0.057695094 0.40649763 -0.03341892 -0.031007579 -0.13956498 0.11766165 -0.386708 0.18892953 0.58127505 0.07429979 -0.1843249 -0.019977253 0.15123382 -0.20394951 0.27103004 0.63338304 0.03993446 -0.11169823 -0.21252975 0.38411364 -0.20620924 -0.44170555 -0.309872 -0.6204234 -0.7815723
cheeseburger 0.30553204 0.9497395 -0.1303443 -0.04691797 -0.09981398 -0.031895373 0.36742994 0.21041448 -0.22266434 -0.62984216 -0.48789272 0.030429624 0.063817486 -0.4991035 -0.3562737 -0.01273114 0.40586156 -0.9067777 0.015985824 -0.24842227 -0.55982745 -0.18516496 0.030132249 0.6596019 0.90275943 0.23875767 -0.08775756 0.48792163 0.2515587 0.31868878 -0.024706256 0.14100061 -0.5057354 0.07744744 -0.05406717 -0.33902442 0.65552706 0.46814135 -0.061792552 0.056130964 -0.0043568984 -0.19043897 0.050455574 -0.23895328 0.34669235 0.23143888 -0.49487358 0.4018541 0.6390305 0.23495829 0.40279627 0.0886521 0.127725 -0.03395264 0.16589071 -0.13521641 -0.039961938 0.11512214 0.00044728455 -0.041364007 0.52393585 0.51260275 -0.60438573 0.1458097 -0.28835654 0.44776633 0.14719571 -0.54401255 -0.1026391 -0.4780313 0.5330425 -0.037825543 -0.38473576 -0.41855383 0.27682105 0.010845754 0.9496519 0.14052959 0.45207056 -0.4526391 0.41974235 -0.31038904 0.15513729 0.32578045 -0.45665625 0.59429306 -0.18170811 -0.11166704 -0.506013 -0.15133676 0.037122883 0.47150865 0.26344743 -0.12020458 0.2790099 0.29042688 0.122626185 -0.14217132 -0.09331847 -0.7315452
la 0.19368242 0.3041633 0.097562335 0.3585569 0.24333145 -0.15594287 -0.41930792 0.27728322 -0.063554704 -0.45395413 -0.31833118 0.31968275 -0.07523765 -0.7424009 -0.2970285 -0.4545636 -0.3557652 -0.45379025 -0.4888889 -0.6349826 -0.7108108 0.08428509 -0.09108315 0.38733298 0.22223893 -0.77952677 0.07753679 -0.008493397 0.12682715 -0.16553916 -0.08877991 -0.16047761 -0.011130893 -0.20618302 -0.26714477 -0.53744453 0.32788825 0.3744061 -0.534379 0.3926579 0.10179342 0.29456955 -0.014668418 0.22213708 -0.28314087 -0.11850396 -0.10130996 0.5900008 0.55129635 0.06346772 -0.056261666 -0.1386576 0.17288706 -0.27911913 0.39662507 -0.21979526 0.111930944 0.1993737 0.021844605 0.415805 0.66830325 -0.2186455 -0.30795988 0.18191011 -0.29100314 0.7465186 -0.16070385 -0.8203173 -0.44826385 0.089416906 0.41367796 0.06991585 -0.2899884 0.23368578 -0.10521614 -0.5572288 0.70748967 -0.1302803 0.012212819 -0.010705691 -0.32590753 -0.18086517 0.533382 0.6071954 -0.36453694 -0.005990015 -0.22596864 -0.16669534 -0.23640725 0.31123587 0.024675021 0.31696087 0.25117934 0.2689187 0.17910127 0.27199867 -0.43806958 -0.083449975 -0.70237833 -0.8920717
steak -0.00043597736 0.36688834 0.1449185 0.44201532 0.0090332925 0.1266034 -0.12065752 0.07228159 -0.2600884 -0.11469431 -0.15766296 0.2597287 0.10938044 -0.3082009 -0.18994963 -0.20445397 -0.14406165 -0.67140126 -0.13449396 -0.4193855 -0.44120777 -0.27252272 0.20682524 0.4830589 0.46657395 -0.2227211 0.00028937845 0.3028627 -0.048175495 0.20699511 -0.15619178 -0.19273052 -0.0048679323 -0.21089123 -0.14471282 -0.5719 0.54677093 0.2632859 -0.44267306 0.2716366 -0.13261282 -0.286595 0.067704916 -0.079895 -0.10950473 -0.08102056 -0.3765217 0.20026058 0.27759796 -0.15866822 0.4335173 -0.13810617 0.038953144 -0.6501871 0.14638 -0.028925244 -0.062859364 -0.049888883 0.08313631 -0.06589537 0.20133033 0.031316154 -0.0623242 -0.064554796 -0.08993603 0.020194992 -0.034938224 -0.53155774 -0.35245946 -0.055410348 0.08954097 -0.20157176 0.10785445 -0.34666383 -0.015529482 -0.11222842 0.4346843 -0.1315861 0.14101279 -0.13156487 -0.19046108 0.007975457 0.2921725 0.56457555 -0.06563197 0.2996317 -0.3494209 -0.027030177 0.14200269 0.21996513 0.1429252 0.11446318 0.2553589 -0.04921808 0.20866005 -0.061939392 -0.29439571 -0.05391804 -0.32540742 -0.4461471
baked -0.13189958 0.35923415 0.12128467 0.17480625 0.35882398 -0.24527276 0.24616662 0.10000038 -0.33268583 -0.1454021 -0.28506622 0.37154236 -0.23905954 -0.17680864 -0.39343882 0.030014362 0.13737898 -0.8338532 -0.31133565 -0.73976046 -0.73525256 -0.20321396 0.1485092 0.10685311 0.8447173 -0.025537685 -0.25011188 0.1556927 -0.2402827 0.4473575 -0.18461925 -0.39546755 -0.38988742 -0.15195885 -0.52604765 -0.6357252 0.2856019 0.34134597 -0.07432504 0.17415991 -0.15965402 -0.029963298 0.2805737 -0.23147605 -0.2869935 -0.4456752 -0.017747473 0.39783505 0.50088555 0.16245556 0.34344223 -0.2555621 -0.24962437 -0.6322645 -0.04319842 0.47380924 -0.47447172 -0.28779817 0.39561385 -0.123801306 0.29139698 0.26903218 -0.24457547 0.53331125 -0.22160234 0.43106422 0.27099553 -0.5271862 -0.47821674 0.25287986 0.08326875 -0.55399543 -0.086112216 -0.10225673 -0.32280454 -0.033849187 0.84773505 0.4675448 -0.024376862 -0.30784625 0.00360166 -0.16347484 0.5393304 0.47242835 -0.111655384 0.2564303 -0.40747064 -0.009834929 0.22804841 0.43667507 0.5095292 0.4883885 0.36672953 0.0646296 -0.26934737 -0.019925192 -0.0070366245 -0.14971155 0.056994736 -0.7134856
hawaiian -0.031911112 0.37077144 -0.12978637 0.29904953 -0.015379811 -0.16037399 -0.11867387 0.19523828 0.01195994 -0.4276131 -0.23434341 0.23916888 0.2027055 -0.42445403 -0.20600423 -0.30234286 -0.07080081 -0.6772863 -0.3014191 -0.47329307 -0.5357422 -0.12027867 0.01902921 0.66962624 0.59127975 -0.27672333 0.010106687 0.23642208 -0.09314181 -0.00057707675 -0.19163474 -0.08724108 -0.13328108 -0.23467544 0.040129904 -0.51603854 0.5784484 0.19548202 -0.19828941 0.29777154 0.10289937 -0.18074548 0.18265869 -0.19384006 0.022230802 -0.12057953 -0.3034152 0.37935153 0.5270365 -0.08420042 0.25400934 0.071020946 0.13625838 -0.38241366 0.35482702 0.0318015 -0.1862042 0.12119057 0.17131557 -0.0919398 0.2622067 0.30889228 -0.21262498 -0.066734865 -0.1721772 0.17843217 -0.095515326 -0.61054707 -0.25189805 -0.10102 0.2006307 -0.22903585 -0.099647336 -0.34119356 -0.14611787 -0.26515755 0.68999684 0.094385564 0.1489825 -0.11612525 0.08133006 -0.11765739 0.22611442 0.50797075 -0.035784554 0.30504328 -0.08457464 -0.173176 -0.010245123 0.08144442 0.10499549 0.07311277 0.11922752 0.12947911 0.2423128 0.039983295 -0.25156972 0.064152285 -0.17845838 -0.6049086
potato -0.309409 0.37647966 -0.10115176 0.6325749 0.23165876 0.08520374 0.13190521 0.36531323 -0.55845666 -0.48080283 -0.34452504 0.28804874 -0.38565138 -0.1263548 -0.31463766 0.20555502 0.31795585 -1.0189328 -0.5055238 -0.5568441 -0.5719027 -0.45480996 0.24208091 0.15402476 0.40544802 0.0475314 0.39451796 0.03188717 0.19876778 -0.15766384 -0.22428118 -0.50489324 -0.31750107 -0.19770302 -0.0011647023 -0.7946772 0.35532433 0.3008406 -0.42640424 -0.04700556 0.09646042 0.029327251 0.19185662 -0.3863849 0.45124805 -0.16362277 -0.19105488 0.28307724 0.54000884 -0.5522774 0.19286655 -0.321935 0.24961591 -0.5685368 0.13808788 -0.034596696 -0.010162631 0.16303964 0.47178334 -0.0818908 0.34475404 0.04009201 -0.10198123 0.010667 -0.64618355 0.48913923 -0.25415665 -0.9594865 -0.5813098 -0.12342708 0.09579681 -0.6722096 -0.16119517 -0.56100863 -0.10395823 -0.1425894 0.20746711 0.3326361 0.16258404 0.014064063 0.5330428 0.37692127 0.5374022 0.5438387 0.057004053 -0.017981676 0.0953203 -0.0807129 -0.35840392 -0.034245286 0.30225018 -0.09481314 0.4005697 -0.08417184 0.21232702 0.21632582 -0.11700502 -0.20881091 -0.42403048 -0.8684571
caprina 0.02344702 0.49605605 0.15709347 0.31642026 -0.003987912 -0.049873892 -0.09257803 0.22816466 -0.10031434 -0.2333987 -0.0698528 0.26600137 0.077609085 -0.33613473 0.1082175 -0.032955978 -0.12578017 -0.63766056 -0.3280683 -0.42397228 -0.5343818 -0.20302987 0.109450534 0.42910105 0.40784076 -0.16534236 0.20419131 0.28569478 -0.007222276 -0.03694278 -0.18137185 -0.17978647 -0.22333542 -0.092326604 0.013601285 -0.424297 0.6261969 0.16479841 -0.42616618 0.24874671 0.204394 -0.124767974 0.0972918 -0.11201546 -0.0029408857 -0.08637419 -0.22539398 0.4282511 0.4914196 -0.016524516 0.18212354 -0.10652532 0.06639393 -0.4196144 0.13676801 0.06273188 0.012808976 0.04231133 0.24825303 -0.14918569 0.36977142 0.040582076 -0.3906555 -0.0636667 -0.13143131 0.26915404 -0.1037991 -0.5000706 -0.31933486 -0.113559745 0.18889636 -0.25419345 -0.015568606 -0.2997962 0.19139543 -0.28964743 0.3696269 -0.1489413 0.049916703 -0.14386879 -0.07071302 -0.115140624 0.18403575 0.5263279 0.07727511 0.17727436 -0.6116203 -0.11345067 -0.21496424 0.12565523 0.24945179 0.24038877 0.23047191 0.20270765 0.043493297 0.007846349 -0.16890956 0.05233939 -0.20151988 -0.48105404
carlo -0.21751064 0.56638706 -0.18110943 0.46421844 -0.27937493 0.085509464 0.07974129 0.06084856 0.12199884 0.4685599 -0.23544541 0.8380105 -0.2711174 -0.32280514 -0.4034002 0.3009898 -0.28889772 -0.6920641 -0.23356105 -0.16868967 -0.31613615 -0.012302811 0.13961023 0.8210317 0.8090066 -0.52678967 -0.1643962 0.43731865 -0.02875255 -0.40205637 -0.63060117 -0.009885284 -0.15679581 -0.078967035 0.36671683 -0.39050946 1.0077298 0.47033623 -0.12121376 -0.05886985 0.35580805 -0.0057485113 0.037099466 -0.15738682 -0.04375771 -0.15940665 0.32050973 0.13092566 0.46527275 -0.36460534 0.430977 -0.5557325 -0.035954468 -0.3866452 0.14492789 0.32972944 -0.1692274 -0.16829538 0.61004245 0.117563315 0.24635188 0.0017543609 -0.48489147 -0.06054659 -0.26927003 0.48316744 -0.20764162 -0.55226195 -0.5545705 -0.16032407 0.5919092 -0.3361715 -0.21545239 -0.15285715 -0.53523344 -0.09442607 0.23662804 -0.41232526 0.25132683 -0.5079613 0.088519156 -0.42554188 0.26770762 0.84614766 0.23780413 0.3051847 -0.5677776 -0.3586567 -0.13571844 -0.097428694 0.06792494 0.25772914 0.17712197 0.10803167 -0.07819062 0.11673871 -0.4854402 0.080111995 -0.38180766 -0.16433826
prince 0.053545687 0.4271202 0.08698809 0.51547533 -0.16813233 0.07734326 -0.11845303 -0.020628242 -0.057407398 0.1278658 0.16574709 0.1432368 0.27377498 0.02209638 -0.46909955 0.119121246 -0.043431766 -0.46040845 -0.3586739 -0.27283037 -0.5008463 -0.5360664 -0.009148968 0.68599105 0.69063544 -0.0146152 0.26869413 0.28600395 0.13525882 0.20194772 -0.55641663 -0.5583817 -0.08602489 -0.15105277 -0.18755989 -0.15444417 1.0947168 -0.011653071 -0.29331446 0.24014214 0.42043006 0.5334622 -0.0024106198 0.058993164 0.13786611 0.049633645 -0.49158117 0.34488183 0.6695398 0.15928344 0.12910683 -0.44074416 -0.21344113 -0.55948037 0.2814078 0.17684259 0.0038065067 0.4494922 0.13583952 0.3612273 0.6325968 0.24954425 -0.12688066 -0.04149072 -0.21274425 0.36340314 -0.3913751 -0.43136612 -0.58548415 -0.17826019 0.09667772 -0.8818709 -0.26533732 -0.26267773 -0.37382266 0.09119054 0.7043633 -0.04940445 -0.14051858 -0.21924473 0.072768986 -0.0378561 -0.2011838 0.45246667 0.24167208 0.20215681 -0.9178881 -0.34170824 0.12114145 0.24324629 -0.047406107 0.11830351 -0.06926046 -0.2544243 -0.31982103 0.025948098 -0.114418626 0.020764366 -0.6161856 -0.49256492
parm 0.15990503 0.39320046 -0.05884081 0.5836349 0.017752325 -0.09151658 -0.22052836 0.2525561 0.06374995 0.1698391 -0.34925058 0.4746413 0.16662233 -0.31093958 -0.21827354 -0.12849599 0.036816854 -0.9570613 -0.38352817 -0.5706629 -0.36742637 -0.2933291 -0.025470404 0.7865449 0.40489215 -0.19200659 -0.07114852 0.20550409 -0.2363399 0.11328764 -0.3887109 -0.026513914 -0.40079904 -0.2150689 0.18535288 -0.61804503 0.52364475 0.28901714 -0.21701312 0.4189766 0.13906735 0.1400037 0.24198459 0.036623724 -0.08429991 0.06534066 -0.06832289 0.43330893 0.8477712 0.120775215 -0.17045149 -0.18650994 -0.04757095 -0.43043083 0.120221645 0.3111127 0.21483235 0.41270405 0.14968161 0.04787302 0.020330437 0.08912064 -0.20547289 0.077288575 -0.20043106 0.14816426 -0.06728188 -0.46243078 -0.30144972 -0.16318505 0.35878697 -0.3205368 0.09038353 -0.62277764 0.057323657 -0.47499207 0.092780635 0.17480417 0.3978488 -0.21675582 -0.30086133 -0.34197098 0.10580091 0.5763623 0.60807556 0.26320717 -0.6060832 0.04660019 0.43350884 -0.29548955 0.1447906 0.18352526 0.29274124 0.047663603 0.088959806 0.26234797 -0.16731477 -0.025190013 -0.25348195 -0.7260676
viennese 0.03504613 0.43797195 -0.08375231 0.106681354 -0.01702631 -0.255685 0.029403359 0.23722532 -0.19045165 -0.18875909 -0.13537589 0.36443475 0.22711973 -0.24754328 -0.17177506 -0.15706325 0.089294896 -0.74265647 -0.31459868 -0.4773308 -0.20505406 -0.15937927 -0.022908092 0.3860308 0.43583906 -0.29600376 -0.009982927 0.2444942 -0.12164984 -0.09659446 -0.38019198 -0.20941164 -0.25973675 -0.09216342 0.0155625325 -0.36586124 0.64903784 0.3861954 -0.38682085 0.2951325 -0.036949906 -0.15157534 0.05252993 -0.31861028 -0.18283173 -0.023866097 -0.05529415 0.39384663 0.2414361 -0.11766909 0.22936372 -0.35623926 0.027221128 -0.3549083 0.16241778 0.23607028 0.015802084 0.04675521 0.03390059 -0.23087357 0.41753507 0.22739856 -0.36822736 -0.11745447 -0.11058189 0.17039163 -0.08063175 -0.67902917 -0.5790384 -0.12574498 0.11224138 -0.3207406 -0.19639854 -0.30981025 0.08443093 -0.17317155 0.25277707 0.12947117 0.23173213 0.087133005 0.020271944 -0.024567226 0.12569103 0.54518896 0.11061427 0.17085278 -0.443265 0.13363643 0.23330756 -0.012736573 0.13619958 0.080660924 0.2822088 -0.038801495 0.39307234 0.07350538 -0.3566763 0.12449215 -0.16726002 -0.5571582
blt 0.05641617 0.54074144 0.012476667 0.27054024 -0.091591135 -0.07019716 0.032839738 0.21548669 -0.15766507 -0.26323876 -0.1818776 0.23689249 0.06310714 -0.41841558 -0.14364552 -0.26300085 0.023833213 -0.70173717 -0.23405135 -0.36068836 -0.51464474 -0.2124043 0.08693048 0.49132952 0.5618611 -0.20876189 0.017618038 0.38108912 -0.04549896 0.11566555 -0.35326952 -0.1509954 -0.19010086 -0.14125799 -0.04161726 -0.5576048 0.5964567 0.20276622 -0.22620948 0.23438987 0.11581231 -0.11610063 0.1067582 -0.084675975 0.02951327 -0.04713012 -0.28009197 0.34799784 0.46881363 -0.07652392 0.15871564 -0.19135968 0.09683743 -0.4345819 0.097468644 0.12992778 -0.073170215 0.06560475 0.1259105 -0.064698495 0.35709003 0.13676558 -0.33852524 0.018294945 -0.16863757 0.25790188 -0.07454739 -0.5428642 -0.21882485 -0.08362036 0.2619521 -0.2947188 -0.03562868 -0.28075823 0.021321744 -0.21808977 0.5818572 0.059317555 0.0746417 -0.15669702 0.25646135 -0.047958568 0.33153328 0.5976924 -0.05571018 0.31240126 -0.43414867 -0.0883766 -0.081955016 0.12944697 0.053662855 0.257576 0.23203123 0.020863429 0.08835723 0.16873021 -0.18536152 0.011016922 -0.15403213 -0.51684356
