832 100
pizza -0.5641584 -0.7783924 -0.10567436 0.3713472 0.29081705 -0.76255906 0.14426063 0.6486769 0.2029713 0.13011281 0.0015628005 0.10212598 -0.37787238 -0.36462018 0.0689689 -0.2457074 -0.2643032 0.12844129 0.07717005 -0.12394871 -0.13682075 -0.24658416 -0.04358246 -0.41483286 0.007975256 0.31648454 0.2755396 0.3747325 -0.05061299 -0.10180091 -0.27161884 0.14961779 0.00030143553 0.43524516 -0.10620135 -0.22622462 0.19595776 -0.024485253 0.07671069 0.035187718 -0.26516557 -0.36602217 -0.03743547 0.16375229 -0.17534453 0.052725352 0.1212957 -0.70868653 -0.06216735 -0.1896968 -0.5051851 0.11858037 0.2806442 0.06420688 0.15431906 0.2686409 -0.14801767 0.47760206 -0.2531596 -0.08283858 0.10584782 -0.5149151 0.20679238 -0.24975416 0.49592346 0.25333846 0.6789727 0.52502024 0.09451164 -0.09905416 0.45843863 -0.26175866 -0.23546706 0.21011323 -0.011938337 0.38170087 -0.16089165 -0.2736118 -0.075846896 -0.2596179 0.31251022 -0.64441186 -0.13579944 0.031322483 0.46859536 0.21327393 0.0031166212 -0.6925093 -0.6837916 0.06735703 -0.346354 -0.3646908 -0.87641 -0.08387015 0.23637095 -0.192924 -1.1392218 -0.3506522 -0.62504685 0.10715786
subclassof -0.35313067 -0.56665957 -0.034342658 0.41222274 0.032197367 -0.44130924 0.090411685 0.15473814 0.48561135 0.262365 0.024311861 -0.2180141 -0.12599617 -0.20359506 0.011081465 -0.21451528 0.02839709 0.030745074 -0.013856378 -0.10056338 -0.06852211 -0.36156872 -0.3533017 -0.37739 0.20001869 0.45173037 0.25882602 0.5827772 -0.07983623 -0.33185405 -0.2798431 0.16817367 0.13767791 0.25339422 0.10067178 -0.04904264 0.07225399 -0.22862151 0.031851742 0.39271864 -0.2842652 -0.24069563 -0.07357911 0.1719816 -0.13749796 -0.03575618 0.26172903 -0.47243068 -0.21672837 -0.25456628 -0.33968976 -0.039386686 0.3590821 -0.15961686 -0.13276339 0.25182214 -0.12829013 0.60718465 -0.22714439 0.049448766 0.25604364 -0.36006773 0.073594585 -0.14451337 0.47191787 0.2969842 0.5278746 0.3195516 -0.14597048 -0.21225278 0.27271244 -0.20970716 -0.1566293 0.22364105 -0.080549575 0.1822164 -0.30878788 -0.35299966 -0.10133912 -0.29230863 0.25433317 -0.5148355 -0.12100915 0.15437113 0.5748733 0.25622985 0.16485617 -0.70827115 -0.43068537 -0.094987996 -0.40472707 -0.48880616 -0.7151542 0.06676952 0.21933743 -0.23396762 -1.2972509 -0.15749028 -0.72396976 0.17220096
topping -0.40736127 -0.55031216 -0.41726854 0.27241156 -0.083640054 -0.7573999 0.3990989 0.35018057 0.31762552 0.27919152 -0.3083933 -0.2709344 -0.12654568 0.021284726 0.08377791 -0.25317708 0.15354462 0.024393296 -0.24297045 -0.19704093 0.050096896 -0.48172855 -0.16025752 -0.31948084 0.2673533 0.65583783 0.046735473 0.429361 0.060251027 -0.2189953 -0.3078921 -0.024655068 -0.041638367 0.02823004 0.19437629 0.11421901 -0.08341082 -0.36406907 -0.1034999 0.12820515 -0.069974974 -0.56291074 -0.23368746 0.11181069 -0.13079102 -0.13399889 0.4034804 -0.49692246 -0.16672634 -0.45385876 -0.621065 -0.12666088 0.12049139 -0.1352016 -0.05598083 0.20200239 -0.060096018 0.5779158 -0.19281651 -0.07268632 -0.010115534 -0.15914194 0.23993023 -0.20526956 0.4423448 0.17511792 0.4939823 0.3185717 -0.37226442 -0.2913412 0.4073061 -0.1952225 -0.34344792 0.19153173 -0.01362876 0.11681206 -0.11941568 0.016279701 0.039772864 -0.0068135 0.4249213 -0.39410394 -0.1910282 0.08218462 0.54198205 0.45895308 0.052732363 -0.55509204 -0.27478403 0.08836155 -0.4473707 -0.44445243 -0.9422186 0.035574745 0.39982694 -0.06672418 -0.9455752 0.020214245 -0.60849243 -0.0407333
http://www.w3.org/2000/01/rdf-schema#subClassOf -0.17185424 0.3775039 -0.20929967 -0.13774912 -0.41132116 -0.13827525 -0.25997442 0.7635905 -0.8407394 0.3929915 -0.15150267 -0.5359017 0.14057866 -0.03373354 0.22646834 0.47184554 0.32502335 -0.48734936 0.3089864 -0.113699086 0.44404718 -0.18030171 -0.1979667 0.10667741 -0.29877385 -0.451385 0.08466058 -0.023622269 -0.035159025 -0.793398 -0.4658963 0.5611288 0.3976929 0.096368164 0.8899174 -0.3029655 -0.17083013 -0.06562272 0.34225148 -0.2595647 -0.22821255 -0.52507794 -0.5641759 0.373066 -0.0142734675 0.26967356 -0.22836919 0.13115065 0.63147885 0.17445649 -0.2807548 -0.5282606 -0.20056799 -0.38621232 0.27428314 -0.05310917 0.36385754 -0.16443577 0.069879726 -0.2451573 -0.20750177 0.013359795 0.16723943 0.32880405 0.75936025 -0.47700506 0.6605198 0.017932028 0.2899814 -0.49041995 0.4110924 -0.07312172 0.12181944 -0.52362996 0.106634036 0.23141055 -0.71302646 0.1970512 -0.16107707 -0.44644824 -0.1155007 -0.5841677 0.15154058 0.19786008 0.019296965 0.43068367 -0.24406445 0.34467083 -0.88226014 -0.2510087 -0.33268318 -0.45460913 -0.5650597 0.32610235 -0.0037428031 0.11353676 -0.27336603 -0.9399389 0.42479506 -0.22170492
has -0.51642686 -0.61892587 -0.36577752 0.45266783 -0.22499925 -0.489902 0.030364906 0.11736394 0.45881274 0.4212152 -0.09268744 -0.11581367 -0.029188648 -0.20667443 0.0023656806 -0.3528301 -0.06280532 0.3554265 -0.11216633 -0.26926532 -0.017743014 -0.26116562 -0.29138097 -0.4555699 0.23864524 0.6332191 0.43552038 0.65588623 -0.05425755 -0.39640257 -0.49158233 -0.0007940695 0.081314184 0.0020789471 -0.08763286 -0.24133836 -0.20061722 -0.18972988 -0.008009324 0.49639562 -0.13953543 0.10084961 -0.03201424 -0.09560159 0.099362314 -0.09622215 0.32578135 -0.3184263 -0.045685355 -0.1316427 -0.34298164 0.14155585 0.10623344 -0.35080868 -0.119739234 0.1462143 -0.15766972 0.71491957 -0.22174467 -0.12208089 0.25346696 -0.40791076 -0.13747309 -0.16990182 0.57488686 0.4452597 0.7005814 0.30640277 -0.042823438 -0.5448897 0.36372155 -0.0048435396 -0.057784226 0.5588544 -0.084378846 0.06422975 -0.22044718 -0.28274488 -0.23351075 -0.46401602 0.0865146 -0.20864296 0.18867123 -0.026645413 0.4711535 0.13468353 0.3476481 -0.80916536 -0.37185848 -0.37069166 -0.48363683 -0.46204048 -0.8562265 0.1250422 0.3911575 0.06251978 -1.2728282 -0.04494158 -0.76130587 -0.15867433
http://link477.com/ds/pizza#hasTopping -0.24619138 0.41204166 -0.3884145 -0.16087538 -0.42752182 -0.07366013 -0.0657445 1.2883384 -1.1251876 0.54768085 -0.5297551 -0.9060493 0.15695846 0.02239152 0.35783178 0.13399975 0.55489904 -0.5660691 0.2429822 -0.11358132 0.8166378 -0.46966517 0.2530987 0.11971351 -0.09192917 -0.21845013 0.119171344 -0.18221962 -0.08848321 -0.6028378 -0.8796419 0.3531726 0.30556908 0.3615655 0.7677018 -0.45428473 -0.31861642 -0.64078814 0.44577277 -0.33456394 -0.292075 -0.37289435 -0.45668736 0.19057983 -0.38949078 0.60152805 -0.14217839 0.10721511 0.7633168 -0.01184882 -0.15159048 -0.3972526 -0.32954848 -0.5633126 0.67077243 0.23257007 0.10069644 -0.2109173 0.10030352 -0.02997236 -0.17808136 -0.051990345 -0.054840505 0.26348004 0.8014011 -0.48614874 1.0626922 0.08273212 0.0616127 -0.1803974 0.018112294 -0.12594786 0.22560894 -0.38296607 0.4018281 0.40558895 -0.7042644 -0.24908875 -0.10497284 -0.122703634 0.18195245 -0.36485574 0.27090874 0.2574916 0.1671006 0.20489126 0.12928209 0.25812435 -0.5316681 -0.48579678 -0.11494377 -0.33717322 -0.35850057 0.1169492 0.1616835 0.08813722 -0.102903016 -0.7891538 0.093304515 -0.046560775
of -0.45211828 -0.5699305 0.1499704 0.27297017 0.031620886 -0.51246214 -0.042789172 0.2842958 0.66213876 0.15498099 0.24916282 0.05264388 -0.18954797 -0.16084863 -0.07204704 -0.056695685 -0.053652138 -0.096658744 0.342187 -0.013902633 0.0024727779 -0.6184747 -0.54938203 -0.6188093 0.19779733 0.35101372 0.027591772 0.53694147 -0.17821606 -0.4182842 -0.29449692 0.1669441 0.06727122 0.26033556 -0.069381654 -0.07328633 0.06173325 -0.20323427 -0.1770762 0.2855236 -0.30885386 -0.2690325 -0.07128583 0.009013864 -0.2901098 -0.22279026 0.3122926 -0.6701422 -0.33728224 -0.30134776 -0.52046883 -0.12405277 0.15281516 0.077813424 -0.30223504 0.4020181 -0.16555697 0.4489954 -0.20017079 -0.15456575 0.30667007 -0.5922883 0.1485835 -0.31869993 0.6548843 0.17245068 0.33550793 0.29916933 0.07965145 -0.020991575 0.6029483 -0.2817484 -0.45042688 -0.056804635 -0.15676124 0.32108665 -0.04848103 -0.062018286 0.18753034 -0.4431241 0.23823729 -0.6671886 -0.20543082 -0.09810851 0.8649543 0.16127813 0.18568233 -0.6399455 -0.7555366 0.03020931 -0.4851137 -0.37375516 -0.8981757 0.1795491 0.17080377 -0.35397914 -1.0237076 -0.2804295 -0.50108373 0.19622795
super -0.36451277 -0.4282137 -0.14323407 0.36154523 -0.06598912 -0.3966851 0.17248186 0.12242565 0.07781065 0.13536361 0.12375324 0.17204896 -0.12264163 -0.27617496 -0.1209317 0.11245801 -0.21373218 -0.124302335 -0.036143087 0.05638346 -0.18131797 -0.2498213 -0.121440284 -0.57747334 0.13697897 0.3054561 0.26697254 0.50761116 0.25122914 -0.44131142 0.1725319 0.18536769 -0.03615655 0.42218286 0.3209214 -0.023331368 0.17912672 0.059896216 0.17408605 0.64276093 -0.14309785 -0.14235745 0.024967516 0.15812898 -0.50466454 -0.48269224 0.27047628 -0.29966274 0.089513086 -0.4992506 -0.18549155 -0.19458996 0.445581 -0.053195 -0.20383193 0.08956737 0.068767354 0.5719814 -0.101651914 -0.025199512 -0.062345166 -0.2684783 0.21571343 -0.32841584 0.6063974 0.15656494 0.44180202 0.176634 -0.0075018937 -0.3231282 0.41917783 -0.2884514 -0.12922509 0.061010655 -0.41459984 0.306505 -0.30106166 -0.48411733 0.04311117 -0.27360928 0.25862443 -0.77037674 -0.15763353 0.30491203 0.6355644 0.099874035 0.23147114 -0.66742384 -0.6380847 -0.11735299 -0.37045875 -0.29696956 -0.94110507 -0.1246783 0.008731506 -0.26296368 -1.2946882 -0.42123023 -0.68471354 0.24806438
class -0.3004955 -0.35632324 -0.0030019267 0.08269081 0.35815448 -0.48733807 0.054468844 -0.012834442 0.33946887 0.014639314 0.124817505 -0.08543181 -0.14281262 -0.22637169 -0.075634606 -0.20383921 0.050888292 0.22036271 -0.1704672 0.07058095 -0.068484314 -0.17002942 -0.4317525 -0.25953665 0.19351852 0.1536286 0.3615485 0.5114597 -0.25019017 -0.1039602 -0.031858664 0.08778533 0.20827438 0.35015604 0.45032248 -0.058692396 0.36849892 -0.1668032 -0.16231908 0.10691788 -0.13770299 -0.3202585 -0.17092411 0.2983767 -0.04523626 -0.030718826 -0.022924915 -0.6139506 -0.022199677 -0.22945397 -0.2809951 0.12286966 0.5279857 0.0024925095 -0.04917709 0.6680196 -0.1865892 0.83008873 -0.057808004 0.14107832 -0.08830908 -0.3526851 0.3707706 -0.11417336 0.66540235 0.23696089 0.5778016 0.35911274 0.09835141 -0.32772335 0.43074587 -0.017495222 -0.012491139 0.3943713 -0.37770885 0.37421635 -0.25551203 -0.118025094 -0.14585207 -0.52605075 0.45215678 -0.4518026 -0.007683503 0.23066866 0.9354614 0.25517216 0.0032111958 -0.83224195 -0.7958357 -0.08405168 -0.35387987 -0.5605192 -0.6997344 0.232862 0.34257114 -0.2905632 -1.1790051 -0.2789533 -0.4050914 -0.013429714
http://www.semanticweb.org/owl2vec#superClassOf -0.1859384 0.3680494 -0.20579018 -0.13592967 -0.35462344 -0.24591628 -0.25800142 0.66793185 -0.80325437 0.32177112 -0.059538282 -0.46987695 0.14639273 -0.079335816 0.15998171 0.52153504 0.25236666 -0.46372998 0.3343583 -0.09833896 0.3913886 -0.1275746 -0.30783686 0.09521318 -0.35226455 -0.409147 0.10096394 0.042701326 -0.0032606618 -0.773102 -0.29634255 0.58658636 0.432142 0.08901912 0.8570034 -0.3270051 -0.108001605 -0.03377806 0.3330857 -0.28308198 -0.23941138 -0.5147433 -0.58844244 0.4028212 0.07640315 0.18697524 -0.2655088 0.13997519 0.5778601 0.15248942 -0.35825968 -0.5120478 -0.12979683 -0.3290962 0.21992645 -0.028954018 0.39652145 -0.14031762 -0.036329683 -0.23324774 -0.25892273 -0.013783317 0.23264201 0.38193673 0.7383669 -0.4524208 0.5185708 0.024342572 0.29482841 -0.5323568 0.4990586 -0.02496544 0.10751479 -0.48327675 0.044124525 0.2108596 -0.74399346 0.22408977 -0.11486027 -0.43237025 -0.10236958 -0.54624116 0.10144777 0.12559702 -0.02967404 0.3972892 -0.30578214 0.34636205 -0.9101551 -0.20509194 -0.33342442 -0.3613921 -0.5114419 0.2982164 0.010143083 0.1290753 -0.26510414 -0.9225588 0.44081727 -0.26507723
http://www.w3.org/2000/01/rdf-schema#label -0.17008303 0.3193956 -0.18321294 -0.12576067 -0.33320484 -0.20092441 -0.10580475 0.73430914 -0.7479835 0.28054368 -0.17064987 -0.46668062 0.12700343 -0.065285474 0.17648132 0.30610967 0.28405887 -0.36365506 0.22010402 -0.12723187 0.49323207 -0.17312825 -0.10515298 0.08465886 -0.18907379 -0.29568154 0.13228267 -0.012916696 -0.023965724 -0.51326376 -0.3831199 0.3838424 0.27631566 0.15075827 0.6978805 -0.29115713 -0.10878093 -0.21368136 0.3162433 -0.19758831 -0.23156215 -0.41546735 -0.48113912 0.30380443 -0.060973365 0.27116457 -0.14776912 0.09100504 0.5054397 0.07315715 -0.26898625 -0.44317034 -0.17562869 -0.32616368 0.29200107 0.0016351871 0.31339976 -0.05808549 0.048829336 -0.123347215 -0.22361681 -0.06111957 0.14083166 0.19953205 0.6549882 -0.37254044 0.5871437 0.06779626 0.1856995 -0.2975428 0.2849764 -0.06456384 0.11473121 -0.43002927 0.07596332 0.24859226 -0.58163965 0.06822293 -0.14392653 -0.2549551 0.03785666 -0.4433148 0.1287937 0.14524555 0.08187112 0.30767822 -0.13848211 0.23626778 -0.6329118 -0.24154793 -0.28836298 -0.3580104 -0.45665544 0.20294756 -0.002751772 0.10218139 -0.28979704 -0.7409885 0.24024452 -0.17087114
label -0.3257523 -0.397605 -0.14488392 0.29359555 -0.06002365 -0.42400664 0.06538114 0.15774237 0.320485 0.13609606 -0.15730253 -0.08988853 -0.06947966 -0.16178413 0.020955628 -0.17535461 -0.054273162 0.05443816 -0.15250349 -0.100173585 -0.040295236 -0.3082002 -0.32489702 -0.36561114 0.2810514 0.39754987 0.14729139 0.56030905 -0.07737112 -0.33554074 -0.1257146 0.090556204 0.086857826 0.13677144 0.13461974 0.013285368 0.013548033 -0.1475429 -0.0736052 0.32335758 -0.16490538 -0.17140605 -0.09987312 0.11478794 -0.32034653 -0.090132125 0.22966631 -0.39186412 -0.07914399 -0.25247455 -0.28124237 -0.13234994 0.23523627 -0.10072302 -0.10385944 0.12910943 -0.014287734 0.5196731 -0.1311058 -0.093689375 0.17450522 -0.21423937 0.19410928 -0.13942659 0.5045278 0.20871465 0.5337505 0.24379995 -0.041013606 -0.29299286 0.23343809 -0.12357999 -0.057709932 0.253326 -0.16809246 0.1512495 -0.2709656 -0.22152887 -0.16802847 -0.23803356 0.38810295 -0.39221618 -0.081308 0.20755859 0.60596275 0.22699142 0.2002519 -0.5525738 -0.44827443 -0.063000105 -0.45792532 -0.36076537 -0.81372 0.04037958 0.15455188 -0.14334598 -1.1815871 -0.1210165 -0.5804647 0.16262725
http://www.w3.org/2000/01/rdf-schema#comment -0.17230675 0.31553286 -0.20639938 -0.13676316 -0.34733722 -0.2315158 -0.07374918 0.7491067 -0.7549589 0.28847083 -0.18588307 -0.50672954 0.135705 -0.091710165 0.17409554 0.27793255 0.29306862 -0.33893982 0.21283758 -0.15658501 0.49716672 -0.16157375 -0.09550228 0.10964133 -0.18841243 -0.26495254 0.17753163 -0.00487535 -0.0016783288 -0.47642344 -0.38055065 0.3646082 0.27079454 0.15472338 0.688319 -0.2956624 -0.12336964 -0.22311445 0.327029 -0.20441578 -0.24833064 -0.43241248 -0.49435234 0.31403968 -0.055848178 0.30559975 -0.13518894 0.09655207 0.5251128 0.07296491 -0.28109005 -0.43714634 -0.18751758 -0.33294562 0.30486664 -0.013571927 0.31737396 -0.030998109 0.05329454 -0.09715387 -0.23616119 -0.07187602 0.11455841 0.19937165 0.6469748 -0.3619212 0.60134214 0.07869763 0.13275802 -0.29240975 0.26947382 -0.06570333 0.11619762 -0.43323573 0.07440103 0.2552177 -0.6051182 0.053771064 -0.1326352 -0.24577916 0.026027277 -0.43936807 0.120390154 0.1262217 0.0919383 0.31020498 -0.12884887 0.23610292 -0.6159719 -0.24795787 -0.289865 -0.36987662 -0.45833898 0.19676013 -0.0018440732 0.119322106 -0.2866121 -0.7535312 0.23550548 -0.16938576
comment -0.30421188 -0.43959364 -0.18607396 0.253374 -0.12108006 -0.4158608 0.10254029 0.16297811 0.412709 0.17056833 -0.12182814 -0.15911499 -0.03709166 -0.13765529 0.040110916 -0.2599162 0.040100764 0.09659592 -0.06307825 -0.13936362 0.0034080255 -0.32040048 -0.32725036 -0.3405761 0.28719878 0.44437453 0.1775841 0.52455646 -0.12901442 -0.34753937 -0.2185102 0.06487265 0.070486724 0.05638257 0.08693728 0.021903556 0.0021469318 -0.14905398 -0.114086874 0.29304084 -0.15714714 -0.20166618 -0.09986182 0.059347566 -0.2619267 -0.09253725 0.21898478 -0.3918479 -0.13322887 -0.2908089 -0.32564646 -0.060194194 0.21834487 -0.0733454 -0.06278991 0.17096703 -0.0945558 0.53211665 -0.17447796 -0.062188726 0.14187345 -0.27903414 0.18974154 -0.11765276 0.5069958 0.21533492 0.49831522 0.2446729 -0.09374858 -0.2945102 0.30136594 -0.037029393 -0.13457099 0.29222414 -0.101263344 0.14356644 -0.24949417 -0.14523046 -0.07420887 -0.25309598 0.4078041 -0.40215564 -0.03503884 0.107789256 0.63311267 0.21707223 0.11065734 -0.516684 -0.43159276 -0.023712464 -0.46193784 -0.36626333 -0.73815846 0.05529109 0.17592877 -0.15486091 -1.2010818 -0.13995051 -0.5795473 0.06852335
http://link477.com/ds/pizza#pizza -0.15865494 0.24674407 -0.15101998 -0.03198978 -0.21800776 0.1517188 -0.22421588 0.9875893 -0.8692407 0.49107307 -0.34228814 -0.60376614 -0.0041717533 0.12924896 0.19237289 0.4167451 0.60879916 -0.6037896 0.12692516 0.037528373 0.31677392 -0.22805129 -0.058864105 -0.23733464 -0.28394967 -0.59057397 -0.0132150715 -0.21051975 -0.1975668 -0.8017413 -0.6553691 0.52155286 0.25862715 0.36837825 0.9418117 -0.054916512 -0.25342035 -0.20860732 0.20992313 -0.096851096 -0.009510359 -0.17297737 -0.35032088 0.12703735 -0.41901702 0.28378183 -0.16240227 0.11049705 0.5836942 -0.056955542 -0.18112011 -0.63559407 -0.15367356 -0.32604906 0.2356011 0.118799634 -0.23404501 -0.25770056 0.1507576 -0.35313463 -0.19516857 0.27853876 0.17535341 0.120238274 0.66023046 -0.35094136 0.90375507 -0.10787964 0.36684272 -0.2563749 0.37049723 -0.21075003 0.21226594 -0.55360377 0.30627888 0.1616539 -0.5751224 -0.004676423 -0.15664208 -0.39333752 0.22898418 -0.79866153 0.24245544 0.33374175 0.20766477 0.44370693 0.05674249 0.3447182 -0.90511346 -0.29182386 -0.18702576 -0.5028902 -0.34222203 0.26383197 0.14187074 -0.28556556 -0.21152489 -0.88270247 0.19807857 -0.16236092
http://link477.com/ds/pizza#pizzaTopping -0.17075664 0.26500723 -0.04541804 -0.08771654 -0.26345086 0.28521317 -0.3339577 0.5394109 -0.4441176 0.31156301 -0.18713453 -0.14262097 0.114876054 0.14831208 0.29951012 0.32502714 0.1506158 -0.5342625 0.23905481 0.21984656 0.33387786 -0.4226679 -0.05643636 -0.06267499 0.118795775 -0.46190438 -0.31476283 -0.023795847 -0.15648755 -0.6028458 -0.4885972 0.43203476 0.21769945 0.079765014 0.5917695 -0.18974148 -0.063600436 -0.07339425 0.13716981 -0.10326081 -0.10399336 -0.43925914 -0.11198919 0.09336657 -0.46175256 0.066578075 -0.12946066 -0.19454503 0.33056054 0.0397991 0.110425115 -0.26511136 -0.19481826 -0.3311919 0.25066134 0.21953441 0.11989792 -0.27484918 0.19610518 -0.18252894 0.11734251 -0.05063013 0.1206414 0.11710771 0.7184205 -0.40376195 0.6373221 -0.05578331 0.47414136 -0.37200668 0.124157004 -0.03780005 0.21291713 -0.17422992 0.023674663 0.19337542 -0.122276485 0.14313085 -0.06944234 -0.36222255 0.019958692 -0.490709 0.27778566 0.37669858 0.29616162 0.2227627 0.01742786 0.14945701 -0.81906796 -0.14322264 -0.2819392 -0.3213948 -0.6473236 0.29816496 0.043989953 -0.10384069 -0.299895 -0.6601179 0.26480615 0.12081404
named -0.50134593 -0.5466057 -0.10602494 0.24404004 0.10147092 -0.6603319 0.1307025 0.49330285 0.11537753 0.097379886 -0.03959446 -0.035628546 -0.25833812 -0.271245 -0.0951673 0.026488343 -0.26169813 0.026318809 -0.148487 0.110083304 0.049941346 -0.5221374 -0.029437901 -0.4522054 0.07957939 0.30166823 0.13499124 0.47755197 0.01995936 -0.052035525 -0.11638284 0.09197871 -0.018456142 0.3927155 0.38868374 -0.003774665 0.14914162 -0.22803882 -0.18391015 0.31694913 -0.12778367 -0.3952644 -0.32049078 0.14230512 -0.3823049 -0.22937673 0.411872 -0.6950466 0.07668417 -0.28624752 -0.47014776 -0.28761387 0.25620377 0.101276286 -0.20056379 0.4558585 0.1177537 0.65173215 0.062159106 -0.07304164 -0.18575417 -0.24983715 0.3580687 -0.38515702 0.82099605 0.14683571 0.4868999 0.4947326 0.13710329 -0.09121312 0.39344278 -0.31910637 -0.13579956 0.041395184 -0.4405686 0.2206155 -0.20819266 -0.29189444 -0.12198618 -0.2538188 0.41766462 -0.6451281 0.044734467 0.17928454 0.6567531 0.39182612 0.15716356 -0.96605706 -0.56110847 0.009268418 -0.27855748 -0.598547 -0.9534096 0.07132626 0.25890166 -0.14665903 -0.7774189 -0.18842763 -0.45972598 -0.02037702
http://link477.com/ds/pizza#namedPizza -0.17341119 0.26804394 -0.15733717 -0.09168501 -0.24240062 0.17510998 -0.13813002 1.0699435 -0.89315987 0.4951706 -0.42012948 -0.70639443 0.039046157 0.15402614 0.28953648 0.34738722 0.6205976 -0.57187617 0.07970127 0.015924336 0.4072363 -0.24938622 0.082631625 -0.22683202 -0.117744766 -0.5027784 -0.0021444361 -0.17753966 -0.21086194 -0.69537276 -0.7014234 0.42596117 0.2766159 0.38454443 0.8924921 -0.120562434 -0.24136862 -0.3202341 0.23262647 -0.12890857 -0.058688287 -0.21159287 -0.3143701 0.09270557 -0.53405374 0.36887738 -0.10464392 0.05341668 0.5926998 -0.082906544 -0.0893569 -0.5789111 -0.2017796 -0.35403952 0.34468985 0.17650715 -0.2618363 -0.28579584 0.2371577 -0.25662068 -0.13856983 0.2162667 0.067177445 0.097475424 0.6812535 -0.37065244 1.0039326 -0.03498285 0.2850745 -0.16850634 0.18558869 -0.22785135 0.22447321 -0.511992 0.34090656 0.21505713 -0.54487807 -0.1022997 -0.12044112 -0.33782572 0.2870059 -0.74097604 0.24439202 0.3711761 0.28865924 0.39106825 0.13826299 0.28543773 -0.81145453 -0.33712512 -0.19324741 -0.44413733 -0.34139746 0.23018008 0.15370171 -0.29972348 -0.16763946 -0.8435869 0.13650984 -0.080737956
some -0.119450875 -0.05305596 -0.32404795 -0.10286306 -0.18914558 -0.3856496 0.14677456 0.93312806 -0.13588724 0.017386759 -0.5147194 -0.39207885 -0.009218246 -0.32901233 0.21007551 -0.3363431 0.20101477 0.017307045 -0.1548516 -0.11559931 0.43380588 -0.533907 0.21972883 0.04190915 0.21585898 0.26975402 0.2908265 0.053222895 -0.25164837 -0.21286696 -0.4585505 -0.100754745 0.033351965 0.35909703 0.26325732 -0.054647096 -0.22440252 -0.568417 0.10285836 -0.009931504 -0.21111682 -0.3185801 -0.3456556 0.045212675 -0.60898334 0.47382304 0.071831405 -0.16516066 0.29809293 -0.17326294 -0.033918504 -0.44722176 -0.24037257 -0.23197255 0.3768835 0.17410335 0.2419945 0.38826498 0.0612174 0.077950306 -0.074004576 -0.022986073 0.10247181 -0.20773615 0.3338784 -0.12936372 0.7112563 0.2630843 -0.10992001 0.1560116 -0.1222455 -0.21283017 0.16033967 -0.064193666 -0.066320375 0.23660733 -0.14189732 -0.3252143 -0.17623805 0.15979268 0.51106286 -0.09487011 0.14790164 0.16296472 0.32671133 0.096221946 0.27059916 -0.13748138 0.11472474 -0.2675508 -0.350935 -0.08197015 -0.27373374 0.03516967 0.036865193 -0.07780877 -0.38969883 -0.12251072 -0.4118361 0.114146546
SubClassOf -0.19984709 0.113552675 -0.36149523 0.003938456 -0.39592803 -0.41983005 -0.0063722967 0.8686471 -0.9493438 0.51730716 -0.24834566 -0.87051284 0.0656909 -0.15510312 0.23130679 0.16006166 0.39303863 -0.2821003 0.20573938 -0.32033423 0.5863452 -0.1803466 0.14311032 0.22233993 -0.33077848 -0.05880118 0.35294 -0.13828234 0.12090798 -0.50375533 -0.6783257 0.41657543 0.2629699 0.23512745 0.74376214 -0.38380837 -0.1908614 -0.38610187 0.50176144 -0.20826514 -0.3573999 -0.44363993 -0.62224585 0.37473005 0.15634184 0.4654055 0.000114583156 0.22467358 0.7814482 0.12346411 -0.37822238 -0.4417699 -0.14694712 -0.49622062 0.3442336 -0.01903903 0.33486333 -0.004307187 -0.008033376 0.0022242744 -0.32344818 -0.054174494 -0.04886234 0.27371368 0.6809793 -0.22005671 0.7267833 0.19415782 -0.19194199 -0.28900138 0.198321 -0.18993077 -0.036272887 -0.44905308 0.35804018 0.28258225 -0.74999607 -0.14457913 -0.22898372 -0.26003942 -0.13368502 -0.41540596 0.07928265 0.048515517 -0.16939797 0.43246838 -0.18861263 0.13806012 -0.36605087 -0.37445632 -0.102700576 -0.5493127 -0.3836311 0.114531204 0.14996155 0.20308939 -0.2218852 -0.6379844 0.16854742 -0.4142969
tomato -0.4683117 -0.6093984 -0.121710256 0.38133824 0.07333739 -0.69163144 -0.025853682 0.59361297 0.2446181 0.2161795 -0.16231787 -0.14625393 -0.31686538 -0.43619043 0.1623556 -0.3157409 0.030545073 0.0048159007 -0.012219117 0.013787405 -0.003214606 -0.67312324 0.15820481 -0.26592684 0.04675044 0.38933745 0.2876058 0.082626216 -0.15863197 -0.35262838 -0.6166601 0.29464996 -0.010479686 0.349895 0.26916248 -0.12298325 -0.17509624 -0.47014832 0.1542389 0.13287814 -0.32602325 -0.2171476 -0.15479742 0.006826202 -0.1712664 -0.022501705 0.2406822 -0.2714613 0.19093725 -0.2951731 -0.23480883 -0.12610877 0.18779403 -0.21014005 -0.07459006 0.3788613 -0.0360501 0.43842468 -0.19135806 -0.0033569701 0.16183199 -0.23818581 0.06845623 -0.28446797 0.51014054 0.2875313 0.458591 0.26188746 -0.046612125 -0.029986126 0.25829363 -0.07159698 -0.14480823 0.28528482 0.06106002 0.12885346 0.032908145 -0.32340208 -0.2212343 -0.22978939 0.116603725 -0.25625482 0.010096533 0.06052845 0.24595976 0.10879154 0.18269539 -0.41142103 -0.11855263 -0.18333851 -0.18847586 -0.5091199 -0.5944065 0.12708084 0.3909583 -0.07660343 -0.8735337 0.05930166 -0.53370297 -0.14386569
base -0.7411485 -0.38998282 -0.1559439 0.52526224 0.12477043 -0.4304776 0.46794692 0.2630248 0.14441122 0.26012257 0.016705872 0.02369907 -0.11336285 -0.35070634 0.14668056 -0.032495007 -0.15556493 -0.22086848 0.49306658 -0.09579199 0.14698668 -0.3943347 -0.6050107 0.04799436 0.1714779 0.22071584 -0.1934392 0.44187805 0.092809685 -0.14453186 0.02060779 0.18294884 0.179848 0.16678306 -0.17303166 -0.005242205 -0.03169162 -0.010325986 -0.12354964 0.19987375 -0.28477794 -0.60713744 -0.06318551 0.4377795 -0.3000048 0.05071949 -0.2827926 -0.88050455 -0.48244995 -0.5089838 -0.78281057 0.040912583 0.105961025 -0.15835676 -0.19985184 0.34912622 -0.1546816 0.5084397 -0.29008314 0.13286795 0.15004747 -0.6036015 0.53222466 0.07375282 0.31305277 -0.106834844 0.32358435 0.14957434 0.09754343 -0.2463965 0.18467169 0.17092802 0.13385856 0.3110141 -0.11477007 0.094486274 -0.5099845 -0.30327716 0.0047604516 0.050705016 0.14824663 -0.59577906 -0.08835473 -0.16362144 0.32301408 -0.0065258774 0.3372903 -0.46785542 -0.87675494 0.31711286 -0.42518097 -0.29689112 -0.33432359 -0.0880727 0.094904795 0.09520854 -1.1509585 -0.4540305 -0.3929678 0.5207106
mozzarella -0.4150735 -0.6637073 -0.13644037 0.2939905 0.1305355 -0.7113819 0.081322566 0.64244103 0.16976148 0.2225859 -0.14573477 -0.15616865 -0.29467404 -0.48403814 0.115325704 -0.3306411 -0.09203516 0.0051544663 -0.017293569 0.013073553 0.02720404 -0.72919756 0.23501205 -0.2947007 0.026735088 0.45323274 0.32486778 0.112880826 -0.111429475 -0.3045056 -0.6592521 0.24096371 -0.015692154 0.546736 0.14209583 -0.04863552 -0.08683883 -0.44553903 0.14925124 0.2314764 -0.28909093 -0.31160343 -0.20723318 0.048301592 -0.2529011 -0.0038458053 0.34486133 -0.3625985 0.26332736 -0.20894372 -0.34741083 -0.16736683 0.19304739 -0.18732189 -0.08261807 0.46386364 0.09054206 0.5356471 -0.23553325 0.04555557 0.09205456 -0.275837 0.09812972 -0.31865856 0.53700036 0.38192427 0.5020019 0.31848285 -0.12199704 -0.043611612 0.19010682 -0.25765368 -0.23892622 0.29670087 0.13159418 0.13964961 0.046666272 -0.4608188 -0.23060074 -0.21663292 0.2756622 -0.33513048 0.04001619 0.03535243 0.29365835 0.18748629 0.18371835 -0.5373585 -0.2276878 -0.15197527 -0.21801707 -0.6004541 -0.69615847 0.0074254964 0.33374235 -0.1060538 -0.7890681 0.06998191 -0.5002727 -0.17006099
http://link477.com/ds/pizza#tomato -0.28244263 0.026866544 -0.3862908 -0.0074604196 -0.20500144 -0.08952214 0.06773106 0.9466066 -0.7585189 0.5409169 -0.39541435 -0.8593969 -0.0015560699 -0.076099634 0.2059133 0.14278583 0.5325529 -0.34456575 0.073285885 -0.17960806 0.24182618 -0.21332736 0.17385241 -0.007986038 -0.16263467 -0.15620501 0.25230995 -0.2608443 -0.025895216 -0.6778187 -0.77550715 0.33277124 0.26370686 0.37436834 0.71109354 -0.071715 -0.39584988 -0.35617545 0.32690513 -0.0906661 -0.19885495 -0.41778797 -0.34634244 0.20214346 -0.2704022 0.56230474 -0.09574013 0.095772035 0.6776579 -0.05846482 -0.107446395 -0.5375714 -0.20058918 -0.45457274 0.24235862 0.10451768 -0.094431244 -0.027896864 0.15605928 -0.11368789 -0.07803711 0.1600343 -0.104020335 0.1369713 0.43126348 -0.20699023 0.8839165 -0.01681259 -0.18132916 -0.21758814 0.09892311 -0.3040909 0.07569033 -0.43334848 0.3638118 0.16427314 -0.6028355 -0.2457036 -0.16466859 -0.3217421 0.063782826 -0.5237323 0.11458709 0.25180927 0.04631739 0.45317414 0.09580868 0.15663382 -0.46278122 -0.34786353 -0.23454587 -0.46259052 -0.19931634 0.23805445 0.19661324 -0.1665359 -0.112923644 -0.6252994 0.02109222 -0.20928532
cheese -0.34117877 -0.17284541 0.27207893 -0.11939839 0.40228257 -0.61321974 0.28284517 0.2790692 0.022851335 0.06609922 0.031428676 0.08819672 0.16432363 -0.26602364 -0.013509505 0.12493621 -0.24372117 -0.47742912 0.16234444 0.35297778 -0.13886873 -0.4850243 -0.013815091 -0.42323688 0.13372426 -0.20379749 0.16381991 0.1546472 0.18160129 0.047362655 0.13663286 0.21554983 0.25911787 0.17881711 0.44852552 -0.12230333 0.00019863441 -0.51360667 0.25140166 0.3824195 -0.4690918 -0.4049005 -0.04476493 0.2531272 -0.41360283 -0.42473763 -0.012343402 -0.33367616 -0.005835772 -0.34108713 -0.18059339 -0.34035692 0.49188656 0.08377931 -0.23207754 0.2506763 0.005176942 0.51251775 -0.092974946 -0.16264388 -0.39195374 -0.06338939 0.3463962 -0.28183705 0.455084 0.29745293 0.2464677 -0.08593751 -0.015652679 0.011282997 0.5650268 -0.185993 0.07202638 0.06391652 -0.153561 -0.008515204 0.09933719 -0.08271343 0.35108846 -0.4054018 0.20056123 -0.9587745 0.028481832 0.29047027 0.7949844 0.2116704 0.14589211 -0.26280433 -0.7344771 0.16704255 -0.46523762 -0.6299641 -0.8293401 0.28437424 0.22875641 -0.085747324 -0.53356105 -0.5419356 0.22420083 0.33606687
http://link477.com/ds/pizza#mozzarella -0.2691472 0.049128845 -0.3761351 -0.021415323 -0.21466425 -0.0766265 0.03136815 0.96222514 -0.75161636 0.5315199 -0.4119468 -0.8298671 0.0076143676 -0.07086354 0.22285742 0.16059336 0.53423977 -0.35002723 0.06944985 -0.17450151 0.25969386 -0.22968395 0.16733034 -0.012239089 -0.15312211 -0.17178008 0.2166426 -0.25353453 -0.042294037 -0.6970497 -0.7861951 0.3353003 0.2772513 0.37182897 0.7204429 -0.0765409 -0.39564785 -0.3446433 0.30988187 -0.11217013 -0.19548418 -0.43138528 -0.36120638 0.18588133 -0.29445988 0.5567712 -0.10122577 0.102567 0.6707018 -0.051833335 -0.10646578 -0.541539 -0.21952796 -0.4505229 0.25476748 0.111208424 -0.054749954 -0.046985924 0.15551572 -0.13358885 -0.06761507 0.16180934 -0.08684136 0.14924125 0.45480603 -0.22149879 0.89930874 -0.015022306 -0.1377275 -0.23622888 0.09410641 -0.29269692 0.08661268 -0.42720026 0.35118234 0.16443004 -0.591073 -0.21951967 -0.18169762 -0.31285098 0.07581004 -0.51124775 0.12906516 0.24923827 0.055125583 0.44053707 0.0987917 0.17410284 -0.46630523 -0.34781095 -0.25332338 -0.45118615 -0.21802294 0.23022656 0.18484503 -0.14932692 -0.12049055 -0.6151426 0.029399935 -0.20054738
chicken -0.511253 -0.92839974 -0.13755226 0.42173558 -0.123565264 -1.2034478 0.4936403 0.41995582 0.39089802 0.32783768 0.4633361 0.1438842 -0.19457504 -0.6388649 -0.19205685 -0.5676826 0.1335687 -0.12645207 0.16004294 -0.008552712 0.25526467 -1.2190614 0.2176455 -0.1481756 0.0120905535 0.50715506 0.09610186 0.010419605 0.042742923 -0.45200944 -0.14923976 0.09253722 0.074951455 0.41973114 0.8044736 0.013593963 0.27280843 -0.26819003 0.48627618 0.48893988 -0.61549205 -0.29158372 -0.3015021 0.042446993 -0.26139134 0.034957293 0.4988711 -0.26501095 0.41950595 -0.5603187 -0.18784058 -0.3417997 0.5691831 0.13248035 -0.4071634 0.56511045 -0.20926252 0.6505132 -0.31653133 0.24361132 -0.13946232 -0.6268997 0.16828339 -0.42053053 0.5282404 -0.005957052 0.42465958 0.36799762 0.020739123 0.004923275 0.48628744 -0.3212262 -0.1379926 0.08867936 -0.24351363 0.05853331 0.07861545 -0.44977966 -0.027628671 -0.06640575 0.10820681 -0.4415874 0.19922777 -0.27493015 0.69177127 -0.28091863 0.43035644 -0.7407535 -0.8719193 -0.17986448 -0.058362212 -0.7151595 -1.0356019 0.078651235 0.29873675 -0.3544856 -1.0867115 -0.30813217 -0.194498 -0.25955364
http://link477.com/ds/pizza#cheese -0.22987154 0.17607969 -0.11456012 -0.02960962 -0.12658152 0.10311668 -0.2057415 0.54543906 -0.42258942 0.24548768 -0.19602184 -0.18816061 0.055366963 0.035821743 0.16984895 0.3047475 0.22856237 -0.4440458 0.19541922 0.033621304 0.22833607 -0.29270613 -0.15801905 -0.040212777 0.018807922 -0.37485555 -0.14465871 -0.06905645 -0.11576967 -0.6512884 -0.4088732 0.39103577 0.25875452 0.15490556 0.5435883 -0.084641755 -0.19972523 -0.06813581 0.109300755 -0.086250156 -0.09508192 -0.42623886 -0.13560602 0.2089025 -0.34326556 0.1401414 -0.13608237 -0.10883495 0.32248172 -0.018696807 -0.03400394 -0.3213861 -0.14367577 -0.33308876 0.13658616 0.17686096 0.08475391 -0.13240218 0.11732673 -0.2310805 0.04026693 0.04588427 0.114732444 0.12895927 0.5015491 -0.25433072 0.56162316 -0.13204847 0.3189647 -0.37875313 0.24616115 -0.042107876 0.1805942 -0.21762137 0.013625017 0.106886275 -0.24733122 0.082442336 -0.08584553 -0.3395298 0.029418377 -0.43989828 0.22374135 0.22572155 0.23268127 0.20555449 0.0010558316 0.21669655 -0.69649297 -0.14330089 -0.2959818 -0.37033868 -0.41429937 0.28291985 0.09317909 -0.1255241 -0.2889989 -0.60956645 0.17732358 0.015438225
meat -0.354041 -0.3044583 -0.2663429 0.13885157 0.052597664 -0.6240233 0.2417127 -0.09266071 0.22593737 -0.05358508 0.04272456 0.054688383 -0.2033584 -0.3910944 0.022954075 -0.20505477 0.16790044 -0.0943111 0.12030185 0.105486475 -0.0786014 -0.5079973 -0.2094878 -0.33354586 0.2558627 0.26303887 0.29505226 0.05805565 -0.079255246 -0.18089254 0.046876762 0.32464063 -0.053138707 0.5576182 0.3376702 0.17638859 0.03871217 -0.54364586 -0.028755637 0.15946335 -0.1432438 -0.51808566 0.047591396 0.20549634 -0.21869907 -0.28683755 -0.008629326 -0.34625056 0.18571846 -0.6041374 -0.3196587 -0.2765314 0.30404598 -0.5078343 -0.36615267 0.5960166 0.0010318321 0.5984363 -0.41004753 0.079564676 -0.013701706 -0.3336123 0.30110866 -0.11884881 0.6020196 0.2037717 0.18120219 0.005296245 -0.3746219 -0.23030482 0.33558285 0.059445474 -0.5285582 0.36588264 -0.14932102 0.17572977 0.15887842 -0.21637738 0.3043176 -0.3872088 0.3866233 -0.7014354 -0.39640242 0.30115938 0.6880798 0.28979814 0.17881778 -0.17632274 -0.5912685 0.11846853 -0.42669493 -0.22508927 -0.8586484 0.0400014 0.25221056 -0.35462147 -1.1799212 -0.13444734 -0.37823194 -0.042625256
is -0.27063414 -0.115137525 -0.31647947 0.21280617 0.091427244 -0.35419524 0.18821172 -0.25864276 0.26644862 0.10238098 0.022817545 0.2854735 -0.002300659 -0.2731578 0.05219877 -0.23699664 0.20222087 0.008545549 0.051405758 -0.06623057 -0.03899643 -0.12928078 -0.6409155 -0.1183372 0.2199985 0.37809756 0.20478942 0.41048124 0.15894918 -0.6307898 -0.046354137 0.11235366 0.2343454 0.3134359 0.13281718 -0.039360147 0.14556724 -0.15221111 0.22152682 0.2915808 -0.19236918 -0.2835689 0.20035508 0.32299662 -0.052043363 -0.14698184 -0.29702196 -0.13670638 0.011779843 -0.5740418 -0.12639154 0.21994965 0.2976735 -0.44527924 -0.21461709 0.3973007 -0.013099343 0.6782955 -0.27990493 0.195653 0.11643122 -0.39151016 0.15993753 0.03870671 0.28373808 0.18595347 0.5772425 -0.07537655 -0.13200837 -0.7311545 0.18196145 0.18557803 0.10563 0.5913041 -0.13553646 0.22783862 -0.13082653 -0.3507152 0.009821839 -0.24361213 0.026204843 -0.122955106 -0.2293223 -0.056492694 0.5345259 -0.21710365 0.31930315 -0.12479295 -0.8006524 -0.30304244 -0.48607066 -0.20506524 -0.4919847 0.0054209623 0.15279868 -0.03130532 -1.315879 -0.20400399 -0.46889058 0.2494744
pepper -0.28006002 -0.61192226 -0.535013 0.41523162 0.23737043 -0.43128046 0.000111643254 0.12305861 0.30494374 -0.020242874 0.14281686 0.25131622 -0.6160742 -0.3357156 0.050489195 -0.1294467 -0.11135371 0.115025945 0.03136971 -0.045568462 0.24672537 -0.5249547 -0.47956625 -0.18393359 0.28915936 0.46201763 0.0091352435 -0.24663499 0.24508804 -0.5657178 -0.21648502 0.071876764 0.3997548 0.6296927 0.6197695 0.07503511 0.3584446 -0.31910276 0.006364923 -0.3980911 -0.3421075 -1.1363723 -0.022649132 0.19911161 -0.0018692336 0.3604678 -0.0058152126 -0.3189506 0.51364636 -0.41024604 -0.24436364 0.002932698 0.055849105 -0.86549306 -0.60414165 0.8091134 0.5209306 0.39925495 -0.19806993 -0.05358319 0.04399863 -0.23553263 0.33203843 -0.0022578302 0.5935493 0.29574883 0.8491699 0.31989965 -0.16972804 -0.7441307 -0.36017308 -0.56687194 -0.434949 -0.0007828943 -0.040179104 0.38708895 0.0704192 -0.70958066 -0.1498867 -0.0020758412 0.08852133 -0.17315193 -0.61437947 -0.21453018 0.12208844 0.40915367 0.32778874 0.01723152 -0.5805042 -0.08421815 -0.51473284 -0.22722307 -0.9580455 0.16745235 0.21369565 -0.14800659 -0.6374097 0.30908698 -0.42720646 0.040733997
http://link477.com/ds/pizza#hasBase -0.19829607 0.32273334 -0.15257387 -0.0017125582 -0.21646823 -0.12365145 -0.3160103 0.74495155 -0.73006856 0.3103121 -0.1114467 -0.22668052 0.06691959 -0.037623156 0.13284737 0.4938642 0.26294556 -0.4846664 0.2820471 0.040545665 0.38717318 -0.2907836 -0.28067556 -0.06825067 -0.26636758 -0.46947074 -0.0005129779 -0.03161422 -0.15388694 -0.85695744 -0.41210988 0.5616768 0.35644802 0.15126766 0.7890012 -0.2816902 -0.11855385 -0.17332186 0.22480492 -0.221165 -0.09485488 -0.33753592 -0.44574428 0.20696728 -0.14182976 0.0856532 -0.2958684 0.13775998 0.38182852 0.023577048 -0.2758378 -0.49482012 -0.1189214 -0.32219127 0.20466976 0.08242783 0.2697699 -0.19178456 -0.101872735 -0.29668802 -0.2180438 0.0625732 0.32262972 0.26620412 0.6805375 -0.35769692 0.49096996 0.011578522 0.45900545 -0.45502734 0.4725763 -0.004729706 0.15803352 -0.36320776 0.08575807 0.120850585 -0.5537799 0.13334164 -0.1386065 -0.2679842 0.10598475 -0.46523634 0.18140404 0.17359956 0.018121049 0.26887915 -0.1711381 0.35918605 -0.8110732 -0.24597673 -0.24430108 -0.27523106 -0.38262886 0.29667008 0.02815232 0.006377928 -0.22601338 -0.7213814 0.25151628 -0.21727024
hot -0.83265024 -0.41208953 -0.64048 0.31258738 0.25055817 -0.22168025 -0.22125493 0.28105244 0.31028762 -0.3452376 -0.2896808 -0.15510878 -0.42254546 -0.10966644 -0.03446208 0.13107882 0.08947163 -0.25200388 -0.04819826 0.27154037 -0.24510437 -0.4512503 -0.07898877 -0.5861731 0.2817719 0.43244234 0.03196396 -0.0983793 -0.017595174 -0.64073443 -0.016778758 0.5404427 -0.21399309 0.8723646 0.5520705 0.25297707 -0.120315686 -0.8156361 -0.2150041 -0.035280608 0.044971194 -0.92532754 -0.081700414 0.2118654 0.0032010903 -0.03223987 -0.024236524 -0.2279111 0.4000696 -0.5737228 -0.28824332 -0.25006816 0.23690853 -0.6876486 -0.5676771 0.9010975 0.46419397 0.7568554 -0.5659327 0.21690542 0.01356132 -0.082216375 0.19098386 -0.22999676 0.7527626 0.27750623 0.45325926 -0.026775042 -0.39490947 -0.52844507 -0.23884904 -0.15076892 -0.6613106 0.31502968 -0.46068949 0.2158064 -0.013202643 -0.82553846 -0.29234755 -0.49514893 0.3044321 -0.5191245 -0.7777608 0.31249446 0.7948798 0.4108232 0.092431776 0.057421807 -0.5646584 0.20107569 -0.45966402 -0.5399582 -0.7921496 -0.16566813 0.0054394817 -0.0023696462 -1.0535004 0.47029713 -0.7195866 0.016388359
sauce -0.2591923 -0.5226364 -0.35917526 0.38379148 0.035991516 -0.7696142 0.09076115 0.15272152 0.42096403 0.10870011 0.044061985 0.069341436 -0.34371865 -0.13849777 0.23989083 -0.19442979 0.37454256 -0.12916365 -0.061307147 -0.13623355 0.5097662 -0.7190931 -0.59488666 -0.1574838 -0.20112327 0.5768519 -0.2769303 0.32246494 0.10395885 -0.69803524 -0.57026964 -0.05248186 0.1628166 0.4379368 0.42290518 -0.042405374 0.53973186 -0.5267152 0.030303553 -0.10749561 -0.61625344 -0.5275932 0.057486787 0.20989907 -0.31177276 -0.07036934 0.087059475 -0.024290457 0.38392732 -0.6420578 -0.4340714 -0.087976396 0.6443109 0.062139533 -0.6589204 0.50170636 -0.01111248 0.2429797 -0.2917851 0.15775035 0.108225934 -0.25238892 0.03774868 -0.08242057 0.71928924 0.39011315 0.8788047 0.40340242 -0.012360979 -0.08757775 0.22101052 -0.21710402 -0.36269197 0.15525019 0.08657641 0.014563399 0.3124303 -0.48052517 0.09722404 -0.107597455 -0.033043664 -0.33292773 -0.34221143 -0.2856888 0.6489402 -0.16958317 0.19024163 -0.3833085 -0.79191524 -0.25291225 0.04018189 -0.45493507 -0.8518559 -0.17783055 0.020418124 -0.13469101 -1.0694642 -0.06554324 -0.51542234 -0.025723988
fiorentina -0.81373715 -0.55764973 0.06527942 0.08959341 0.004309332 -0.6851227 0.18377244 0.8753361 -0.12788376 0.46648738 -0.051063847 0.14466251 -0.053128425 -0.5263261 -0.14414816 -0.18397324 -0.20756836 -0.17780334 0.1378417 0.09201325 -0.14331017 -0.8719715 -0.015838483 -0.2404046 -0.023337001 0.36758766 0.55983204 0.17177908 0.18106787 -0.5334765 -0.60865355 0.20766793 -0.19236788 0.5740594 0.00036038525 -0.4037279 -0.14646462 -0.25330418 0.13954754 0.6646515 -0.076505564 -0.5288701 -0.3400591 0.13121365 -0.5872349 -0.3013275 0.12360377 -0.71096295 0.024051845 -0.2953659 -0.29050368 -0.14113814 0.356698 0.08726575 0.16335303 0.7584883 0.19103235 0.9910409 -0.19756594 0.2920228 -0.13186467 -0.48061743 0.16424806 -0.6132358 0.6923862 0.39524272 0.1727272 0.072526366 -0.38672644 -0.14971484 0.335934 -0.12036531 0.13793606 0.32592133 -0.19581641 0.1563224 0.073597774 -0.5430544 -0.1664435 -0.39317006 0.30393156 -0.5394544 0.31836274 -0.049725335 0.39071235 0.3017085 0.36269423 -0.92703325 -0.095788226 -0.35528892 -0.24320437 -0.55578226 -0.4420635 0.0022870419 0.33791882 0.12074681 -0.67207026 -0.087419264 -0.5089541 -0.075336754
http://link477.com/ds/pizza#meat -0.28897262 0.22025739 -0.22319703 -0.1163535 -0.2238834 0.10924063 -0.16424881 0.6175027 -0.50428987 0.36932442 -0.2455619 -0.33038652 0.12018698 0.013989862 0.2165315 0.25114465 0.28013787 -0.47027457 0.21509522 0.0071276864 0.23695886 -0.26846552 -0.07845826 0.007851285 -0.032230638 -0.3432114 -0.03833462 -0.12075935 -0.08946503 -0.7853089 -0.552181 0.40160957 0.30758718 0.17627163 0.5934377 -0.11632111 -0.27186248 -0.1353188 0.22333479 -0.09676216 -0.18549089 -0.5324035 -0.1970974 0.24476583 -0.33645278 0.29823324 -0.25530064 -0.026212819 0.39276186 -0.021268995 0.0063756136 -0.33740178 -0.22269236 -0.43543553 0.2346168 0.15746085 0.105665885 -0.091111474 0.078835756 -0.17442992 0.110874765 0.025766179 0.10123884 0.11908907 0.5128471 -0.32454398 0.619632 -0.17929238 0.18562306 -0.41871455 0.22633773 -0.023508502 0.17316714 -0.24562116 0.0845504 0.083499625 -0.33422002 0.04417973 -0.14861463 -0.34397027 -0.020784233 -0.41995376 0.23780175 0.2646542 0.19097961 0.26816383 0.031037275 0.23383568 -0.7215873 -0.23458493 -0.35315707 -0.34358016 -0.37452933 0.32841033 0.10667508 -0.060694642 -0.23120469 -0.6454138 0.22221348 -0.009277957
bacon -0.06850948 -0.47485647 -0.021586495 0.43044364 0.08330079 -0.99997216 0.16500972 0.16033863 0.14070646 0.36868384 -0.30493015 0.06410429 -0.11330052 -0.37091622 0.43785793 -0.281529 -0.11461681 -0.3711036 -0.0052992003 0.3723734 0.0026234784 -0.72310925 -0.11402169 0.09012489 -0.26366788 0.3500087 0.41834787 0.18806191 -0.0023175762 -0.07599839 -0.52867585 0.5085057 0.16303842 0.5953074 0.41702762 -0.05537705 0.23074448 -0.5500385 0.27493602 0.33866072 -0.34424666 -0.31242126 0.0012186676 0.5823616 -0.29984862 -0.2948961 0.13473485 -0.28200558 0.34960887 -0.64300585 -0.6007926 -0.4733596 0.46905553 -0.4278774 -0.47904238 0.7128218 0.06359691 0.28461748 -0.24602847 -0.15509282 0.33182275 -0.2287251 0.38404468 -0.32439983 0.62680554 0.5936996 0.46597564 0.44570047 -0.016656091 -0.1586017 0.38136405 -0.26128915 -0.28704545 0.29445094 0.01030201 -0.19272424 0.28591266 -0.5253451 0.51657695 -0.27986878 -0.08340637 -0.6885472 0.019134441 0.5662278 0.21955143 0.26751968 0.320967 -0.78671217 -0.18860511 0.072751224 0.07322011 -0.5572284 -0.84171295 0.2561734 0.35244778 -0.25681043 -1.1275826 -0.28890935 -0.24765907 0.29352012
garlic -0.55910283 -0.6917088 -0.28261545 0.18464884 -0.12455221 -0.7017168 0.07942855 0.608308 0.20159526 0.3834599 0.043260843 -0.0069382656 -0.16954616 -0.5272809 0.10153562 -0.23109569 0.21499082 0.13565736 0.16924942 -0.03748164 0.0032954935 -0.78237027 -0.12545061 -0.253281 0.10292108 0.42293793 0.25260183 0.081266336 0.23009466 -0.25479165 -0.5902789 0.16254868 -0.030796858 0.20242205 0.35200918 -0.32384345 0.06665707 -0.29354176 0.13733722 0.2979854 -0.14613847 -0.58736557 -0.053068336 -0.054816402 -0.15796171 -0.14067398 0.10943744 -0.45717046 0.04095315 -0.60628504 -0.097344875 -0.06594892 0.15468168 -0.10645124 0.10261243 0.6532836 0.019114818 0.7911541 -0.073517926 0.14103769 -0.05255117 -0.5730547 0.12163828 -0.6077124 0.60255986 0.06720942 0.42216653 0.25561386 -0.18385133 -0.08827658 0.28938004 -0.011492498 0.04830245 0.064843245 -0.21399604 0.17017953 -0.042493604 -0.41079926 0.080892965 -0.20689481 -0.06900172 -0.22193387 0.18542701 -0.2723916 0.31707287 0.07602056 0.027874216 -0.6732242 -0.1871854 -0.32945585 -0.11806008 -0.3233829 -0.4833616 0.14373048 0.33618242 0.07182195 -0.8436481 -0.19877318 -0.62970346 -0.23715891
quattro -0.7728092 -0.59503466 -0.21491982 0.7207787 0.23952611 -0.77420676 -0.05696726 0.5267388 0.45444965 0.02804892 -0.35233346 -0.116015226 -0.4057066 -0.92431766 -0.112596914 0.061127044 -0.43934786 -0.003319094 0.5512509 0.10232026 -0.10986933 -0.62771225 0.2328823 0.11939383 0.27759114 0.42982796 0.19549659 -0.23708414 0.28604707 -0.13268903 -0.4327043 0.49806887 0.15846325 -0.09043185 0.5656706 -0.09431636 -0.53355634 -0.1517971 0.42728612 0.12833641 -0.5023334 -0.14888485 -0.22221117 0.29096583 -0.72023 -0.30271998 0.1638184 -0.5483382 0.16693985 -0.50375384 -0.11576787 0.10766141 0.5650197 -0.040964685 -0.010961655 0.21844144 -0.27677962 0.4165928 0.15054387 0.23489761 0.0061283065 0.21973939 0.62266934 -0.18835695 0.7064482 0.3187151 0.27360123 -0.28347233 -0.13710782 -0.37933925 0.27322498 0.19715399 0.03239771 0.5974555 -0.4764341 0.47129524 -0.30210802 -0.40845746 -0.35610273 -0.54731065 0.1559129 -0.40046865 0.3723758 -0.043571573 0.7660187 0.43718547 -0.07042243 -0.50343806 0.16871162 0.28121507 -0.37033448 -0.54655695 -0.3913322 0.59198123 0.39745653 -0.20450366 -1.0300395 -0.11925004 0.07931037 0.4426391
american -0.556427 -0.53015125 -0.467439 0.3025963 0.2964133 -0.54281265 0.21628046 0.022745406 0.23167822 -0.08645116 -0.062121816 0.03152198 -0.5684098 -0.34364983 0.010310476 0.074536294 0.12603903 0.14205165 0.14480942 -0.024316352 0.11405648 -0.48650762 -0.5619403 -0.29209298 0.2519389 0.31290984 0.3546405 -0.2101051 -0.105731815 -0.27623415 -0.090287775 0.19098195 0.25371912 0.536534 0.4253688 0.06105712 0.09006698 -0.48767918 0.035461146 -0.15432023 -0.1783171 -0.8682472 -0.008224822 0.29341343 -0.28937528 -0.08489486 -0.21220021 -0.32942626 0.20142265 -0.4674898 -0.27219096 -0.03428614 0.09617711 -0.7820776 -0.39963183 0.77677906 0.14194606 0.5433315 -0.25468677 0.13272034 -0.006041862 -0.27589408 0.41034248 0.09301845 0.6837262 0.49056426 0.32715073 0.037640803 -0.4802348 -0.37902564 -0.15396766 -0.00036951993 -0.5054351 0.38067725 -0.27484348 0.36459836 0.12446724 -0.4521906 -0.10959131 -0.21690784 0.29088676 -0.42552102 -0.52158016 0.022307148 0.5754344 0.36595488 0.36585715 -0.0391066 -0.47987005 -0.12743673 -0.5578802 -0.25021845 -0.92292 0.23844668 0.20447174 -0.23649946 -0.9805103 0.20423853 -0.57419074 0.045185953
http://link477.com/ds/pizza#isToppingOf -0.1404707 0.10822138 0.0047909957 -0.07445218 -0.17602147 -0.059961166 -0.24500133 0.21362245 -0.40742004 0.24856254 0.024400668 -0.17252833 0.1496975 0.021753421 0.16904072 0.39815208 0.121895865 -0.36496457 0.24206708 -0.01034093 0.16153371 -0.057622783 -0.24193002 -0.0114447 -0.1000214 -0.3384324 -0.07642811 0.031253897 -0.011624901 -0.6412721 -0.21677952 0.51364625 0.25188145 -0.012783753 0.59338224 -0.20036188 -0.016742257 0.12798794 0.19941731 -0.12525156 -0.17751935 -0.48188156 -0.28520462 0.33144704 0.054553896 0.021699568 -0.19298942 -0.064887576 0.39449763 0.026530495 -0.1303119 -0.331059 -0.116985016 -0.27239865 0.004382731 0.032585043 0.27527457 -0.10099794 0.06155016 -0.23525818 0.015812812 -0.113137774 0.18510243 0.24024491 0.60820204 -0.24757463 0.3919114 -0.032589033 0.2340887 -0.5487765 0.40910378 0.027014554 0.06630767 -0.27929136 0.102941774 0.10511567 -0.37667167 0.2281906 -0.16572607 -0.4333182 -0.15843059 -0.4594343 0.099992566 0.11280923 0.045749936 0.3042013 -0.17964296 0.22897054 -0.83812344 -0.13011406 -0.4001014 -0.38703218 -0.57378715 0.33727205 0.056241482 0.040160015 -0.4866291 -0.66928965 0.33217913 -0.18871371
http://link477.com/ds/pizza#pizzaBase -0.23403119 0.16330934 -0.10027534 0.08190616 -0.05969035 0.09499832 -0.3135111 0.44360235 -0.3535764 0.25257674 -0.10205262 0.11819015 0.030510966 0.009489913 0.09170347 0.34062746 0.27902916 -0.4847344 0.24006896 0.21439745 0.055183254 -0.34148857 -0.352242 -0.14546454 -0.07312055 -0.40137777 -0.19554132 -0.08635654 -0.15474723 -0.85819834 -0.3823825 0.5005325 0.23033854 0.15192206 0.60488254 -0.020414967 -0.15964432 -0.05968253 0.11016643 -0.06927889 0.000511237 -0.32683948 -0.13432215 0.095307946 -0.28176033 -0.008850281 -0.30961254 -0.068122074 0.2480113 -0.12168282 0.011618919 -0.34645677 -0.07823398 -0.3195729 0.047498833 0.2386152 0.047327466 -0.12741667 -0.024847146 -0.28794408 0.08268609 0.061255373 0.29622677 0.09338145 0.49070564 -0.22186983 0.38025618 -0.19432838 0.44549656 -0.50023055 0.36067936 0.0633815 0.15467088 -0.076383725 -0.003918518 -0.01795931 -0.18683529 0.12199572 -0.17321837 -0.3454833 0.10830998 -0.43243355 0.24301343 0.23570533 0.145295 0.25685292 -0.01683398 0.31651467 -0.87020284 -0.119937435 -0.29708183 -0.3414364 -0.4266486 0.3072247 0.06015528 -0.049277954 -0.3421158 -0.628678 0.1573236 -0.052833
type -0.5396335 -0.22528 -0.0041297846 0.28028098 0.15064025 -0.3684797 0.2997339 0.13326071 -0.002683162 0.119734906 0.14625078 0.19260998 -0.048652615 -0.40403864 -0.0022631548 0.16125354 -0.25547943 -0.25403446 0.39864647 0.10728582 0.09744467 -0.42486367 -0.58859706 -0.07081718 0.055743806 0.0029274083 -0.17349075 0.32187754 0.22747321 -0.039630227 0.22004071 0.21958525 0.18822092 0.25918832 0.22178897 -0.008908914 0.1789555 -0.017168913 -0.08589417 0.24613062 -0.2834054 -0.55656433 -0.03973665 0.4036123 -0.41418234 -0.09792685 -0.19431205 -0.73859555 -0.16232584 -0.4716307 -0.48267585 -0.19034299 0.25591725 -0.0071702083 -0.37031254 0.4887065 0.051345427 0.50172955 -0.12928891 0.06911449 -0.002779783 -0.5063687 0.54526466 -0.094383106 0.49072012 -0.08666095 0.26439136 0.11901007 0.1744462 -0.1745655 0.20668739 -0.003918881 0.13689692 0.07845685 -0.34808418 0.10625342 -0.36676806 -0.3455298 0.093251176 -0.11366698 0.12688948 -0.6667726 -0.06725941 -0.0065902406 0.5110413 0.07642322 0.29725328 -0.48769155 -0.94609016 0.24232253 -0.33755618 -0.36996418 -0.4816178 0.058788545 -0.02572453 -0.06096199 -0.87823343 -0.4958671 -0.10686884 0.44548208
http://link477.com/ds/pizza#pizzaType -0.26719594 0.16666368 -0.09793892 -0.0044844016 -0.068805784 0.080218755 -0.22673677 0.44742072 -0.3136097 0.23815434 -0.09450532 0.008667028 0.042835772 -0.023442069 0.092360504 0.3468126 0.18901615 -0.4433226 0.24842827 0.114198126 0.06347916 -0.31483105 -0.2731424 -0.10420736 -0.029335769 -0.38742822 -0.16532554 -0.068970196 -0.13711965 -0.7800003 -0.32290187 0.43531454 0.25438312 0.14488263 0.5246443 -0.058326203 -0.21407525 -0.021807246 0.087578475 -0.067893595 -0.013577648 -0.35762388 -0.07872961 0.12997432 -0.31436232 0.05258488 -0.28852373 -0.07799996 0.17072546 -0.12217052 -0.052470714 -0.33739457 -0.1483015 -0.30176485 0.01261907 0.1757013 0.0603495 -0.08676096 -0.04396857 -0.29472172 0.052168958 0.061697643 0.25796098 0.091500014 0.434893 -0.27084562 0.41866088 -0.16920495 0.3769053 -0.46273145 0.38631445 0.013589183 0.2030033 -0.16601945 -0.014970251 0.009339415 -0.23049013 0.13158916 -0.07530148 -0.2814357 0.0710451 -0.38474193 0.20310722 0.15468302 0.1794759 0.19688693 0.025589526 0.23825446 -0.7821147 -0.13846023 -0.30483776 -0.24082692 -0.34187853 0.35281792 0.084067196 -0.12683918 -0.3215875 -0.55178154 0.15255089 0.018478006
menu -0.77848643 -0.043058407 -0.22240767 -0.10657643 0.27747056 -0.59472215 0.5606307 -0.026855068 0.19996162 0.36842743 -0.018288735 0.5482143 -0.12960319 -0.36279416 0.053771075 -0.116022356 0.38270274 -0.26110452 0.6645625 0.18494454 -0.30306536 -0.61168885 -0.9293276 0.033776045 0.32443413 0.24495235 -0.041365266 0.057239857 0.3667585 -0.8331847 -0.004674568 0.31232017 -0.011258552 0.2453574 0.024444727 -0.003272777 0.0036940358 -0.32170707 0.1845588 0.06911489 -0.02397153 -0.716363 0.23394279 0.55173403 -0.107657984 -0.3563717 -0.6072154 -0.5312277 -0.31766787 -0.9436883 -0.4385909 0.22504488 -0.05117192 -0.5551698 -0.008698144 0.7787295 -0.16942361 0.91059726 -0.46508047 0.17253569 0.1241528 -0.6839208 0.438201 -0.2657335 -0.027539821 -0.12529244 0.16625646 -0.3827605 -0.41891223 -0.80667055 0.68002737 0.24999446 -0.10007719 0.42664886 -0.08871697 0.44664955 -0.15029232 0.20551823 0.45120895 -0.15523985 -0.25528362 -0.15605327 -0.43945938 -0.21433449 0.47136256 -0.30202815 0.27380753 0.13749817 -1.181371 -0.14736564 -0.6570373 -0.21752252 -0.3264751 0.59560007 0.47855866 0.09792859 -1.0072277 -0.6148263 -0.27332819 0.4619303
bianca -0.66918147 -0.60449207 -0.12744813 0.06331855 0.17829119 -0.5731247 0.16885713 0.7676782 -0.10244448 0.43723255 -0.25148365 -0.11657036 -0.14644812 -0.53761923 -0.02022534 -0.16898549 -0.044840958 -0.10776382 0.26778147 0.11490843 -0.015009257 -0.7139975 0.112306796 -0.36426178 0.26921704 0.49376008 0.31737056 0.119245954 0.24483728 -0.30771217 -0.45629007 0.28735268 -0.012830616 0.52291995 -0.016042214 -0.08306938 -0.23099092 -0.45669433 -0.010262241 0.6279905 -0.012186979 -0.38617823 -0.36901376 0.068657 -0.7444754 -0.2717476 0.17875944 -0.56567985 0.03862057 -0.5490696 -0.2673545 -0.2046546 0.06199165 -0.16258122 0.21384147 0.5028649 0.16256356 0.9220921 0.009469755 0.057699256 -0.35344434 -0.51181763 0.41025215 -0.610246 0.39226377 0.32976162 0.13507448 0.09057027 -0.26838225 0.04160941 0.25364238 -0.10254244 -0.015299429 0.26660237 -0.203188 0.128808 0.021833394 -0.5680391 0.08425372 -0.30951014 0.31612837 -0.59957105 0.122095466 -0.110176034 0.38735154 0.33105245 0.1038583 -0.79281634 -0.2790544 -0.35651165 -0.05959513 -0.54451615 -0.7609572 0.0043334053 0.4779244 0.18880047 -0.7868876 -0.1968601 -0.61936724 -0.20671937
item -0.55368316 -0.025906041 -0.36602366 0.033910114 0.03138283 -0.889637 0.50793445 0.07790249 0.2745776 0.22438486 0.13753258 0.58242285 0.15932842 -0.4258202 -0.12447886 -0.06817649 0.28865603 -0.42617795 0.5659735 0.12558942 -0.14847632 -0.4578103 -0.913927 -0.14567627 0.23792967 0.39064878 0.100000754 0.15919411 0.35456687 -0.884694 0.03590519 0.31907806 0.16544138 0.34979877 0.06428001 -0.0589317 -0.34321272 -0.18960847 0.33682856 0.31206828 -0.23260899 -0.7260228 0.37290567 0.63771755 -0.03152654 -0.4476737 -0.39805222 -0.5112714 -0.26285654 -0.9655813 -0.34129918 0.17745756 -0.13861084 -0.47961673 -0.23388553 0.71364045 -0.1407466 0.7229229 -0.14444746 0.14054067 0.2692083 -0.89369595 0.4235167 -0.19992039 0.057073284 -0.17318778 -0.00803389 -0.35462287 -0.24817123 -0.931002 0.60931337 0.37824628 0.16478208 0.46342885 -0.28103837 0.38517758 -0.089868546 0.08182579 0.42386448 -0.36720705 -0.15986298 -0.23036607 -0.35483664 -0.37388375 0.69566834 -0.38571265 0.378144 0.09950166 -1.0825024 -0.34105882 -0.7214229 -0.029171027 -0.49401233 0.4129063 0.45799544 -0.06242069 -0.998068 -0.36398837 -0.14781581 0.43415597
pineapple -0.7473013 -0.32846808 -0.23014389 0.371393 0.16192737 -0.77995706 -0.25953174 0.49284327 -0.08551589 -0.017021738 -0.45486167 0.5524506 -0.77071524 -0.58078015 -0.08607029 0.04130358 -0.28555283 -0.038260728 -0.1562176 0.15127426 -2.348033e-05 -0.889704 -0.55265504 -0.23232642 0.026316237 0.41222608 -0.2785223 0.20541875 0.18814345 -0.5726862 -0.108234815 0.22738087 0.008551917 0.6982139 0.34294045 -0.052918963 0.02502114 -0.607298 0.055436347 -0.004460279 -0.25132757 -0.77603835 -0.09571476 0.5743817 -0.26842386 0.20322822 0.12353039 -0.6557265 0.48824686 -0.22218111 -0.261323 -0.43231082 -0.19742866 -0.6091316 -0.553497 0.7615098 0.6593434 0.56813455 -0.20838529 0.03442604 0.4679197 -0.16474411 0.281659 -0.10774779 0.55177647 0.33981428 0.72233045 0.40632433 -0.11867481 -0.583146 -0.3756322 -0.5148847 0.08093073 0.2353998 -0.2928019 0.2827423 -0.046811312 -0.57004863 -0.7390004 -0.06353749 0.040917467 -0.025806421 -0.52885365 0.044846933 0.19126092 0.2884116 0.5890923 -0.28549665 -0.62103933 -0.51810133 -0.38821644 -0.446448 -1.0326695 0.38663578 0.19875702 -0.02451136 -0.49310747 0.56830317 -0.4669333 0.3660415
bbq -0.16619326 -0.5077621 -0.25481603 0.21538438 -0.0041644666 -0.7249375 0.08563843 0.16137566 0.10024508 0.1899782 0.02826717 0.09156299 -0.25812808 -0.44467133 0.1975016 -0.40766498 0.15421636 0.023568427 0.07137954 -0.08487313 0.2192948 -0.67593706 -0.34004268 0.029080424 0.110403836 0.46898815 0.06764449 0.07010795 0.19851358 -0.4417612 -0.45652035 0.095373034 0.21982743 0.30918968 0.34871653 -0.0242024 0.24071531 -0.34492338 0.06584268 0.064666666 -0.3619102 -0.5798129 0.005416723 0.2580341 -0.377713 -0.03200178 0.037430502 -0.23500694 0.21496747 -0.6297213 -0.24143258 -0.049266286 0.28182295 -0.25855532 -0.23038974 0.6305252 0.16120481 0.42575336 -0.21833497 0.07830216 -0.0055009476 -0.29482841 0.31127113 -0.185845 0.4537414 0.3335993 0.64627516 0.24638878 -0.34313083 -0.29684636 0.12847601 -0.20494322 -0.12046252 0.16856371 0.12205515 0.087217145 0.043385055 -0.42160648 0.238088 -0.010570755 0.043058943 -0.22947831 -0.18474004 -0.11128602 0.30941787 0.070977315 0.15815467 -0.25385097 -0.3694675 -0.10115506 -0.17658448 -0.35781848 -0.47953296 0.048610203 0.22770035 -0.15352331 -0.92307615 -0.034585986 -0.43746492 0.040219564
http://link477.com/ds/pizza#menuItem -0.21306759 0.22205801 -0.11669445 0.020627236 -0.151674 0.04745354 -0.22387657 0.32366613 -0.31825396 0.20809065 -0.08232962 0.07787134 0.111643754 -0.011365947 0.14958669 0.3099697 0.21435721 -0.40283284 0.2995305 0.15322714 0.045242365 -0.25448647 -0.34808752 -0.12148771 -0.025534395 -0.25149456 -0.0913019 -0.0831878 -0.08966214 -0.71328974 -0.32290286 0.44171235 0.25701556 0.07009985 0.4748759 -0.084727004 -0.14649028 -0.05216761 0.19346598 -0.06868202 -0.08025075 -0.37222642 -0.15994416 0.13429938 -0.1543608 -0.020655802 -0.33597916 -0.030926077 0.2678114 -0.079742186 -0.011836394 -0.29066938 -0.10505614 -0.2703295 0.019219114 0.20207779 0.14780642 -0.07578507 0.009813256 -0.24921288 0.15412141 -0.07744758 0.26051882 0.09110335 0.4019371 -0.29051948 0.3473151 -0.1662428 0.336004 -0.4642663 0.26527664 0.08735608 0.11923233 -0.05784901 0.011934382 0.073262386 -0.28400943 0.14510624 -0.122517414 -0.3129926 -0.019688116 -0.3148474 0.13212873 0.18529186 0.1644197 0.20669882 0.0029720475 0.29763174 -0.86946994 -0.15210944 -0.34934568 -0.27851373 -0.51763225 0.3353659 0.008817828 0.087580815 -0.38731855 -0.59707516 0.1767179 -0.06868666
manchurian -0.39416057 -0.73544174 -0.14660645 0.0025850409 -0.15915667 -0.9677129 -0.026953062 0.27884474 -0.18204992 0.2543739 0.13955279 0.13420506 -0.47627276 -0.56578434 0.06717282 -0.53351325 0.36375502 0.17305098 -0.004662776 -0.26084656 0.25428292 -0.9029478 -0.23216803 0.17385466 0.14834169 0.6436002 0.10836453 0.0556281 0.34434262 -0.6688159 -0.853723 -0.006939104 0.32173786 0.20347199 0.4447114 -0.26874834 0.43513808 -0.30394748 -0.14309928 -0.05176335 -0.49177036 -0.83403087 -0.0023088919 0.19279556 -0.6352272 -0.09338065 0.032508824 -0.037463464 0.16100305 -0.714941 -0.13225865 0.05694292 0.30259976 0.14094219 0.013627634 0.8127853 0.38403183 0.42468962 -0.084899314 -0.100586295 -0.37836942 -0.23130225 0.23757373 -0.15200278 0.6648501 0.41332754 0.8051781 0.3588096 -0.42544717 -0.30280724 0.13536678 -0.29560986 -0.0051361914 -0.09262201 0.1712853 0.14631213 0.083090134 -0.5223406 0.4724719 0.13147616 0.038499188 -0.226162 -0.22999872 -0.04274875 0.6063412 -0.008325396 -0.089054145 -0.3931752 -0.40969855 -0.13632639 -0.015776806 -0.539297 -0.3651736 -0.14360471 0.015396618 -0.18400864 -0.94056916 -0.14059262 -0.6183246 -0.1726607
cajun -0.21014522 -0.6091109 -0.47682244 0.29653823 0.004207921 -0.4639657 0.16395478 0.3453748 0.30513743 0.07465098 0.18812464 0.01854723 -0.12089109 -0.47513482 0.004814692 -0.07985761 0.037614472 0.14041114 0.23717673 -0.08197415 0.063870355 -0.6817061 -0.14540695 -0.23249565 0.16547166 0.4024135 0.026800204 -0.19522461 0.298485 -0.34716213 -0.42596412 0.1286732 0.16409361 0.26850504 0.51737124 -0.11430064 0.17462437 -0.11128741 0.2424874 0.19559667 -0.22678806 -0.742409 0.09529722 0.058288854 0.019415423 0.04175791 0.036405325 -0.32300547 0.19601232 -0.46865696 -0.044438772 -0.031826053 0.050373346 -0.40865922 -0.17364584 0.6025959 0.25661427 0.6267448 -0.22132301 0.19429706 0.03323648 -0.43792582 0.24855654 -0.32531762 0.54401606 -0.011852461 0.5164787 0.22478098 -0.13490766 -0.44932118 0.0050605405 -0.17850594 -0.164674 0.034947287 -0.19840534 0.3373617 -0.061998863 -0.4109345 -0.09770734 -0.0851505 0.03442875 -0.027348172 0.03227257 -0.36341327 0.22541606 0.089077525 0.06800154 -0.31588623 -0.36990178 -0.081744485 -0.3274137 -0.3266748 -0.5405086 0.20318896 0.162924 -0.0041398476 -0.5980448 -0.09279467 -0.37797457 -0.063325875
onion -0.20833696 -0.6939145 -0.43492836 0.28338638 -0.008036915 -0.5550863 0.15524979 0.5328937 0.2828105 0.16365775 0.07570494 -0.1559094 -0.22664961 -0.44175526 0.13161744 -0.2447685 0.11281936 0.17026289 0.15847863 -0.109694175 0.12149781 -0.69333357 0.11423908 -0.26973832 0.082313426 0.5113261 0.21860668 -0.06398982 0.08412519 -0.3521363 -0.74667513 0.11543014 0.10798667 0.30611047 0.322281 -0.13681477 0.10394334 -0.21793455 0.1526937 0.22153792 -0.3119021 -0.58705044 0.023304334 0.029295703 -0.10108791 -0.01075135 0.1470836 -0.30711794 0.22830652 -0.41572288 -0.2592691 -0.03365913 0.18163873 -0.27036247 -0.056327697 0.57277423 0.12283894 0.5276412 -0.26538214 0.08586794 -0.004520851 -0.33755618 0.14255622 -0.30662307 0.63010556 0.22313078 0.5425405 0.35532123 -0.15135229 -0.22233783 0.11623599 -0.1932027 -0.29761723 0.071702026 0.09349798 0.27235386 0.042568587 -0.4180581 -0.050507534 -0.18079895 0.13432798 -0.20637183 0.098255746 -0.22715595 0.22692083 0.12781714 0.013549827 -0.4540987 -0.20097323 -0.03741893 -0.21482542 -0.43632793 -0.5357096 0.056425072 0.15953453 -0.06692553 -0.7137503 -0.028485848 -0.51402134 -0.22380747
olives -0.5510526 -0.5494593 -0.15894707 0.3426641 0.12431793 -0.625782 0.098359525 0.69246143 0.11153695 0.2713103 -0.23320512 -0.07511093 -0.20360744 -0.5932248 0.053491663 -0.29152724 -0.1189046 -0.013872924 0.17206588 0.015100238 -0.0032193365 -0.68916446 0.17116772 -0.22964235 0.16630617 0.45666653 0.31877175 0.08726184 -0.029593123 -0.47795615 -0.63824993 0.28397715 -0.010014177 0.2712416 0.042052742 -0.110191874 -0.33659163 -0.45730636 0.1317128 0.39902234 -0.26240325 -0.2272236 -0.16963114 0.046079464 -0.4591337 -0.17188305 0.15959325 -0.34217355 0.030178053 -0.35481834 -0.26208773 -0.028105812 0.13804626 -0.18647946 0.09846068 0.42528126 -0.013335668 0.68077123 -0.10747134 0.046275873 -0.05626371 -0.27932793 0.24804166 -0.2800314 0.40533954 0.36198986 0.27706698 0.114416786 -0.20955329 -0.10974065 0.31978184 0.040318713 0.019841248 0.47431272 -0.026012814 0.1828881 -0.010381931 -0.3005029 -0.15376203 -0.28144187 0.25081322 -0.364663 0.15130469 -0.010497668 0.3314825 0.17779694 0.17882831 -0.5597183 -0.029250666 -0.17091945 -0.14727964 -0.5082038 -0.46322694 0.17710398 0.4514319 0.11424356 -0.79131573 0.0020852224 -0.5389545 -0.09689125
buffalo -0.14204216 -0.78452474 0.0033355216 0.19421567 -0.10840801 -1.2085068 0.28223798 0.20154163 0.26368132 0.16919218 0.34887818 0.14926504 -0.13957618 -0.48196062 0.02950913 -0.7488958 0.016325928 -0.099969745 -0.024369145 -0.04348565 0.3014539 -1.0593998 -0.18108504 -0.06396437 0.31692046 0.5062255 0.09016058 0.19011174 0.09298169 -0.3832462 -0.07609781 0.02556398 0.20045671 0.43772164 0.5799066 0.07231283 0.34886202 -0.24687946 0.13984434 0.20620397 -0.5537897 -0.43458357 -0.25652668 0.12248757 -0.50432205 -0.011473902 0.3870865 -0.30567947 0.34710717 -0.7187519 -0.22140294 -0.18532556 0.41472143 0.019353513 -0.33674178 0.6140429 0.058032006 0.63486695 -0.2429801 0.045866594 -0.08148576 -0.5380238 0.3739053 -0.3804446 0.5688097 0.2143559 0.7645657 0.4160293 -0.27449358 -0.22367561 0.38898158 -0.38728708 -0.20529468 0.20317101 0.09322256 0.056230508 -0.04426833 -0.49897537 0.18921077 0.089126945 0.30686203 -0.45479286 -0.09090506 -0.13038102 0.5837961 -0.20934486 0.303831 -0.33354095 -0.8363574 -0.2609484 -0.38288185 -0.59052974 -0.8651896 0.041779798 0.51739305 -0.37237236 -1.2792934 -0.21997079 -0.3275819 0.0063591693
http://link477.com/ds/pizza#onion -0.31483573 0.06126871 -0.34111056 -0.019809522 -0.17423558 -0.119529165 0.02353056 0.70083344 -0.5419912 0.401222 -0.2989458 -0.5533726 0.047903858 -0.10422107 0.13339612 0.13114914 0.39002642 -0.2958605 0.15177333 -0.14930291 0.18333825 -0.230708 -0.008333172 0.06167403 -0.09023136 -0.14148092 0.16537774 -0.2077699 0.00032610705 -0.71084034 -0.6071207 0.31668496 0.273644 0.22697045 0.54074186 -0.083552025 -0.39755818 -0.23530339 0.2661688 -0.10141509 -0.19050725 -0.48278368 -0.26153708 0.2270688 -0.17140804 0.41277027 -0.20084755 0.0654205 0.48749128 -0.063552335 -0.09881886 -0.3826802 -0.22134428 -0.44276282 0.1734459 0.09344551 0.06859487 0.020138383 0.06032504 -0.12071414 0.0077548297 0.041926812 -0.035068206 0.1391821 0.35449684 -0.22348328 0.6381169 -0.09688157 -0.11332237 -0.33714297 0.15900844 -0.1502308 0.10839087 -0.27679655 0.21356618 0.10161724 -0.49389085 -0.11594786 -0.13604723 -0.28073195 -0.020208536 -0.35968933 0.11703968 0.16289541 0.038169026 0.3192404 0.08280024 0.21239209 -0.4910817 -0.28623 -0.32050416 -0.3619633 -0.2174367 0.28278157 0.13127217 -0.029068591 -0.18292747 -0.5454116 0.062008288 -0.118878245
http://link477.com/ds/pizza#olives -0.32676435 0.040700257 -0.37252295 -0.025831472 -0.17739342 -0.14196333 0.04621248 0.74008656 -0.54966474 0.42255315 -0.3209742 -0.5743245 0.035113856 -0.12881427 0.16262904 0.09452414 0.40382737 -0.2797069 0.1359892 -0.17324105 0.19516823 -0.25622523 0.04829596 0.07012984 -0.08439828 -0.08808874 0.20043209 -0.21201058 -0.0027288075 -0.68456477 -0.6637081 0.2847044 0.2666399 0.27148703 0.5387792 -0.06484597 -0.4136602 -0.26854485 0.25374424 -0.083801195 -0.21626346 -0.49410507 -0.25031307 0.21339223 -0.22610924 0.47409314 -0.16624959 0.038851596 0.50658345 -0.0760049 -0.0873331 -0.39278293 -0.21465343 -0.44114968 0.18201587 0.12399412 0.061464235 0.058695402 0.06777768 -0.10184435 0.026235186 0.046330567 -0.06679045 0.13628067 0.34789452 -0.19996528 0.66922945 -0.07755706 -0.16053371 -0.31426403 0.12665357 -0.16151993 0.10121778 -0.27534357 0.19582921 0.12588437 -0.4808489 -0.1671907 -0.14219281 -0.24773869 -0.0072052535 -0.32856032 0.13377498 0.15188913 0.05069428 0.30621582 0.09461793 0.17266208 -0.42684346 -0.28798234 -0.30511495 -0.368197 -0.21158107 0.25801292 0.13579313 -0.021974253 -0.15787289 -0.51022226 0.03594515 -0.10794879
pesto -0.27369386 -0.77723485 -0.048768118 0.28903463 -0.1346896 -1.1339989 0.34236676 0.3094959 0.28272703 0.21012078 0.28455698 0.11308966 -0.11816141 -0.5039991 -0.052932844 -0.6620668 -0.021510603 -0.11345108 0.06257416 -0.021593425 0.2430941 -1.0502597 -0.013893706 -0.09174289 0.27013427 0.47961497 0.113019004 0.16583246 0.031879574 -0.37537625 -0.053064868 0.083963625 0.066932514 0.44012567 0.4976245 0.05486227 0.1806148 -0.23719901 0.19343989 0.34261703 -0.46426356 -0.28445837 -0.26451364 0.06815466 -0.40034944 0.006299054 0.42210013 -0.34987614 0.30886054 -0.6111221 -0.23035105 -0.20971303 0.30890384 0.0009627075 -0.28975484 0.5431944 -0.03639735 0.70036054 -0.25415155 0.100666136 -0.010809931 -0.57719785 0.28779542 -0.40384075 0.51897633 0.0844064 0.5630637 0.36402288 -0.1813538 -0.16831411 0.40200463 -0.27499065 -0.17217317 0.26660866 -0.0044108173 0.060745984 -0.08164054 -0.44934517 0.013863398 0.03453309 0.26800424 -0.3975235 0.0574519 -0.16930217 0.49876264 -0.26880628 0.36620048 -0.42093828 -0.7523577 -0.29474372 -0.31748056 -0.5808543 -0.76754177 0.08376508 0.52909285 -0.28730616 -1.1174392 -0.17431207 -0.30310324 -0.06276489
seafood -0.6214739 0.010185421 0.13563912 0.11174385 -0.0642193 -0.6914293 -0.08458539 0.14446668 -0.08485355 0.10600089 -0.013096282 0.3909936 -0.09241134 -0.34082198 0.089153394 0.08627402 0.31518272 -0.26701382 -0.06601791 0.31526476 -0.084886506 -0.41690058 -0.63771 -0.36563644 -0.04608202 -0.21239616 0.1697591 0.3466602 -0.08420907 0.040186003 0.29287317 0.4791627 -0.10088249 0.10776671 0.7073766 -0.0939342 0.16807672 -0.3582953 0.122826025 0.100535914 -0.07113108 -0.3806177 -0.09239112 0.032806583 -0.14238383 -0.2466166 -0.15474585 -0.41717038 0.11463511 -0.694295 -0.15833896 -0.38733092 0.38254198 -0.00094397203 -0.28161073 0.46968558 -0.249862 0.38265568 0.03308109 -0.2716991 0.24178855 -0.440778 0.09505468 -0.33278418 0.57831794 -0.17792475 0.12450437 0.080764525 0.07174327 0.13822229 0.5610812 0.25917685 0.11921647 -0.13198742 -0.51579744 -0.07411992 -0.067514114 -0.12397484 0.17525159 -0.4446407 -0.23312223 -0.5756408 -0.28558147 0.35860014 0.5848 0.18994652 0.23829839 -0.21052195 -0.7449237 -0.15378453 -0.23848987 -0.15026426 -0.7858645 0.37775773 0.15388729 -0.06528378 -1.083982 -0.38996008 -0.18514553 0.07995102
arugula -0.33349404 -0.18603867 -0.12767032 0.26336592 -0.040066533 -0.56142414 0.0526014 0.24471104 -0.23869257 0.21208505 -0.15616538 0.3199783 -0.26521325 -0.8467087 0.21989988 -0.061132718 -0.20257036 -0.014964905 0.37424573 0.22314252 0.34572852 -0.88112634 -0.1761565 -0.30380177 0.22827227 0.17113246 0.036348294 0.17631355 -0.205916 -0.21631955 -0.32615146 0.293518 0.08123739 0.5668252 0.12681878 0.14303368 0.04398845 -0.34771326 0.36298445 0.39114273 -0.039806318 -0.14051181 -0.29121098 -0.090479866 -0.38390288 -0.19207367 0.25939873 -0.2792192 0.059799585 -0.21851954 -0.42475572 -0.14400932 0.09534113 -0.09090894 -0.116641015 0.57843846 0.081160165 0.7280728 -0.055494163 0.054515928 0.09716186 -0.43223813 0.25327936 -0.41570073 0.20930533 0.23730712 0.3250538 0.05928959 0.049967285 -0.09764677 0.33464968 -0.26616237 0.18120442 0.23417349 -0.21708487 -0.052252077 -0.27447125 -0.46245724 -0.023714097 -0.13667072 0.066781536 -0.27733934 0.42840737 0.1781301 0.575157 0.17214842 0.0678829 -0.5182455 -0.6843503 0.10305931 -0.3240803 -0.36912984 -0.32278433 0.2618802 0.0031161485 0.09848837 -0.6468049 -0.20498976 -0.044575542 0.0021141048
taco -0.3457459 -0.29836166 -0.08851465 0.16728036 0.07773637 -0.53589755 0.15973063 0.29550642 0.0124151865 0.13949081 -0.044153314 0.1922679 -0.11863442 -0.44409844 0.009417895 -0.08923288 -0.02510191 -0.13769056 0.18703558 0.079589725 0.0006673399 -0.57052773 -0.24194485 -0.122466885 0.060877208 0.17092915 0.12708926 0.07969188 0.101357065 -0.27529567 -0.16887808 0.2527199 0.06982623 0.30577838 0.26347044 -0.037964802 -0.038716227 -0.26755536 0.13468765 0.2664324 -0.21344256 -0.39028406 -0.02470965 0.21104248 -0.31050655 -0.17583083 0.012323246 -0.3328741 0.10708009 -0.4532516 -0.21106613 -0.15040691 0.15654802 -0.19746707 -0.13058774 0.51101124 0.05531746 0.5362632 -0.09810486 0.053742886 0.011488462 -0.31390253 0.26148805 -0.24820559 0.36475036 0.092672504 0.2032794 0.023420887 -0.12802145 -0.18961293 0.22327176 -0.04598677 0.004089512 0.16268873 -0.17956507 0.17114876 -0.08703366 -0.25687292 0.022822026 -0.1858374 0.08410116 -0.32495552 -0.015078835 0.0068273973 0.35361156 0.017048098 0.21830027 -0.30835333 -0.427598 -0.09359975 -0.27121022 -0.3602795 -0.45707422 0.16393535 0.18734767 -0.048137434 -0.6609011 -0.115885794 -0.22942989 0.115817875
giardiniera -0.40230286 -0.36723176 -0.20166042 0.22811025 0.044760033 -0.56064624 0.16411527 0.38261902 0.053792164 0.19692945 -0.107777275 0.116068736 -0.1351506 -0.5087456 0.039269686 -0.15379807 0.0049809553 -0.06042316 0.18649754 0.03566957 0.010682654 -0.6698282 -0.15655008 -0.11134738 0.14572036 0.323306 0.13107759 0.013156998 0.13861099 -0.41481605 -0.35222697 0.2289533 0.055252884 0.2528337 0.23941167 -0.053405877 -0.11141493 -0.32759374 0.15043622 0.28781417 -0.21452305 -0.44219607 -0.018234659 0.16910245 -0.30650178 -0.13079116 0.033890296 -0.29690856 0.077131845 -0.4700567 -0.19045764 -0.0998928 0.075959094 -0.27317956 -0.09432648 0.5490163 0.11580023 0.6286868 -0.15193713 0.08867755 0.021192893 -0.32316113 0.2888384 -0.2458613 0.36024398 0.16956338 0.25969172 0.039706457 -0.23782593 -0.26313278 0.15849161 -0.00055283913 0.032754503 0.30233076 -0.103426 0.16505249 -0.058817938 -0.26958415 -0.064659365 -0.1295249 0.07966937 -0.18733086 0.014441948 -0.06939838 0.30013373 0.0289718 0.23182891 -0.30253795 -0.2606482 -0.123393916 -0.22932342 -0.37724227 -0.39141396 0.21049592 0.26097193 0.035568353 -0.6563955 0.012426288 -0.34199598 0.061931994
http://link477.com/ds/pizza#giardiniera -0.4282589 0.05635338 -0.40928954 -0.0021046845 -0.1288159 -0.15402867 -0.0071190256 0.6145195 -0.34992015 0.29588562 -0.27141377 -0.3158347 0.06025079 -0.18983638 0.066483386 0.07549422 0.27061543 -0.27315208 0.21298851 -0.1290514 0.10550861 -0.33385995 -0.11847532 0.14074595 -0.014501645 -0.075577565 0.12611982 -0.16841258 0.014297291 -0.7910914 -0.5615958 0.24917535 0.2959638 0.20037161 0.3708408 -0.02892966 -0.48477396 -0.18948929 0.18345939 -0.08158203 -0.20825651 -0.6221701 -0.14868182 0.261214 -0.22592933 0.38693464 -0.28852582 -0.0025305296 0.33171114 -0.0701639 -0.044271246 -0.2833799 -0.24417636 -0.48668334 0.13420253 0.13463236 0.19235466 0.13042805 -0.0066768304 -0.101794645 0.13666975 -0.0041351025 0.00954213 0.124256216 0.268223 -0.23888461 0.47374266 -0.20594586 -0.0748675 -0.43086085 0.17861713 -0.05369642 0.16153772 -0.14039773 -0.012386946 0.054902356 -0.3701196 -0.095180884 -0.12869915 -0.21022451 -0.055283185 -0.18788995 0.17666842 0.092311464 0.07553417 0.2023519 0.0980265 0.1848245 -0.43541166 -0.23764086 -0.39866525 -0.29243705 -0.19704807 0.31908968 0.099316485 0.039187506 -0.17703739 -0.45652202 0.052039966 -0.005539013
aubergine -0.49716964 -0.16677685 0.107136175 0.13745283 0.3435723 -0.7256514 0.18208508 0.58439964 -0.15411189 0.1783568 0.089305855 -0.1946488 -0.153911 -0.69065297 0.13712274 0.03568553 0.05687515 -0.17648093 -0.12279003 0.31055906 -0.19400613 -0.40790063 -0.29324457 -0.3543776 -0.101098716 -0.15840918 0.085328005 0.19459999 0.015308453 0.112831004 -0.37072346 0.14197537 0.18952997 0.28545064 0.33952248 0.10519283 0.021092404 -0.3252158 -0.013846786 0.4473714 -0.25217724 -0.39232278 -0.19602567 0.12776755 -0.44398895 -0.24732713 0.071757376 -0.6102172 0.2462594 -0.16975474 -0.44066808 -0.32838157 0.3040812 -0.19939974 -0.165662 0.48884377 0.042255018 0.2577086 0.19145603 0.15400161 0.016480636 -0.23155583 0.4251275 -0.58803463 0.49979547 0.06543672 0.4844363 -0.19201149 0.06322112 -0.12624064 0.18735081 -0.11257353 0.116286635 0.15333067 -0.23410515 0.38356036 0.09251438 -0.08234805 -0.06582002 -0.41952652 0.027118238 -0.19961338 0.124000706 -0.15711543 0.3721335 0.04583616 0.24505897 -0.60636556 -0.6372383 0.14166188 -0.3362261 -0.38985303 -0.45007783 0.026311269 0.29547113 -0.036739316 -0.57721096 -0.13802762 -0.13292606 -0.051529437
dough -0.6066543 0.053214327 0.023696946 -0.106224716 0.1816938 -0.4814019 0.16664316 0.28271985 0.23741333 0.44741789 0.13284957 0.35046998 0.23436528 -0.2639548 -0.23550962 0.08683736 0.14765197 -0.34521794 0.42447513 0.3234713 -0.06177958 -0.40408328 -0.7264915 -0.46260813 0.06762332 0.14246458 0.23550181 -0.00049004384 0.07655508 -0.7502943 -0.0037054343 0.25232592 -0.15676984 0.17593244 0.22985502 0.001766448 0.017132875 -0.10995334 0.11302099 0.3379548 -0.18407361 -0.40726638 0.33956984 0.52353144 -0.18241444 -0.44316944 -0.09721023 -0.22047241 -0.12893368 -0.6750446 -0.3472463 0.3054553 0.2172326 -0.18822134 -0.2728972 0.6823527 -0.26889297 0.83136874 -0.062359884 -0.1914246 0.12822339 -0.58701366 0.46156716 -0.3573438 0.007625685 0.08537181 0.09842706 -0.30845326 -0.41397253 -0.73974335 0.8799117 -0.007452941 -0.122146815 0.25191844 -0.41451105 0.5155367 -0.044167906 0.06036776 0.25693053 -0.13209306 0.027066715 -0.34033608 -0.38429195 -0.15764125 0.64764374 -0.2740363 0.10006909 0.054152645 -0.77623594 -0.1492186 -0.5583452 -0.38099054 -0.41251105 0.67035544 0.44864222 -0.20109579 -0.9820638 -0.31854707 -0.29078215 0.32887757
capricciosa -0.46244153 -0.41944715 -0.19330305 0.27351463 0.037505582 -0.6192334 0.14788818 0.40896407 0.077012755 0.18937817 -0.11095559 0.12549971 -0.18256767 -0.59569716 0.0411016 -0.1826933 -0.021214487 -0.048303597 0.22568056 0.037180435 0.0041021993 -0.7273561 -0.1019271 -0.16607355 0.18252157 0.3371261 0.15627293 0.0009378386 0.088009804 -0.42217684 -0.37242183 0.26158735 0.023048876 0.21771772 0.24762785 -0.062089108 -0.1753759 -0.39069661 0.13591868 0.3241818 -0.24150857 -0.4033234 -0.024277806 0.116204634 -0.3449115 -0.17817539 0.052289665 -0.30614507 0.054686666 -0.49060237 -0.20411398 -0.10449424 0.0893941 -0.27679938 -0.07818052 0.5769312 0.07882965 0.6604789 -0.15469417 0.0637093 0.034973428 -0.31773517 0.29680896 -0.2633231 0.37609196 0.2249241 0.23226833 0.013456127 -0.26929948 -0.21931046 0.21480316 0.035694487 0.031508937 0.3428408 -0.10403554 0.16347118 -0.04004606 -0.23948263 -0.062550135 -0.18329467 0.11175795 -0.23687097 0.031312272 -0.036811203 0.36132795 0.068735644 0.23141627 -0.35672462 -0.21624462 -0.09129812 -0.22661655 -0.39964598 -0.4131687 0.24809484 0.3029996 0.04076207 -0.7247512 0.046690118 -0.35027274 0.03525221
pollo -0.07317656 -0.95129234 -0.70071125 0.32928774 -0.039517082 -0.5656649 0.30748528 0.5743994 0.52895784 0.09456704 0.4875971 -0.1425368 0.03369267 -0.6538474 -0.01553822 -0.025942214 -0.06037111 0.3657088 0.39725205 -0.1301002 0.012602794 -0.89898354 0.1035858 -0.38744047 0.2717148 0.35409638 0.039662566 -0.39166963 0.49882218 -0.18726286 -0.49882177 0.13011356 0.26494956 0.24939254 0.8074367 -0.22375281 0.29675487 0.1705492 0.43753386 0.3038644 -0.23745006 -1.0332819 0.16876544 -0.08531708 0.226812 0.16754921 0.062289275 -0.5223371 0.31387234 -0.5048441 0.107123256 -0.10137045 -0.01250979 -0.47176328 -0.096030794 0.6537145 0.29683974 0.79540706 -0.19599612 0.23596881 -0.029734235 -0.66768205 0.25642604 -0.6063406 0.7453949 -0.32797796 0.73263186 0.43401274 0.030914402 -0.6481306 0.029730596 -0.40407476 -0.18222745 -0.23639604 -0.2855404 0.4855078 -0.17584245 -0.48924345 -0.18900469 -0.122558706 0.027823523 -0.027909983 0.3056842 -0.63234913 0.19905981 0.120330155 -0.07132381 -0.52690715 -0.55241305 -0.028577479 -0.5165268 -0.3882951 -0.6701096 0.3433599 0.23456128 -0.08064826 -0.62382203 -0.36366993 -0.31138757 -0.23637684
ad -0.26616088 -0.95680887 -0.6648299 0.2832768 -0.14480047 -0.5218986 0.22957645 0.57352936 0.439624 0.14844345 0.49385202 0.07826201 -0.13400815 -0.58855176 -0.09988758 -0.11195935 -0.004728263 0.17452025 0.4559855 -0.0376024 0.03770316 -0.80249405 0.11816085 -0.4724675 0.10488938 0.5150593 -0.009024533 -0.32329726 0.47248855 -0.3824527 -0.5620946 0.083327554 0.36215904 0.3743714 0.86310095 -0.18214251 0.2966965 0.15484266 0.48345888 0.26140285 -0.33675697 -0.98155606 0.058509104 -0.06066711 0.25051618 0.19295469 0.21204923 -0.55857825 0.24650677 -0.43435556 0.064985335 0.013922202 -0.0017140746 -0.47172907 -0.09556614 0.7287449 0.35196856 0.84069186 -0.2699303 0.3671478 0.075829454 -0.75081056 0.30427963 -0.6042436 0.7694954 -0.33870968 0.77931404 0.4840048 -0.10057523 -0.5668188 0.088260464 -0.33325788 -0.30997518 -0.08441955 -0.37856132 0.5276175 -0.25302586 -0.526033 0.049565807 -0.0868155 0.060512435 -0.019217031 0.3671589 -0.5953271 0.14228831 0.06256054 0.038648993 -0.5195505 -0.40098947 -0.1345275 -0.5425383 -0.2999975 -0.7747007 0.35851732 0.17660907 0.022109644 -0.6533729 -0.40917224 -0.4116789 -0.105043836
astra -0.11446015 -0.9513379 -0.72887295 0.37292358 -0.069137305 -0.5770369 0.3119504 0.6492818 0.51465887 0.12071798 0.44038582 -0.12259445 0.013028259 -0.6511464 -0.009093061 -0.09674077 -0.05579163 0.36177394 0.42975166 -0.16229382 0.015205754 -0.9713005 0.052103136 -0.32796782 0.28515708 0.45513302 0.029164622 -0.4063901 0.4816696 -0.2286256 -0.567718 0.0999107 0.17972767 0.22984554 0.8026776 -0.23053452 0.27651694 0.09578271 0.4449158 0.31503713 -0.29053226 -1.0680192 0.14626572 -0.052762687 0.21478069 0.17092994 0.12026879 -0.53761023 0.31736505 -0.54449874 0.07114995 -0.10243127 0.015992058 -0.537229 -0.15242925 0.7530799 0.37625104 0.842139 -0.23124276 0.33461854 -0.04559464 -0.6803528 0.32225657 -0.6228724 0.7848036 -0.29195735 0.6968041 0.47639382 -0.04075613 -0.61474156 0.031373683 -0.39530677 -0.1719326 -0.17907055 -0.30233237 0.52090245 -0.14569245 -0.53249454 -0.18391332 -0.09033962 0.035814617 0.061585046 0.2865137 -0.64995486 0.19968264 0.1350018 -0.071575314 -0.50464386 -0.48505792 -0.05638936 -0.42874178 -0.40527886 -0.70473355 0.3629362 0.24314791 -0.054053508 -0.608307 -0.32415205 -0.34145245 -0.23143134
stagioni -0.7044251 -0.60917425 -0.19611903 0.5037278 0.16090457 -0.91505736 0.10736037 0.59342617 -0.07673028 0.00810689 0.04786087 0.07589404 -0.2910191 -0.7979026 0.0034339903 -0.30862075 -0.1515213 -0.07165865 0.11046276 -0.038287718 0.080463715 -0.89129835 0.21209998 -0.38600525 0.394236 0.18448795 0.16351603 -0.08575378 -0.20969099 -0.79569656 -0.3712375 0.20643462 0.23903155 -0.088653594 0.43305632 -0.15351419 -0.47533742 -0.73967385 -0.10879211 0.44470882 -0.50336266 -0.24512787 0.07638544 -0.022802096 -0.5822314 -0.19529702 -0.078841455 -0.22329523 -0.23720768 -0.34540233 -0.18498035 -0.12604783 0.110367075 -0.36181396 0.10991283 0.6199137 -0.09388 0.65251905 -0.14437598 -0.21953101 -0.17623633 -0.11640412 0.4872919 -0.26752266 0.43292877 0.24700114 0.23939396 0.16671984 -0.30219963 -0.03325543 0.4982318 0.05340989 0.29044196 0.2595025 -0.20679949 0.14577891 -0.13484603 0.12346439 -0.046441294 -0.42096663 0.17047769 -0.53800076 0.0057506613 0.31341687 0.54074043 0.039205696 0.50319713 -0.49208623 0.08662848 0.024729148 -0.14440666 -0.4600873 -0.2334376 0.537325 0.61885947 0.43850276 -0.5994643 0.096990205 -0.5743606 -0.087157
pizzaiola -0.48428056 -0.19125466 -0.24702215 0.087187566 0.03172168 -0.60774 0.31871536 0.11045973 0.2399108 0.25097147 -0.017043293 0.24439692 -0.024905428 -0.33991817 0.024057975 -0.21606812 0.2555404 -0.12256808 0.28344697 0.031494886 -0.1345662 -0.43234697 -0.41627094 -0.13442883 0.2042925 0.3604957 0.21401097 0.07878151 0.119015135 -0.58768976 -0.22079135 0.20964749 -0.014533255 0.21861245 0.041126207 -0.07284762 -0.16204558 -0.29494298 0.18712722 0.19800857 -0.13617665 -0.40838093 0.1752181 0.2520907 -0.02202427 -0.26962098 -0.19175988 -0.27377516 -0.13747622 -0.6258641 -0.27891374 0.12727644 0.031245323 -0.39214644 -0.05874541 0.51134956 -0.12415361 0.62850267 -0.24445592 0.09876915 0.11201711 -0.5015743 0.18731798 -0.1685268 0.15487505 0.06847302 0.14382888 -0.170648 -0.2911979 -0.4959402 0.43747705 0.23877375 -0.055295546 0.41718 -0.04457142 0.27282098 0.01848355 -0.00064356683 0.21730343 -0.22868706 -0.018356387 -0.16205344 -0.21100359 -0.14672153 0.44367528 -0.14506471 0.2168103 -0.080241896 -0.53564334 -0.20620148 -0.4151935 -0.15050016 -0.40998945 0.23742014 0.38004905 -0.00044369552 -0.8898995 -0.20204017 -0.33479246 0.12211098
http://link477.com/ds/pizza#bbqPizza -0.44048655 0.064919636 -0.4038105 -0.010565335 -0.13381252 -0.1513845 -0.014487162 0.57878727 -0.34115908 0.30785748 -0.2565891 -0.30208308 0.07180635 -0.17951705 0.04876056 0.104744434 0.24862565 -0.28226566 0.22960573 -0.13326392 0.084389724 -0.31960934 -0.14561601 0.15234981 -0.02598228 -0.09095028 0.113906965 -0.16634426 0.03119828 -0.8149294 -0.53113306 0.27379882 0.3176015 0.1922921 0.38953066 -0.016999686 -0.48780695 -0.15661553 0.18916419 -0.06772722 -0.22348459 -0.6604867 -0.15099287 0.28478664 -0.21056862 0.3847173 -0.31434917 0.0038525055 0.3344998 -0.056989685 -0.045300733 -0.30134645 -0.24991111 -0.47608417 0.12047905 0.13138619 0.21057644 0.12873045 -0.023540378 -0.12045466 0.14002681 -0.018078573 0.016085612 0.13437341 0.27151272 -0.2540872 0.45591053 -0.231798 -0.075709686 -0.46415576 0.20951475 -0.05195978 0.16629793 -0.14314671 -0.013505409 0.033267856 -0.39023277 -0.057775676 -0.11366174 -0.24290454 -0.08014821 -0.22156182 0.16673075 0.103642136 0.068090096 0.21913989 0.0792767 0.19831613 -0.4784815 -0.23223507 -0.41303116 -0.30426311 -0.20654269 0.35260287 0.09957536 0.04389097 -0.18765241 -0.4776788 0.06971237 -0.004196414
cowboy -0.460127 -0.35664225 -0.20189622 0.20206077 0.07237508 -0.6373887 0.19301206 0.3455884 0.057166506 0.1573048 -0.10528305 0.15029888 -0.16950722 -0.59756136 0.05238804 -0.18343677 0.042864047 -0.06278185 0.1980163 0.05288981 -0.058467317 -0.7366875 -0.14799218 -0.12464942 0.16879855 0.3204804 0.15951423 -0.03888952 0.101884626 -0.35949603 -0.3207051 0.29113188 -0.0032757309 0.29951608 0.26341763 -0.02666988 -0.12713212 -0.4354383 0.12168547 0.25544527 -0.22743848 -0.5348482 7.846093e-05 0.19210489 -0.29286343 -0.16056594 -0.024095751 -0.33861586 0.112707816 -0.52773136 -0.21235512 -0.13962376 0.10390592 -0.32730538 -0.13956411 0.6139192 0.12736115 0.6641263 -0.21990705 0.077699795 0.05183973 -0.3502885 0.29721868 -0.25224212 0.3792361 0.18886195 0.2060811 0.003445885 -0.2943532 -0.237204 0.19043924 0.044617105 -0.01652968 0.33421668 -0.0730825 0.18215224 0.022667132 -0.260796 -0.0018121676 -0.17213745 0.12308031 -0.23345442 -0.05121218 -0.012953751 0.3476079 0.09180784 0.22285761 -0.27684045 -0.2839307 -0.051421113 -0.24031156 -0.35299557 -0.4786876 0.20790175 0.29308307 -0.0072113257 -0.7479018 0.012540004 -0.3335273 0.05004805
supreme -0.4164937 -0.41849408 -0.34117275 0.27298978 0.09254408 -0.49229968 0.15557516 0.22166635 0.15121949 0.05810362 -0.073541805 0.024529574 -0.2879925 -0.4538775 0.029839227 -0.11156501 0.09414393 0.04999472 0.117305025 -0.02296017 0.0014640982 -0.6099003 -0.17791101 -0.2051136 0.19743241 0.3586309 0.19800481 -0.122216284 0.035775743 -0.36138836 -0.30235413 0.2419978 0.0648465 0.3784994 0.33275193 0.018733488 -0.046422124 -0.4375699 0.0684656 0.13189042 -0.20965402 -0.6124284 -0.007414934 0.17313416 -0.20090584 -0.08002518 -0.03521349 -0.2551135 0.18740784 -0.4549542 -0.19699214 -0.11031418 0.1109799 -0.5011105 -0.23224963 0.5968418 0.18158863 0.5781969 -0.265015 0.095206 0.03707283 -0.25832602 0.258368 -0.12572254 0.48256674 0.2614887 0.28189075 0.0457074 -0.33546054 -0.29543093 0.030364292 -0.027895123 -0.22918423 0.30405125 -0.0972559 0.2506435 0.05148562 -0.3750747 -0.089418665 -0.1707461 0.18329398 -0.24380857 -0.19915514 0.009032607 0.35253793 0.19869085 0.23080353 -0.20059593 -0.25201967 -0.050737776 -0.3075132 -0.31865954 -0.5910491 0.14808477 0.22089091 -0.07335733 -0.79083073 0.113537066 -0.45351407 -0.02584618
http://link477.com/ds/pizza#polloAdAstra -0.4292556 0.052368797 -0.39965492 -0.01204721 -0.12385596 -0.11280601 -0.024920715 0.5797995 -0.33029586 0.30182263 -0.26616582 -0.28208846 0.06910515 -0.15802279 0.0529527 0.105319165 0.26532844 -0.29511777 0.22780542 -0.110047996 0.078128345 -0.32689714 -0.14298311 0.11675022 -0.010247061 -0.10604152 0.09717685 -0.17336218 0.013370924 -0.829035 -0.54616225 0.27336353 0.29881608 0.18949983 0.37261906 0.0015534095 -0.49017227 -0.1651501 0.16647807 -0.061139595 -0.20062122 -0.639857 -0.12756775 0.2601576 -0.24729207 0.3757322 -0.31262502 -0.005525728 0.31593052 -0.07217682 -0.029398516 -0.3009477 -0.25033033 -0.48029575 0.111772425 0.13249126 0.16323835 0.113331765 -0.005799098 -0.12747501 0.16761824 -0.0050998344 0.0248561 0.12580863 0.25479782 -0.24678843 0.45832515 -0.2398506 -0.06570465 -0.45924667 0.208149 -0.04561099 0.16761766 -0.12405939 -0.002573703 0.017760146 -0.36434177 -0.06898777 -0.11953629 -0.23309967 -0.06044766 -0.2222343 0.17841232 0.12299258 0.08047448 0.20383015 0.11119693 0.19882216 -0.48736212 -0.22852746 -0.42257103 -0.2982225 -0.20676614 0.34380537 0.10599824 0.013219969 -0.19715819 -0.45776504 0.05795869 0.009283047
http://link477.com/ds/pizza#veneziana -0.43258074 0.047045622 -0.41098222 -0.008321128 -0.13207631 -0.1596776 0.00012219726 0.5860471 -0.3459688 0.29496208 -0.25851703 -0.31813276 0.060235564 -0.18716608 0.050380103 0.084971994 0.25908884 -0.25809208 0.2285118 -0.1407802 0.10575454 -0.32537037 -0.12458695 0.15751602 -0.021740317 -0.07023988 0.12183758 -0.16513577 0.028065128 -0.7819896 -0.5495279 0.2593674 0.2999802 0.18986495 0.36704528 -0.031307563 -0.4846985 -0.18165201 0.18773876 -0.07619456 -0.21204667 -0.6302527 -0.15002456 0.2780876 -0.20746519 0.39084712 -0.28628257 0.008585608 0.3355587 -0.056907102 -0.062531106 -0.28313193 -0.24341862 -0.4780607 0.12849823 0.11883019 0.20019919 0.12193448 -0.020026207 -0.10788239 0.12791823 -0.01744473 0.0126927495 0.13735639 0.25510645 -0.24443507 0.44821313 -0.21801524 -0.100930244 -0.4473439 0.19464035 -0.052566625 0.15906225 -0.13483167 -0.0029877853 0.03779982 -0.38425016 -0.08286215 -0.1164816 -0.20490071 -0.072996944 -0.17981505 0.16875088 0.08555258 0.054862596 0.2024106 0.08806447 0.18916701 -0.43624735 -0.23801108 -0.3930138 -0.29018328 -0.18445723 0.32811967 0.1010044 0.056813426 -0.17832085 -0.45099697 0.05418015 -0.018637698
http://link477.com/ds/pizza#supremePizza -0.45776004 0.08140552 -0.43607596 -0.028843919 -0.14833379 -0.13490357 -0.01975102 0.6295381 -0.36940685 0.31669334 -0.2874782 -0.33242428 0.080167286 -0.18742852 0.06817041 0.10271928 0.28019193 -0.29400912 0.23020765 -0.13416713 0.1005542 -0.34225583 -0.13625601 0.14717284 -0.018820414 -0.10844176 0.11049277 -0.17746347 0.0031302404 -0.8601265 -0.58447176 0.28262922 0.3280763 0.19752671 0.41668493 -0.02357144 -0.5003589 -0.18068163 0.18962239 -0.08284536 -0.23135574 -0.673142 -0.15891412 0.2893881 -0.23665968 0.4187772 -0.3246959 0.0032027585 0.35202664 -0.05916402 -0.038424607 -0.3169353 -0.26239043 -0.5086816 0.1359738 0.121357396 0.20660116 0.11425168 -2.1543121e-05 -0.123606406 0.15252548 0.0014200802 0.01578262 0.14616546 0.2857328 -0.273809 0.5007054 -0.23824072 -0.06858334 -0.47733447 0.20408577 -0.044106938 0.17135826 -0.1614574 -0.0135187805 0.03886665 -0.3996904 -0.06304436 -0.13610768 -0.23970416 -0.060497615 -0.2214203 0.18746825 0.12809557 0.0926435 0.23027895 0.09865513 0.22165133 -0.5042013 -0.24022244 -0.43474114 -0.29816294 -0.21951257 0.36488655 0.092262216 0.041406356 -0.18324065 -0.49813128 0.0844977 -0.01661992
http://link477.com/ds/pizza#capricciosa -0.46331078 0.06679348 -0.44853684 -0.0230565 -0.13507819 -0.14260846 0.012352876 0.63327503 -0.36621848 0.32244468 -0.28797218 -0.33954298 0.076022275 -0.20051105 0.06913423 0.07861655 0.2828992 -0.2790449 0.23779266 -0.14811705 0.10257582 -0.33455706 -0.12783843 0.17297375 -0.002788097 -0.07505271 0.13826795 -0.189861 0.017622568 -0.8370865 -0.579326 0.2671569 0.32197312 0.19215325 0.38156065 -0.027079111 -0.5302573 -0.19708663 0.19497494 -0.09265215 -0.23392397 -0.6781424 -0.1455162 0.28263482 -0.23678115 0.43547142 -0.31685272 0.008637151 0.35740402 -0.07664236 -0.039427716 -0.3011284 -0.27918106 -0.51237285 0.13881882 0.12969044 0.20713414 0.13746166 -0.013707552 -0.10345594 0.15405421 -0.008136946 -0.0042685843 0.14235981 0.2555569 -0.26102751 0.48759767 -0.2469352 -0.11038143 -0.4662118 0.18353818 -0.045617472 0.17926857 -0.14533575 -0.004026093 0.04759298 -0.39590797 -0.0929379 -0.1317122 -0.21397454 -0.072875045 -0.18713394 0.18393616 0.10714215 0.074834496 0.20382127 0.10830893 0.21988237 -0.46675172 -0.25397474 -0.43790904 -0.29349893 -0.18866369 0.3499102 0.104651816 0.048668332 -0.17771417 -0.4822598 0.061761696 0.00038803622
veneziana -0.3463613 -0.41116017 -0.22538885 0.23049323 -0.0030350161 -0.5493409 0.14528188 0.40633124 0.050669402 0.19223303 -0.07210094 0.11524556 -0.13047083 -0.541524 0.020038545 -0.14013207 -0.024836406 -0.038716383 0.19939306 0.030843029 0.030058548 -0.7048716 -0.13400073 -0.14013533 0.15406464 0.3384281 0.12835588 0.012409999 0.15438485 -0.40964195 -0.3475749 0.20928122 0.051237687 0.24966775 0.28766736 -0.0729753 -0.075248234 -0.28806314 0.16886635 0.35255992 -0.22281922 -0.43782586 -0.014424242 0.15431646 -0.3286748 -0.14429075 0.057962276 -0.297976 0.103902854 -0.47720513 -0.15195747 -0.12874311 0.06853571 -0.2653866 -0.0886505 0.55258226 0.16453806 0.6297832 -0.1469827 0.09458734 0.015811212 -0.32889846 0.29095963 -0.2741303 0.39400503 0.16805874 0.29483843 0.07376442 -0.2273494 -0.26866397 0.12794176 -0.055530846 0.048677083 0.23036748 -0.13131964 0.17635144 -0.066655464 -0.31241667 -0.08213488 -0.11414442 0.08521498 -0.1851727 0.05027675 -0.07742346 0.2817066 0.045840006 0.21705526 -0.34675375 -0.25462374 -0.1343095 -0.22709313 -0.37252447 -0.41909558 0.20163283 0.20779969 0.0190816 -0.65731895 -0.004613726 -0.35430276 0.045067485
http://link477.com/ds/pizza#cowboyPizza -0.44040003 0.070826635 -0.41226053 -0.02094187 -0.14196925 -0.13319813 -0.026485495 0.60911083 -0.37528294 0.31931573 -0.27074513 -0.31667045 0.07260515 -0.16967714 0.075413644 0.105561875 0.27123147 -0.2926873 0.22951739 -0.12783998 0.11028813 -0.32738283 -0.13037539 0.15422432 -0.022762494 -0.115860865 0.10378908 -0.17008758 0.016509356 -0.8303058 -0.55857325 0.28592765 0.31653166 0.19476576 0.39858705 -0.04247176 -0.48437047 -0.17116056 0.18960752 -0.078019634 -0.2107801 -0.64156395 -0.1631351 0.28968346 -0.21656272 0.38505086 -0.2976773 0.0055386783 0.34386754 -0.054565765 -0.057142574 -0.29812542 -0.2426062 -0.4997114 0.13228549 0.11970487 0.2042756 0.1054746 -0.018037828 -0.12303913 0.13524796 0.0019372975 0.024429057 0.1404441 0.28956044 -0.25609607 0.47186375 -0.23391877 -0.06185996 -0.47280827 0.21162952 -0.04103386 0.16729006 -0.1518682 -0.0005121209 0.040602434 -0.3941185 -0.06616465 -0.12565893 -0.23056076 -0.076266736 -0.21243554 0.18807326 0.1138135 0.07226308 0.2192835 0.07980476 0.2158547 -0.48880696 -0.241958 -0.41081035 -0.30592838 -0.20395145 0.34480515 0.108747594 0.044723447 -0.18203084 -0.48811713 0.089296065 -0.026434429
http://link477.com/ds/pizza#quattroStagioni -0.44074565 0.07224318 -0.42176569 -0.017632686 -0.14385131 -0.113019615 -0.030859193 0.6113592 -0.36627406 0.31139582 -0.26936337 -0.31301054 0.06991243 -0.1677617 0.072938055 0.103154235 0.2773228 -0.2881573 0.22832735 -0.12914108 0.102928065 -0.3218625 -0.14185283 0.1499414 -0.011541532 -0.1144263 0.10550593 -0.17539401 0.0014828068 -0.8346875 -0.5659149 0.27542183 0.3155567 0.1908282 0.38742846 -0.021929448 -0.4980818 -0.16794495 0.17621563 -0.08507813 -0.21809423 -0.65839314 -0.15243496 0.27569258 -0.24213894 0.4059705 -0.31169486 0.0109754605 0.34382492 -0.05864959 -0.04349346 -0.30747667 -0.269519 -0.4950302 0.12727071 0.114232935 0.19842689 0.106456205 -0.009039967 -0.12509146 0.15376022 -0.0035565968 0.015412693 0.1413681 0.27603114 -0.2681876 0.48669738 -0.2436647 -0.05750959 -0.47343546 0.20556076 -0.046817344 0.18420348 -0.15699854 -0.0179702 0.04373526 -0.38589117 -0.065270126 -0.12967105 -0.22387701 -0.067291334 -0.2050266 0.19524059 0.1089002 0.082339905 0.21990074 0.09084182 0.22205669 -0.4949268 -0.23696017 -0.42364058 -0.29939646 -0.2121793 0.34695414 0.088107064 0.03494348 -0.18774675 -0.49460828 0.072833315 -0.0015542577
restaurant -0.79702365 0.00030871987 -0.5621294 -0.07352458 -0.08985947 -0.6922389 0.41947022 0.17467926 0.12835312 0.30827615 -0.14034484 0.44439477 0.23240477 -0.45537242 0.047438193 -0.18217033 0.31419048 -0.2896991 0.67481506 -0.04334645 -0.26571575 -0.62941676 -0.86496943 0.062974185 0.24931273 0.35963774 0.06395685 -0.0730994 0.35409966 -0.96290207 -0.2919666 0.35730234 0.18818413 -0.039208163 0.061220303 -0.094210535 -0.5584048 -0.17401077 0.27475956 0.043401122 -0.108774096 -0.7647385 0.3348575 0.36322832 0.03453054 -0.2322461 -0.5865172 -0.21809377 -0.094112344 -0.8360504 -0.25964087 0.26905274 -0.28291473 -0.55224586 -0.13808867 0.6008821 -0.11266517 0.6547608 -0.3562412 0.03711818 0.3414346 -0.80152035 0.2616923 -0.06878151 0.05287458 -0.07872062 0.035171293 -0.4481177 -0.38730723 -0.98983467 0.45831206 0.5748933 0.18200074 0.57232237 0.027935438 0.09309611 -0.22225605 0.1506301 0.32893348 -0.3541524 -0.2980921 0.069529794 -0.20736787 -0.34436572 0.47380784 -0.39126998 0.4253444 0.4930227 -1.0210519 -0.24350421 -0.7744563 -0.15298118 -0.4822013 0.5621485 0.4247523 0.4091953 -0.83156747 -0.4420458 -0.04816191 0.25437286
parmezan -0.45099247 -0.48672438 0.019843029 0.041538473 0.1484894 -0.67422336 0.23880664 0.50318706 0.0191054 0.33044493 -0.11036868 -0.019357653 -0.03739362 -0.43639198 0.06182558 -0.19450295 -0.058858722 -0.12933391 0.11127042 0.03944797 -0.04494327 -0.6630966 0.04110198 -0.22786202 0.11117938 0.32216057 0.2910347 0.13079315 0.13610849 -0.25978264 -0.34733906 0.24119866 0.048999853 0.37636307 0.14063992 -0.06432565 -0.11646868 -0.42391488 0.13270344 0.36965263 -0.19259375 -0.31371838 -0.19466987 0.11270283 -0.4549377 -0.1916362 0.214336 -0.36186633 0.057986166 -0.4140739 -0.2594937 -0.17194867 0.18724817 -0.040283088 0.0076120216 0.4881681 0.03945535 0.68790495 -0.14302951 0.03327539 -0.13018285 -0.37557718 0.2605228 -0.40765086 0.36805952 0.290504 0.24804138 0.08768073 -0.23584314 0.001978464 0.31828868 -0.14539468 -0.061908342 0.26728457 -0.009247516 0.035074145 0.017105358 -0.32011437 0.017379653 -0.24918358 0.19691719 -0.47808117 0.02574199 0.040004738 0.47222614 0.107515484 0.22398695 -0.51139545 -0.33358023 -0.21261324 -0.21725392 -0.57228607 -0.6178698 0.08587042 0.3572529 -0.006768178 -0.75430006 -0.14431687 -0.35873947 -0.011403366
ham -0.4630221 -0.41977772 -0.12074372 0.32642287 0.07142174 -0.6099246 0.12446766 0.41113567 0.10652244 0.16178533 -0.18117762 0.029973574 -0.23069832 -0.59911287 0.10615896 -0.2014614 -0.15930201 -0.0516947 0.19940463 0.059778158 0.017514816 -0.6463095 0.0922727 -0.23911965 0.16094878 0.31666592 0.24772139 0.065278694 -0.16312979 -0.38690138 -0.4214548 0.33106816 -0.007707212 0.25923318 0.18662275 0.05244162 -0.25346887 -0.4243769 0.20376135 0.29449302 -0.2337618 -0.18735152 -0.14732797 -0.002318448 -0.3245659 -0.24979082 0.16739203 -0.2271458 0.025620088 -0.3145041 -0.31063694 -0.06318789 0.12679464 -0.19458409 -0.039712764 0.4415551 -0.03974827 0.6066997 -0.14205678 0.00051239796 0.0507724 -0.22737856 0.22976731 -0.19281249 0.37343395 0.2860343 0.23758157 0.029831428 -0.15541565 -0.09638842 0.40844512 0.03241405 -0.042475138 0.46718168 -0.08289423 0.12603341 -0.082854964 -0.17581373 -0.086083435 -0.28004396 0.24822025 -0.42451373 0.11753595 0.15240735 0.5219429 0.17737967 0.13840945 -0.42738295 -0.23728381 0.005656481 -0.22082987 -0.43704534 -0.50066304 0.22236906 0.29957545 -0.0033459575 -0.8476458 -0.063757606 -0.34030405 0.0015865001
steak -0.46550888 -0.44386482 -0.27069575 0.29212797 0.082494296 -0.5075031 0.16482064 0.26527408 0.14711909 0.06458153 -0.034847513 0.09167657 -0.22895186 -0.44328812 0.031186447 -0.086652815 0.015832605 -0.011257082 0.19001675 0.023478119 0.010735931 -0.60907686 -0.29404825 -0.17142627 0.15912396 0.33662727 0.051345594 0.058467362 0.11985611 -0.2998923 -0.1855019 0.22496752 0.059922796 0.34147614 0.26894546 -0.02656429 0.039064642 -0.31563383 0.053955287 0.22527784 -0.1972034 -0.5697782 0.0031145695 0.23135832 -0.2294707 -0.090925336 -0.0474219 -0.39861438 0.06242963 -0.51133066 -0.25209266 -0.082051106 0.12474414 -0.3299397 -0.22803551 0.6264364 0.15342796 0.6340003 -0.25343522 0.15612844 0.047646962 -0.36710724 0.3241844 -0.18353325 0.47109088 0.17664368 0.35079083 0.10301661 -0.23134123 -0.28564483 0.026839953 -0.016556548 -0.08487999 0.2797504 -0.19650574 0.1967712 -0.07543976 -0.4070834 -0.076173626 -0.12591967 0.11467407 -0.2766157 -0.13300301 -0.079517946 0.3922869 0.06925518 0.21912311 -0.3093975 -0.44767204 -0.035504244 -0.29365525 -0.3584723 -0.5068975 0.10665325 0.1414044 -0.011112024 -0.85181975 0.018153554 -0.4407698 0.12941307
